window.DATA = {"points":[[-2.9558,-0.1037],[-2.7372,0.2114],[-2.6171,-0.2979],[-2.4349,-0.1322],[-2.3128,-0.1096],[-2.2313,-0.0832],[-2.2205,-0.0675],[-2.1615,-0.0909],[-2.1612,-0.2966],[-2.0743,-0.3751],[-1.8632,-0.2787],[-1.8322,-0.4875],[-1.8006,-0.7026],[-1.6385,-0.7701],[-1.6366,-0.7327],[-1.27,-0.5993],[-1.1258,-0.6655],[-1.045,-0.5555],[-0.8728,-0.701],[-0.7772,-0.5466],[-0.7752,-0.4613],[-0.6751,-0.565],[-0.3771,-0.1669],[-0.3667,-0.3577],[-0.3395,-0.2759],[-0.2977,-0.2351],[-0.2465,-0.3264],[-0.1997,0.0283],[-0.1827,-0.1248],[-0.1458,0.0035],[0.3275,0.6113],[0.4124,0.6865],[0.79,0.9877],[0.8632,0.8782],[0.9891,0.8485],[1.0189,0.9135],[1.095,0.6259],[1.0983,0.6691],[1.1842,0.6823],[1.2016,0.7377],[1.231,0.9827],[1.4686,0.6515],[1.5485,0.6983],[1.5668,0.9882],[1.6437,0.6362],[1.6703,0.8132],[1.6844,0.5017],[1.7164,0.6077],[1.7215,0.4696],[1.8286,0.4906],[1.9366,0.6077],[1.9658,0.1192],[1.9936,0.4831],[1.9961,0.4455],[2.1516,0.155],[2.3587,-0.1747],[2.5606,-0.0453],[2.8051,-0.2717],[2.8242,-0.1407],[2.8537,-0.1874]],"truthCurve":[[-3.0,0.048],[-2.9749,0.0507],[-2.9498,0.0525],[-2.9247,0.0536],[-2.8996,0.0538],[-2.8745,0.0534],[-2.8494,0.0521],[-2.8243,0.0501],[-2.7992,0.0473],[-2.7741,0.0437],[-2.749,0.0394],[-2.7238,0.0344],[-2.6987,0.0286],[-2.6736,0.0221],[-2.6485,0.0149],[-2.6234,0.0071],[-2.5983,-0.0014],[-2.5732,-0.0106],[-2.5481,-0.0204],[-2.523,-0.0308],[-2.4979,-0.0418],[-2.4728,-0.0534],[-2.4477,-0.0655],[-2.4226,-0.0782],[-2.3975,-0.0913],[-2.3724,-0.1049],[-2.3473,-0.1189],[-2.3222,-0.1334],[-2.2971,-0.1482],[-2.272,-0.1634],[-2.2469,-0.1789],[-2.2218,-0.1947],[-2.1967,-0.2108],[-2.1715,-0.2271],[-2.1464,-0.2436],[-2.1213,-0.2603],[-2.0962,-0.2771],[-2.0711,-0.294],[-2.046,-0.3109],[-2.0209,-0.3279],[-1.9958,-0.3449],[-1.9707,-0.3618],[-1.9456,-0.3787],[-1.9205,-0.3955],[-1.8954,-0.4121],[-1.8703,-0.4285],[-1.8452,-0.4448],[-1.8201,-0.4608],[-1.795,-0.4765],[-1.7699,-0.4919],[-1.7448,-0.5069],[-1.7197,-0.5216],[-1.6946,-0.5359],[-1.6695,-0.5498],[-1.6444,-0.5631],[-1.6192,-0.576],[-1.5941,-0.5883],[-1.569,-0.6001],[-1.5439,-0.6113],[-1.5188,-0.6219],[-1.4937,-0.6319],[-1.4686,-0.6412],[-1.4435,-0.6498],[-1.4184,-0.6577],[-1.3933,-0.6648],[-1.3682,-0.6713],[-1.3431,-0.6769],[-1.318,-0.6818],[-1.2929,-0.6858],[-1.2678,-0.689],[-1.2427,-0.6914],[-1.2176,-0.693],[-1.1925,-0.6936],[-1.1674,-0.6934],[-1.1423,-0.6924],[-1.1172,-0.6904],[-1.0921,-0.6875],[-1.0669,-0.6838],[-1.0418,-0.6791],[-1.0167,-0.6735],[-0.9916,-0.667],[-0.9665,-0.6596],[-0.9414,-0.6513],[-0.9163,-0.6421],[-0.8912,-0.632],[-0.8661,-0.621],[-0.841,-0.6092],[-0.8159,-0.5964],[-0.7908,-0.5828],[-0.7657,-0.5683],[-0.7406,-0.553],[-0.7155,-0.5369],[-0.6904,-0.52],[-0.6653,-0.5022],[-0.6402,-0.4837],[-0.6151,-0.4645],[-0.59,-0.4445],[-0.5649,-0.4238],[-0.5397,-0.4024],[-0.5146,-0.3804],[-0.4895,-0.3577],[-0.4644,-0.3344],[-0.4393,-0.3106],[-0.4142,-0.2861],[-0.3891,-0.2612],[-0.364,-0.2358],[-0.3389,-0.2099],[-0.3138,-0.1835],[-0.2887,-0.1568],[-0.2636,-0.1297],[-0.2385,-0.1023],[-0.2134,-0.0746],[-0.1883,-0.0466],[-0.1632,-0.0184],[-0.1381,0.01],[-0.113,0.0385],[-0.0879,0.0671],[-0.0628,0.0959],[-0.0377,0.1246],[-0.0126,0.1534],[0.0126,0.1822],[0.0377,0.2108],[0.0628,0.2394],[0.0879,0.2678],[0.113,0.2961],[0.1381,0.3241],[0.1632,0.3518],[0.1883,0.3793],[0.2134,0.4065],[0.2385,0.4332],[0.2636,0.4596],[0.2887,0.4856],[0.3138,0.5111],[0.3389,0.5361],[0.364,0.5605],[0.3891,0.5844],[0.4142,0.6077],[0.4393,0.6304],[0.4644,0.6525],[0.4895,0.6738],[0.5146,0.6944],[0.5397,0.7144],[0.5649,0.7335],[0.59,0.7519],[0.6151,0.7695],[0.6402,0.7862],[0.6653,0.8021],[0.6904,0.8171],[0.7155,0.8313],[0.7406,0.8445],[0.7657,0.8569],[0.7908,0.8683],[0.8159,0.8788],[0.841,0.8883],[0.8661,0.8968],[0.8912,0.9044],[0.9163,0.911],[0.9414,0.9167],[0.9665,0.9213],[0.9916,0.925],[1.0167,0.9277],[1.0418,0.9293],[1.0669,0.93],[1.0921,0.9298],[1.1172,0.9285],[1.1423,0.9263],[1.1674,0.9231],[1.1925,0.919],[1.2176,0.9139],[1.2427,0.9079],[1.2678,0.9009],[1.2929,0.8931],[1.318,0.8844],[1.3431,0.8748],[1.3682,0.8643],[1.3933,0.8531],[1.4184,0.841],[1.4435,0.8281],[1.4686,0.8145],[1.4937,0.8001],[1.5188,0.7851],[1.5439,0.7693],[1.569,0.7529],[1.5941,0.7358],[1.6192,0.7181],[1.6444,0.6999],[1.6695,0.6811],[1.6946,0.6618],[1.7197,0.6421],[1.7448,0.6219],[1.7699,0.6012],[1.795,0.5802],[1.8201,0.5589],[1.8452,0.5372],[1.8703,0.5153],[1.8954,0.4932],[1.9205,0.4708],[1.9456,0.4483],[1.9707,0.4256],[1.9958,0.4029],[2.0209,0.3801],[2.046,0.3573],[2.0711,0.3345],[2.0962,0.3117],[2.1213,0.289],[2.1464,0.2665],[2.1715,0.2441],[2.1967,0.2219],[2.2218,0.2],[2.2469,0.1783],[2.272,0.1568],[2.2971,0.1358],[2.3222,0.115],[2.3473,0.0947],[2.3724,0.0748],[2.3975,0.0553],[2.4226,0.0363],[2.4477,0.0178],[2.4728,-0.0001],[2.4979,-0.0175],[2.523,-0.0343],[2.5481,-0.0505],[2.5732,-0.066],[2.5983,-0.0809],[2.6234,-0.0952],[2.6485,-0.1087],[2.6736,-0.1215],[2.6987,-0.1336],[2.7238,-0.145],[2.749,-0.1556],[2.7741,-0.1654],[2.7992,-0.1744],[2.8243,-0.1827],[2.8494,-0.1901],[2.8745,-0.1967],[2.8996,-0.2025],[2.9247,-0.2075],[2.9498,-0.2116],[2.9749,-0.215],[3.0,-0.2175]],"fits":{"0":{"kind":"linear","a":0.180861,"b":0.071916,"loss":0.18483101743312044},"1":{"kind":"mlp","w1":[-1.387689],"bias":[1.524166],"v":[-0.187092],"b2":0.424403,"loss":0.15306209586602515},"2":{"kind":"mlp","w1":[1.224466,3.087436],"bias":[0.522679,-2.207055],"v":[1.049455,-0.60531],"b2":-0.382324,"loss":0.03951744087245163},"3":{"kind":"mlp","w1":[-1.581562,-1.324677,-0.614892],"bias":[1.319186,-1.228786,1.759857],"v":[-1.026211,1.099919,0.958942],"b2":-0.173362,"loss":0.023295589527130494},"4":{"kind":"mlp","w1":[1.451878,-0.874936,-0.552261,1.803086],"bias":[-0.852083,-0.476589,0.872792,2.7148],"v":[-1.035626,1.276888,-1.003272,0.399568],"b2":-0.068756,"loss":0.01849687247388114},"5":{"kind":"mlp","w1":[-2.513028,0.645478,-0.302825,-2.417858,0.436616],"bias":[-2.336474,-1.007934,1.167384,1.734865,-1.913911],"v":[0.57731,-0.849493,0.737165,-0.516801,-0.314402],"b2":0.192756,"loss":0.020015784055484324},"6":{"kind":"mlp","w1":[-1.139096,-0.550676,-0.150356,0.848466,-1.307198,1.083745],"bias":[1.790616,1.285263,0.44473,1.222119,-0.664489,-0.628087],"v":[-0.736175,0.947661,-0.273773,1.014568,0.731611,-1.252619],"b2":-0.862882,"loss":0.01680660600249859},"7":{"kind":"mlp","w1":[-0.162765,-0.78609,-0.728294,1.463577,0.969861,1.042177,0.122555],"bias":[-0.618918,-1.285402,1.134254,0.834333,2.167943,-0.584564,-0.650881],"v":[-0.011119,1.171198,-0.884618,0.808357,-0.557757,-1.385643,0.148596],"b2":1.699097,"loss":0.015081689089803257},"8":{"kind":"mlp","w1":[0.815382,2.128483,0.941991,0.930167,-0.076076,-0.688381,1.964131,-1.356681],"bias":[0.549822,-1.118046,0.234619,1.398531,-0.810239,1.073627,-5.752865,0.617659],"v":[0.867254,-1.258419,0.515683,0.775792,-0.000329,-0.795011,0.523225,0.822022],"b2":-1.178408,"loss":0.017220000353522336},"9":{"kind":"mlp","w1":[1.18988,1.201671,-0.918072,-0.719448,0.255157,-0.913941,1.222942,1.131774,2.101073],"bias":[2.643733,3.292155,0.461148,-0.624367,0.416579,-0.425741,-1.92025,-0.889973,3.441702],"v":[-0.720963,-0.066415,-1.137986,0.308451,0.541037,0.983482,-0.446521,-0.404007,0.49675],"b2":0.893104,"loss":0.01461944930233502},"10":{"kind":"mlp","w1":[-0.768418,-0.787104,0.45764,-0.795613,-0.125797,-0.958375,0.090351,-1.200394,0.024733,1.529693],"bias":[0.593723,-0.438202,-0.716606,2.788625,-0.413687,0.466945,0.122239,-1.828721,0.02148,-2.402561],"v":[-0.710646,1.426347,-0.729286,0.257893,-0.080206,-0.960585,0.007572,0.582061,0.048853,-0.153083],"b2":0.305557,"loss":0.017746944994338872},"11":{"kind":"mlp","w1":[-1.608211,2.689963,-2.018907,0.059622,-0.792321,1.37829,1.017383,1.336835,-0.064782,-0.023529,-1.791341],"bias":[0.716401,1.430234,1.347749,-0.654836,1.872767,-2.170991,2.259982,-2.298117,-0.403111,-0.124699,-2.93659],"v":[-0.44195,0.428657,-0.380348,0.111238,0.689668,-0.604277,-0.758637,0.034194,-0.293199,-0.109853,0.620493],"b2":0.808094,"loss":0.013404180641248509},"12":{"kind":"mlp","w1":[0.964707,-0.426052,0.398111,0.054098,-0.899233,1.210809,-1.001135,-0.436843,-1.277019,-0.64987,-0.778695,1.478099],"bias":[2.144658,-0.127306,-0.313813,1.647041,-1.471914,-1.905216,-0.870383,-0.552436,0.692951,-0.678459,-0.208576,2.420393],"v":[-0.931108,0.322984,-0.501353,0.598571,0.437894,-0.452307,0.72397,-0.199039,-1.064207,-0.269792,0.674861,0.575443],"b2":0.518696,"loss":0.014313184891257748},"13":{"kind":"mlp","w1":[-1.817558,-0.725982,0.933285,1.001263,2.068104,0.304212,-0.034583,-0.086211,1.171156,-1.427401,-0.14914,-0.974277,1.638027],"bias":[-5.023659,1.137732,0.629565,2.224437,3.388709,-0.088257,-0.325492,0.269696,1.916747,-0.373088,-0.4543,2.296948,-0.910594],"v":[-0.387176,-1.120315,0.665399,-0.80613,0.460676,-0.213014,-1.00667,-0.159215,0.2276,0.368465,0.044356,0.526119,-0.872367],"b2":-0.36588,"loss":0.013198420797584182},"14":{"kind":"mlp","w1":[-1.39643,0.597745,0.253369,1.828046,-0.031594,0.232755,-1.346274,1.441086,0.077059,-0.012019,-1.356715,-0.629855,1.245367,-0.353897],"bias":[0.999302,-0.938366,-2.320404,-0.647337,-1.19893,2.173791,-1.17105,2.353331,-0.754271,-0.378444,-3.7271,1.485287,0.325172,-2.242416],"v":[-0.549984,-1.400034,0.172346,-0.421504,0.103373,-0.693061,0.503085,0.498664,0.090579,-0.444982,-1.39442,0.998653,0.555819,-0.130825],"b2":-0.620764,"loss":0.014323269187286651},"15":{"kind":"mlp","w1":[1.06084,0.452901,-0.270639,-1.177472,0.817951,-0.431452,-1.365309,-1.305429,-1.437297,0.837209,0.674669,1.284957,-0.0347,1.447016,1.564597],"bias":[0.265328,-1.907392,-0.442757,-0.917252,0.203021,-0.371802,0.179976,3.083382,-2.353162,1.859821,0.455223,1.107516,-0.202274,-2.270877,-1.198053],"v":[0.4823,-0.18793,0.110664,-0.461401,0.877816,0.572406,-0.993834,0.480198,0.777926,-1.070439,0.365389,0.460866,0.217989,-0.580254,-0.440489],"b2":-0.023004,"loss":0.01293629771161676},"16":{"kind":"mlp","w1":[-1.534237,-0.095719,-0.613447,-0.121771,0.355175,0.61085,-1.117024,-0.660424,-0.073819,0.976866,1.117718,0.890688,1.708554,-1.007785,0.72284,0.817123],"bias":[-2.515704,-0.491594,-2.360811,-0.467509,-0.276015,-0.472591,0.268966,2.506756,-0.605099,-1.525956,2.482678,0.593914,5.412764,-0.252195,0.179076,-1.280814],"v":[0.77973,0.197183,0.206526,-0.055807,-0.200578,-1.209241,-0.861302,0.0938,-0.298858,-0.268157,-0.776633,0.736165,0.284485,0.329595,0.507123,-0.343863],"b2":0.049802,"loss":0.014256877545309138},"17":{"kind":"mlp","w1":[-0.059744,0.999638,-1.457122,-1.067386,-1.496085,-0.650637,-1.834114,-0.266917,1.138919,-0.183864,1.111057,1.147734,-0.552537,0.174002,0.48311,0.022594,-1.045119],"bias":[-0.813558,2.220053,-2.387014,0.646002,1.138051,1.538288,-5.941053,0.630636,-4.01292,-1.9317,0.596784,-1.795672,-1.660702,-0.510199,-1.401619,-0.303144,1.146312],"v":[-0.028945,-0.663848,0.704272,-1.164894,-0.523034,0.757901,-0.046626,0.196035,-0.379549,-0.274456,1.083484,-0.834631,-0.211466,0.365354,0.399025,0.206897,0.654618],"b2":0.312117,"loss":0.01288191368989641},"18":{"kind":"mlp","w1":[-1.434494,-0.025437,0.991442,0.296631,0.996665,-1.093893,0.169066,-1.242419,0.107424,-1.466521,-0.063661,-0.970824,0.5454,-0.178974,-1.711498,-1.013496,-1.314752,0.724681],"bias":[-5.313597,0.060373,2.708491,0.659889,2.209903,0.684626,-1.691094,1.946457,-1.302739,1.608682,-1.040658,-0.526361,2.421289,-0.565089,1.178345,-1.654569,3.102062,2.438339],"v":[0.100904,0.014734,-0.590028,-0.520779,-0.420492,-0.653868,-0.119406,-0.832993,-0.317099,0.393452,-0.15207,1.153837,0.284285,-0.856934,-0.659164,1.051981,0.556671,0.972356],"b2":0.468066,"loss":0.01268039449182361},"19":{"kind":"mlp","w1":[0.150282,2.131343,0.220693,-0.271275,0.80951,0.436678,0.909766,-1.371517,0.813037,1.109384,-3.993586,-1.380412,-0.658185,0.117617,-0.830987,-0.108195,0.666949,1.524213,0.086306],"bias":[-0.723134,-3.359304,-1.720706,-0.91529,-0.630418,0.4535,0.236865,5.310854,0.848943,-0.562087,-3.490935,3.259073,-0.512623,-0.55018,-1.856223,-0.619064,0.696634,2.496195,-0.917226],"v":[0.247341,-0.407102,0.011158,-0.041611,-0.315094,-0.232323,0.674831,-0.573991,-0.373652,-1.099007,0.340434,0.50319,-0.385664,-0.008292,-1.07462,0.058864,-0.259298,0.792706,0.213538],"b2":0.031208,"loss":0.013071467292717024},"20":{"kind":"mlp","w1":[-0.188708,-0.879074,-0.015041,-0.758417,0.571436,0.680169,0.358961,0.279073,-0.399456,-1.284089,1.002815,-0.20397,0.037243,0.244928,-1.346127,0.17826,0.388157,0.482971,0.916582,0.984225],"bias":[-1.772055,1.377484,-0.787947,-1.692802,-1.342573,0.592375,-0.274744,-1.578618,0.284347,-0.363808,-1.278429,-1.790641,2.88073,-1.243576,1.472614,-0.510808,-0.523856,-2.608029,1.500816,-0.647957],"v":[-0.034339,-0.800442,-0.109405,-1.177266,0.821912,0.732449,-0.421761,-0.040453,-0.237292,0.550199,-0.532982,0.185686,-0.531058,0.061996,0.806952,0.061343,-0.123501,-0.324458,1.262215,-1.861036],"b2":-0.664394,"loss":0.012404939743154857},"21":{"kind":"mlp","w1":[2.019278,0.17026,-0.042267,-0.238605,1.196629,0.016185,0.257878,1.213605,0.10675,0.270354,-0.548419,-0.738625,0.54696,-0.160781,0.65138,-0.70455,1.231087,-0.268332,0.013559,1.287461,0.479549],"bias":[3.290851,0.481244,-0.236372,-1.894047,2.657345,0.056282,0.711097,-0.704896,-1.4583,-1.790371,0.862015,1.738587,-1.758882,-0.618556,0.83098,-2.83539,-2.032133,-1.363612,-0.254979,0.688505,-0.812837],"v":[0.604631,-0.526169,0.107474,0.072611,-0.702038,-0.013657,-0.564624,-1.170539,0.963697,-0.035841,-1.291957,0.858949,0.627722,0.266271,-0.065922,-0.328359,-0.081454,-0.121355,-0.081549,0.843338,-0.056788],"b2":-0.217248,"loss":0.013315205024519616},"22":{"kind":"mlp","w1":[0.360196,1.039275,1.43351,1.423043,-1.805409,0.972807,1.685864,0.771254,0.888152,-1.980713,-0.051894,-0.004712,-0.155962,-0.509547,-0.804098,-1.339971,-0.658402,0.107708,0.733521,-0.701053,1.223507,-1.015273],"bias":[1.064696,-0.816924,-2.245037,-4.611958,-0.021685,-1.522086,0.305241,0.671912,1.9759,-3.247494,-0.25336,0.001138,-0.573626,-0.344316,0.882982,1.05683,-0.165419,-0.107013,-1.733116,-0.473493,-0.964019,-0.255904],"v":[0.43886,-0.417657,-0.750559,0.540521,-1.084701,-0.045247,0.797941,0.414844,-0.885109,0.555386,-0.294557,-0.001635,0.201259,0.359024,0.98026,-0.384362,0.383859,-0.024419,1.052682,0.142142,-0.43588,0.36565],"b2":0.668334,"loss":0.012461359840601151},"23":{"kind":"mlp","w1":[-0.983128,1.040675,-0.507576,1.112278,0.832458,0.092415,-0.163998,0.100976,0.473673,-0.157748,-0.146504,-0.135038,0.153268,0.740041,-1.823894,0.084316,-1.308903,-0.518087,-1.203737,-0.678373,-1.693547,1.014412,-0.516096],"bias":[1.547541,-2.971461,1.200337,2.471377,0.20774,-0.926065,-0.623996,-0.509622,1.551361,-0.817737,-0.466474,-0.863836,-0.716417,-0.479652,0.136006,0.58063,-1.141261,0.035208,2.841003,-2.688021,-2.772806,-2.941777,-2.215013],"v":[-0.876708,-0.117851,0.297954,-0.797625,1.456085,-0.03878,-0.109868,-0.230973,0.554671,-0.349025,0.224957,-0.099127,-0.202859,-1.333148,-0.493388,1.003514,0.38883,-0.219692,0.44491,-0.012328,0.681641,-0.31933,0.344419],"b2":0.307258,"loss":0.013534183821920827},"24":{"kind":"mlp","w1":[0.073385,1.136248,-1.141002,1.346907,-0.05453,-0.574543,0.022545,0.496679,-1.190386,0.616745,2.874633,-1.734621,0.247831,0.059,0.164035,-0.235931,1.15191,0.808253,-2.513376,-0.852104,0.191604,1.080466,0.969824,0.952553],"bias":[-1.375307,-0.754389,0.771509,1.081517,0.105299,0.901267,-0.353616,1.366267,-0.3412,-3.050751,2.443374,4.093303,0.062362,-0.181011,0.041179,-0.205635,-1.805571,1.796561,-8.283981,-3.78617,-0.789121,1.77138,-2.821552,-1.044343],"v":[-0.092417,-0.744843,-1.065159,-0.50833,-0.07566,-0.363681,-0.049644,-0.41408,0.536235,0.240971,0.416454,0.42177,0.151717,-0.005688,0.135858,0.056181,-0.766358,-1.018687,0.145184,-0.193311,-0.160347,1.021548,-0.51564,0.817488],"b2":-0.302075,"loss":0.012325454485197914},"25":{"kind":"mlp","w1":[0.12862,-1.475736,0.099934,0.890111,-1.611173,-0.363942,0.25772,-0.097798,0.181465,-0.283023,-0.643598,0.087693,1.035197,-2.496453,-1.061714,0.797924,0.815878,0.013711,-1.457449,-0.507779,1.050233,-0.771591,-0.015958,1.08635,0.024985],"bias":[-0.476339,-2.42255,-0.776823,0.77491,-0.398546,-0.811047,-1.792398,0.10791,-0.586099,-1.518851,-2.377017,0.111601,2.298617,0.214733,0.83843,-0.626387,-1.275867,0.011904,3.451088,-2.340164,-1.151057,1.820091,-0.035155,1.780598,0.021802],"v":[0.066373,0.334319,0.247386,0.555035,0.797491,-0.181791,0.205396,0.045733,-0.170641,-0.269324,0.062921,-0.067961,-0.813804,-0.470447,-1.075337,-0.415268,-1.334282,0.003638,0.243229,0.256256,0.730593,0.45828,-0.005078,0.625851,0.030369],"b2":-0.076518,"loss":0.012224661564736483},"26":{"kind":"mlp","w1":[-1.771162,-0.110338,-0.137728,0.427773,-2.433045,-0.64525,-1.27638,-0.248564,-0.060761,-1.041982,0.134052,-0.415271,0.74537,0.03713,0.815111,-0.423661,0.684521,1.287664,1.933033,-0.163943,0.07673,-0.464664,0.762054,-0.056129,0.216663,-0.124893],"bias":[-2.902386,1.483287,0.327215,-1.461019,1.783251,-1.434394,-1.114106,-1.614418,-0.463997,1.141998,-0.700704,0.699658,-0.147303,-1.358417,-1.92807,2.05044,-1.072243,0.336395,-3.027632,-0.59154,-1.31724,0.509222,-3.351302,-0.805959,-2.014858,0.294616],"v":[0.661752,-0.223267,0.218374,-0.347645,-0.758005,-1.421362,0.403839,-0.586167,0.223992,0.832881,0.092504,0.589417,-0.588662,0.207666,0.878346,0.009377,-0.507916,0.635897,-0.545403,0.173798,-0.278848,0.128758,0.212227,0.35247,0.296772,0.014912],"b2":0.123935,"loss":0.012147185826988493},"27":{"kind":"mlp","w1":[1.672397,-0.829149,1.463133,-0.815398,-0.57189,1.323884,-0.144952,-0.765686,0.113141,0.914453,-0.114735,-0.383231,0.055508,1.194472,0.181918,-0.95917,-1.169434,-0.013266,-0.747941,-0.615033,-0.162384,0.830236,0.26616,1.079708,-0.351652,0.160724,0.155019],"bias":[2.739684,2.367822,-0.994333,0.177885,0.628131,-4.505861,-0.435334,1.809159,-0.43172,-1.428616,-0.888673,0.601152,-0.306117,0.29841,-0.698325,2.256604,0.782048,0.031129,1.169975,-0.415193,-0.524713,1.846764,0.497954,2.400964,1.017034,-0.251499,0.34578],"v":[0.82447,-0.031969,-0.792307,-0.287864,0.985499,-0.096878,0.070048,0.165089,0.564595,-0.340032,0.121649,-0.378295,0.582182,0.506973,-0.049259,0.348945,-0.522878,0.02162,-0.604477,0.960968,-0.151237,-0.131071,-0.71494,-0.675981,-0.078051,-0.04699,-0.084556],"b2":-0.147366,"loss":0.012484762462872223},"28":{"kind":"mlp","w1":[1.10993,-0.878646,0.245013,-0.529365,-1.216328,0.595352,-1.372355,-0.523711,-1.242971,0.761687,-2.155996,-0.277312,0.555118,-0.231322,0.211928,0.054047,-0.297386,2.330543,1.423934,-1.39219,-1.344502,-0.173598,-0.457001,-0.562203,0.227273,-0.145131,-1.290558,0.190784],"bias":[-0.872664,-1.438183,-0.725653,-0.867069,-4.493156,-2.014882,2.151799,1.012001,1.362547,1.694872,5.085038,-0.451382,-1.585682,0.591683,-1.089272,-1.402874,0.758592,1.536491,0.350383,-0.186475,-4.840413,-0.519335,0.149555,0.290902,0.505257,-0.028334,0.717527,-0.547868],"v":[-0.981545,0.967059,-0.065071,0.408494,-0.146747,0.443481,-0.579087,-1.045795,0.511199,-0.892494,0.618105,0.131221,-0.234855,-0.13469,0.217453,-0.188921,-0.276785,0.309029,0.684443,-0.423688,0.060042,0.656378,-0.152288,-0.507107,-0.320282,-0.049321,-0.370855,0.35169],"b2":0.330326,"loss":0.012339408936185795},"29":{"kind":"mlp","w1":[-1.099504,-0.60754,0.707628,1.263874,0.839769,0.659781,-0.360421,0.907094,0.494175,0.966452,1.023351,-0.026882,-1.676562,-0.99734,-1.194818,-0.107752,0.281142,1.876141,0.514122,-0.613346,-0.634469,-2.354182,-0.795055,-1.019434,1.069978,-0.921841,0.976349,0.511239,-0.988777],"bias":[-1.155729,2.103729,-2.112344,-0.937743,0.216057,-0.585853,-0.250417,0.793141,1.09899,-3.254823,-0.775442,-0.702963,-2.768138,1.574113,-1.97044,0.063447,0.621537,-1.086275,1.141823,1.694712,0.468161,-2.662555,-2.389946,2.407952,3.355725,0.511301,2.16666,-2.204839,1.549639],"v":[-0.394808,-0.496107,0.594615,-0.248519,0.668742,-0.028726,0.878461,0.509336,-0.066149,0.110852,-0.167117,-0.33768,0.361938,-0.280503,0.509816,0.005499,-0.102046,-0.58382,-0.145921,-0.065378,0.924409,0.093808,-0.330617,0.586415,0.714124,-0.501471,-0.79893,-0.123387,-0.550442],"b2":0.066757,"loss":0.013099278134150016},"30":{"kind":"mlp","w1":[0.982417,1.072159,-0.059314,0.181366,0.35822,0.334633,0.042328,-0.693366,0.024098,-2.228356,0.455056,-1.04726,0.196488,1.634434,0.166173,-0.319976,0.121202,-0.428549,-1.447301,1.723384,-0.11919,-1.104282,-0.145558,0.288134,1.777099,-0.364838,-0.930405,-0.912242,-0.11121,2.117645],"bias":[2.687308,-2.142739,-1.058837,0.806545,-0.716478,-0.414187,-0.152189,-0.724201,-0.809277,5.255263,-0.35924,0.769887,-0.564219,-2.560345,-1.44989,0.212374,-0.633629,0.297005,-2.369969,3.826953,0.306058,1.360416,-0.646321,0.740289,-1.951901,1.564447,-0.236752,0.287746,-0.400166,1.91795],"v":[-0.228078,-0.393099,0.681437,0.153057,-0.126337,-0.081431,-0.067839,-1.062802,0.39384,0.552161,-1.051908,-0.779791,0.199716,-0.472521,0.009241,-0.541671,-0.227277,-0.869588,0.823167,-0.464006,-0.310312,-0.508803,0.220866,0.125738,0.729972,0.040659,0.695616,-0.391992,0.192723,0.59668],"b2":0.096863,"loss":0.011596737394771135}},"xMin":-3.0,"xMax":3.0,"maxWidth":30,"nGrid":240};
