window.DATA = window.DATA || {};
window.DATA.handFilters = {"vertical":[[-1.0,-1.0,2.0,-1.0,-1.0],[-1.0,-1.0,2.0,-1.0,-1.0],[-1.0,-1.0,2.0,-1.0,-1.0],[-1.0,-1.0,2.0,-1.0,-1.0],[-1.0,-1.0,2.0,-1.0,-1.0]],"horizontal":[[-1.0,-1.0,-1.0,-1.0,-1.0],[0.0,0.0,0.0,0.0,0.0],[2.0,2.0,2.0,2.0,2.0],[0.0,0.0,0.0,0.0,0.0],[-1.0,-1.0,-1.0,-1.0,-1.0]],"diag_down":[[2.0,-1.0,-1.0,-1.0,-1.0],[-1.0,2.0,-1.0,-1.0,-1.0],[-1.0,-1.0,2.0,-1.0,-1.0],[-1.0,-1.0,-1.0,2.0,-1.0],[-1.0,-1.0,-1.0,-1.0,2.0]],"diag_up":[[-1.0,-1.0,-1.0,-1.0,2.0],[-1.0,-1.0,-1.0,2.0,-1.0],[-1.0,-1.0,2.0,-1.0,-1.0],[-1.0,2.0,-1.0,-1.0,-1.0],[2.0,-1.0,-1.0,-1.0,-1.0]],"dot":[[-1.0,-1.0,-1.0,-1.0,-1.0],[-1.0,1.0,1.0,1.0,-1.0],[-1.0,1.0,4.0,1.0,-1.0],[-1.0,1.0,1.0,1.0,-1.0],[-1.0,-1.0,-1.0,-1.0,-1.0]],"ring":[[0.0,0.0,0.0,0.0,0.0],[0.0,2.0,2.0,2.0,0.0],[0.0,2.0,-2.0,2.0,0.0],[0.0,2.0,2.0,2.0,0.0],[0.0,0.0,0.0,0.0,0.0]],"top_half":[[1.0,1.0,1.0,1.0,1.0],[1.0,1.0,1.0,1.0,1.0],[0.0,0.0,0.0,0.0,0.0],[-1.0,-1.0,-1.0,-1.0,-1.0],[-1.0,-1.0,-1.0,-1.0,-1.0]],"left_half":[[1.0,1.0,0.0,-1.0,-1.0],[1.0,1.0,0.0,-1.0,-1.0],[1.0,1.0,0.0,-1.0,-1.0],[1.0,1.0,0.0,-1.0,-1.0],[1.0,1.0,0.0,-1.0,-1.0]]};
window.DATA.shapelets = {"classes":["cross","L","vertical_line","horizontal_line","circle","triangle"],"conv1":{"kernels":[[[[0.271,0.363,0.117,0.346,0.089],[0.152,0.086,0.323,0.361,-0.096],[0.321,0.227,0.344,0.189,0.254],[0.098,0.357,0.218,0.048,0.198],[0.023,0.107,0.056,0.281,-0.06]]],[[[0.154,0.187,0.136,0.27,-0.052],[0.447,0.125,0.472,0.356,0.165],[0.398,0.365,0.497,0.343,0.174],[0.329,0.282,0.432,0.512,0.376],[0.14,0.404,0.362,0.4,0.081]]],[[[-0.083,0.073,-0.022,0.225,0.073],[0.222,0.242,0.168,0.277,-0.09],[0.153,0.05,0.242,0.058,0.109],[0.085,0.33,0.03,-0.031,-0.08],[0.318,0.196,0.31,-0.076,-0.141]]],[[[-0.095,0.108,0.424,0.437,0.477],[-0.257,0.074,0.472,0.283,0.404],[0.112,0.456,0.219,0.269,0.351],[0.262,0.296,0.502,0.492,0.041],[0.11,0.527,0.299,0.187,-0.163]]],[[[0.065,0.167,-0.164,-0.36,-0.178],[0.039,0.012,-0.081,-0.386,-0.235],[0.314,0.12,0.054,-0.311,-0.263],[0.127,0.187,-0.075,-0.184,-0.189],[0.22,0.078,-0.036,-0.345,-0.234]]],[[[-0.33,-0.332,-0.394,-0.017,-0.011],[0.225,0.115,-0.23,0.086,0.131],[-0.081,-0.14,-0.151,-0.012,0.027],[0.121,0.001,0.321,-0.163,0.009],[0.107,0.337,0.365,0.261,-0.181]]],[[[0.221,0.148,0.244,0.117,0.367],[-0.037,0.349,0.332,0.298,-0.023],[0.348,0.3,0.276,0.059,0.207],[0.141,0.177,0.446,0.297,-0.053],[0.031,0.255,0.379,0.187,-0.004]]],[[[0.058,-0.06,0.259,0.302,-0.159],[0.179,0.281,0.167,-0.022,0.203],[0.232,0.214,0.08,0.015,0.088],[0.035,0.015,0.28,0.296,0.021],[0.007,0.09,0.102,0.157,0.179]]]],"biases":[-0.046,0.046,0.288,0.195,0.145,-0.017,-0.02,-0.042]},"conv2":{"kernels":[[[[0.054,0.113,0.109,-0.008,-0.283],[0.009,0.057,0.113,-0.032,-0.153],[0.069,0.011,-0.019,0.07,-0.011],[-0.025,-0.121,0.053,0.126,0.117],[-0.173,-0.244,-0.073,0.137,0.144]],[[0.112,0.1,0.048,-0.078,-0.262],[-0.02,-0.016,0.06,-0.051,-0.068],[-0.037,-0.025,-0.036,0.004,0.088],[-0.101,-0.091,-0.04,0.031,0.093],[-0.182,-0.155,-0.078,0.115,0.057]],[[0.038,0.068,0.088,-0.083,-0.081],[-0.006,0.038,0.03,-0.059,-0.066],[0.026,-0.092,-0.049,-0.124,0.072],[0.023,-0.035,-0.118,-0.086,0.071],[-0.096,-0.218,-0.064,-0.01,0.055]],[[0.04,0.062,0.018,-0.163,-0.15],[0.157,0.042,-0.065,-0.137,-0.148],[0.012,0.036,-0.107,-0.093,0.05],[-0.069,-0.08,0.003,0.051,0.09],[-0.274,-0.159,0.129,0.097,0.132]],[[-0.187,-0.032,0.1,0.077,-0.035],[-0.116,0.026,0.053,0.174,0.155],[-0.016,0.019,-0.077,0.051,0.133],[0.125,-0.057,-0.203,-0.188,-0.099],[0.002,-0.091,-0.133,-0.149,-0.134]],[[0.007,0.129,0.011,0.0,0.007],[0.07,-0.013,0.09,0.115,0.103],[0.013,-0.19,-0.02,0.205,0.182],[-0.209,-0.192,0.041,0.211,0.256],[-0.073,0.005,0.203,0.231,0.081]],[[0.043,0.171,0.046,-0.083,-0.279],[0.077,0.112,0.069,-0.002,-0.114],[0.004,0.02,0.066,0.09,0.052],[-0.018,-0.142,-0.069,0.095,0.175],[-0.095,-0.206,0.047,0.031,0.155]],[[0.145,0.102,0.145,-0.076,-0.219],[0.099,0.083,0.085,-0.012,-0.001],[0.059,0.084,0.022,0.037,0.094],[-0.028,-0.133,0.005,0.16,0.137],[-0.142,-0.161,-0.069,0.032,0.108]]],[[[-0.148,-0.046,-0.003,0.055,0.166],[-0.021,0.009,-0.029,0.03,0.103],[-0.013,-0.026,0.012,-0.0,-0.027],[0.102,0.111,0.05,-0.026,-0.146],[0.023,0.064,0.063,-0.027,-0.145]],[[-0.064,-0.133,0.049,0.039,0.077],[-0.036,-0.025,-0.034,0.073,0.034],[0.098,0.098,-0.022,-0.077,0.009],[0.1,-0.019,0.017,-0.104,-0.189],[0.031,0.023,0.025,-0.022,-0.013]],[[-0.057,-0.111,-0.046,0.024,0.06],[-0.095,0.003,-0.039,-0.046,-0.047],[0.035,0.055,0.082,0.048,-0.004],[-0.005,-0.032,0.037,-0.049,-0.116],[-0.005,0.002,-0.012,-0.085,-0.113]],[[-0.062,-0.055,-0.007,0.111,0.076],[0.022,0.086,0.086,0.094,0.046],[-0.016,0.025,0.067,0.076,0.033],[0.028,0.004,-0.009,-0.059,-0.053],[0.112,0.061,-0.027,-0.167,-0.135]],[[-0.01,-0.127,-0.205,-0.255,-0.119],[-0.092,-0.1,-0.214,-0.153,-0.255],[-0.09,-0.084,-0.053,-0.047,-0.146],[-0.1,-0.087,-0.122,0.016,-0.022],[-0.073,-0.069,-0.051,-0.015,0.081]],[[0.187,0.111,0.059,0.075,0.148],[0.117,0.201,0.099,0.096,0.022],[0.146,0.237,0.142,0.081,-0.063],[0.188,0.1,0.128,0.182,0.04],[0.128,0.014,0.046,0.202,0.203]],[[-0.07,-0.024,0.065,0.16,0.113],[-0.072,-0.066,-0.026,0.0,0.029],[-0.028,-0.011,0.017,-0.026,-0.077],[0.083,0.12,0.039,0.001,-0.089],[0.033,-0.009,0.067,-0.045,-0.065]],[[-0.032,-0.051,0.069,0.061,0.115],[0.009,0.009,0.039,0.118,0.041],[0.087,0.04,-0.012,0.015,-0.044],[0.125,0.092,0.056,0.059,-0.182],[0.022,0.049,0.013,-0.005,-0.084]]],[[[0.177,0.188,0.161,0.07,0.017],[0.202,0.16,0.121,0.111,0.009],[0.077,0.146,0.041,0.049,-0.024],[-0.064,-0.111,-0.101,-0.022,0.021],[-0.142,-0.146,-0.153,-0.084,-0.001]],[[0.198,0.11,0.08,0.038,0.033],[0.051,0.083,0.098,0.007,0.106],[0.037,-0.118,-0.04,0.039,-0.02],[-0.112,-0.205,-0.05,-0.09,0.021],[-0.025,-0.112,-0.063,-0.101,-0.1]],[[0.068,0.151,0.05,0.088,-0.058],[0.126,0.094,0.05,0.067,0.015],[0.094,-0.044,-0.048,0.027,0.071],[0.032,-0.098,-0.003,-0.042,-0.048],[-0.094,-0.047,0.031,-0.013,-0.104]],[[0.118,0.118,0.2,0.008,-0.0],[0.048,0.062,0.071,0.115,0.063],[0.151,0.047,0.011,0.074,0.096],[-0.1,0.009,0.018,-0.036,-0.052],[-0.185,-0.045,-0.068,0.012,-0.026]],[[-0.246,-0.14,-0.089,0.014,-0.033],[-0.275,-0.143,-0.033,0.013,-0.09],[-0.129,-0.199,-0.141,-0.053,-0.072],[0.058,-0.101,-0.071,-0.129,-0.139],[-0.042,-0.093,-0.039,-0.222,-0.181]],[[0.308,0.344,0.341,0.228,0.22],[0.249,0.28,0.259,0.229,0.221],[0.15,-0.018,0.06,0.231,0.117],[0.132,0.196,0.195,0.221,0.178],[0.236,0.258,0.142,0.067,0.145]],[[0.089,0.201,0.102,0.076,0.046],[0.092,0.041,0.152,0.1,0.003],[0.061,0.067,0.023,0.071,0.002],[-0.064,-0.164,-0.128,-0.083,-0.003],[-0.08,-0.154,-0.114,-0.079,-0.03]],[[0.187,0.123,0.085,0.177,0.118],[0.094,0.212,0.117,0.165,0.113],[-0.007,0.091,0.002,0.025,0.034],[-0.079,-0.059,-0.067,0.024,-0.034],[0.055,-0.137,-0.144,-0.015,0.042]]],[[[0.094,0.027,0.096,0.157,0.071],[0.038,0.098,0.097,0.148,0.067],[-0.008,0.115,0.141,0.166,-0.047],[-0.037,0.042,0.104,0.138,-0.062],[0.023,0.031,0.149,0.099,-0.069]],[[-0.044,-0.004,0.154,0.074,0.011],[0.016,0.026,0.135,0.027,-0.079],[-0.055,0.058,0.098,0.106,-0.044],[-0.005,0.107,0.124,0.059,-0.108],[0.017,0.033,0.164,0.161,0.028]],[[-0.011,0.006,0.006,-0.027,0.017],[-0.127,-0.1,0.053,0.071,-0.04],[-0.081,-0.126,-0.018,0.075,-0.055],[-0.084,-0.08,-0.049,0.039,-0.076],[-0.044,-0.064,0.015,0.019,-0.064]],[[0.002,0.078,0.167,0.123,-0.08],[-0.109,0.054,0.103,0.045,-0.103],[-0.031,0.082,0.111,0.002,-0.144],[-0.046,0.013,0.122,0.022,-0.066],[-0.024,0.076,0.115,-0.065,-0.098]],[[-0.026,0.036,-0.045,0.166,0.12],[-0.024,0.126,0.035,0.153,0.112],[-0.059,0.111,0.006,0.164,0.07],[-0.039,0.157,0.0,0.076,0.109],[-0.065,0.063,0.081,0.086,-0.001]],[[-0.199,-0.134,-0.114,-0.174,-0.151],[-0.133,-0.109,-0.107,-0.165,-0.248],[-0.218,-0.235,-0.132,-0.224,-0.265],[-0.254,-0.144,-0.218,-0.222,-0.132],[-0.129,-0.05,-0.192,-0.2,-0.124]],[[0.112,0.102,0.133,0.192,-0.002],[0.029,0.081,0.23,0.182,-0.005],[0.053,0.077,0.193,0.173,-0.003],[0.001,0.144,0.14,0.111,0.016],[0.079,0.16,0.178,0.134,0.038]],[[0.1,0.024,0.152,0.105,0.044],[0.07,0.072,0.122,0.129,-0.033],[-0.017,0.142,0.098,0.1,-0.017],[-0.008,-0.004,0.141,0.071,-0.065],[0.025,0.031,0.111,0.103,-0.026]]],[[[-0.035,-0.066,0.009,-0.055,-0.096],[-0.028,-0.08,-0.015,-0.103,-0.07],[-0.011,-0.071,-0.132,-0.081,-0.152],[-0.107,-0.069,-0.075,0.001,-0.095],[-0.039,-0.123,-0.005,-0.042,-0.043]],[[-0.062,-0.045,0.053,0.023,-0.102],[-0.023,-0.08,-0.089,0.026,-0.074],[-0.016,-0.101,-0.063,-0.004,-0.026],[-0.019,-0.099,0.048,-0.004,-0.057],[-0.063,0.021,-0.014,0.002,-0.037]],[[0.12,0.078,0.085,0.159,0.124],[0.203,0.086,0.158,0.062,0.114],[0.175,0.168,0.15,0.154,0.088],[0.15,0.066,0.127,0.095,0.094],[0.028,0.04,0.042,0.077,0.031]],[[-0.017,0.062,0.126,0.108,0.021],[0.015,-0.03,0.051,0.046,-0.077],[0.058,0.079,0.029,-0.02,0.056],[0.052,0.053,-0.014,0.084,-0.047],[0.069,-0.03,0.081,0.06,0.025]],[[0.269,0.224,0.216,0.222,0.187],[0.286,0.181,0.255,0.213,0.232],[0.254,0.186,0.172,0.156,0.204],[0.178,0.237,0.111,0.278,0.327],[0.259,0.168,0.061,0.306,0.199]],[[-0.199,-0.05,-0.175,-0.139,-0.065],[-0.135,-0.114,-0.024,0.001,-0.029],[-0.11,-0.058,-0.015,0.056,-0.045],[-0.004,-0.068,-0.081,0.083,0.014],[-0.037,-0.104,-0.038,0.023,-0.002]],[[-0.065,0.028,0.015,0.04,-0.003],[0.035,-0.137,0.016,-0.076,-0.074],[-0.09,-0.112,-0.053,-0.033,-0.072],[-0.044,-0.024,-0.011,0.031,-0.009],[0.017,-0.076,-0.027,0.014,-0.091]],[[-0.108,-0.083,-0.06,-0.035,-0.107],[-0.073,-0.078,-0.084,0.0,-0.053],[-0.139,-0.172,-0.106,-0.101,-0.119],[-0.084,-0.114,-0.092,-0.064,-0.075],[0.009,-0.098,-0.094,0.011,-0.044]]],[[[0.124,0.083,0.091,-0.021,0.064],[0.141,0.042,0.137,0.127,0.054],[0.099,0.037,0.008,0.085,0.076],[-0.017,0.034,-0.064,0.07,0.089],[0.002,-0.124,-0.056,-0.06,0.002]],[[0.098,0.112,0.021,0.029,0.041],[0.078,0.128,0.033,0.06,0.062],[0.027,0.073,0.038,-0.027,0.029],[-0.048,-0.054,-0.071,-0.109,-0.017],[-0.051,-0.151,-0.069,-0.12,0.011]],[[0.01,-0.087,0.008,0.069,-0.049],[-0.045,0.074,0.063,-0.03,0.035],[0.005,-0.068,0.001,-0.0,-0.058],[0.027,-0.104,-0.021,-0.009,-0.028],[-0.016,-0.06,-0.155,-0.126,-0.096]],[[-0.047,-0.066,0.07,0.095,-0.039],[0.055,0.07,0.114,0.07,0.077],[0.041,0.099,0.083,-0.075,-0.068],[0.03,0.011,-0.089,-0.043,-0.036],[-0.04,-0.134,-0.066,-0.047,-0.088]],[[-0.121,-0.117,-0.14,-0.032,-0.074],[-0.246,-0.163,-0.228,-0.171,-0.054],[-0.236,-0.224,-0.238,-0.111,-0.116],[-0.01,-0.225,-0.21,-0.102,-0.077],[0.02,-0.09,-0.169,-0.137,-0.116]],[[0.223,0.14,0.224,0.237,0.167],[0.224,0.152,0.152,0.14,0.199],[0.138,0.071,0.038,0.056,0.155],[-0.033,-0.089,-0.106,-0.063,0.055],[-0.037,-0.068,-0.102,-0.12,0.027]],[[0.068,-0.007,-0.003,0.06,-0.048],[0.081,0.089,0.018,0.017,0.012],[0.129,0.107,0.061,0.11,0.03],[-0.044,-0.011,-0.014,0.033,0.002],[0.037,-0.095,-0.083,-0.168,0.018]],[[0.046,0.148,0.071,-0.005,0.058],[0.068,0.026,0.064,0.097,0.137],[0.034,0.093,0.08,0.086,0.09],[-0.044,-0.08,-0.036,-0.061,0.004],[-0.019,-0.153,-0.134,-0.087,-0.003]]],[[[-0.216,-0.085,0.082,0.199,0.141],[-0.295,-0.18,0.061,0.125,0.141],[-0.333,-0.175,0.085,0.23,0.147],[-0.365,-0.196,0.017,0.179,0.139],[-0.221,-0.175,0.128,0.228,0.186]],[[-0.167,-0.204,0.077,0.214,0.176],[-0.378,-0.176,0.035,0.189,0.142],[-0.409,-0.308,0.022,0.224,0.191],[-0.351,-0.254,0.048,0.131,0.204],[-0.109,-0.124,-0.003,0.209,0.203]],[[-0.129,-0.209,-0.163,0.107,0.092],[-0.206,-0.225,-0.152,0.123,0.08],[-0.142,-0.141,-0.096,0.092,0.088],[-0.143,-0.248,-0.054,0.059,0.106],[-0.172,-0.19,-0.067,0.114,0.025]],[[-0.223,-0.101,0.068,0.185,0.136],[-0.246,-0.076,0.052,0.125,0.064],[-0.322,-0.181,0.043,0.112,0.099],[-0.247,-0.071,0.178,0.177,0.097],[-0.254,-0.07,0.076,0.221,0.1]],[[-0.164,-0.132,-0.161,0.31,0.286],[-0.019,-0.06,-0.098,0.346,0.352],[-0.01,-0.084,-0.146,0.268,0.332],[0.011,-0.062,-0.247,0.215,0.278],[-0.099,-0.172,-0.184,0.228,0.185]],[[-0.25,-0.292,-0.208,-0.009,-0.126],[-0.412,-0.452,-0.298,-0.038,-0.106],[-0.267,-0.287,-0.171,-0.094,-0.163],[-0.22,-0.203,-0.139,-0.145,-0.184],[-0.079,-0.051,-0.007,-0.049,-0.173]],[[-0.265,-0.181,0.124,0.268,0.233],[-0.329,-0.24,0.061,0.23,0.21],[-0.333,-0.234,0.084,0.258,0.164],[-0.338,-0.195,0.074,0.208,0.222],[-0.197,-0.127,0.063,0.221,0.132]],[[-0.204,-0.081,0.16,0.18,0.116],[-0.311,-0.103,0.089,0.236,0.152],[-0.404,-0.177,0.066,0.17,0.104],[-0.344,-0.154,0.016,0.233,0.09],[-0.184,-0.125,0.113,0.167,0.179]]],[[[-0.004,0.007,-0.044,-0.048,-0.105],[-0.045,0.019,-0.121,-0.098,-0.058],[0.091,-0.021,-0.038,0.008,0.061],[0.066,0.109,0.085,0.136,0.009],[0.046,0.092,0.159,0.068,0.062]],[[-0.013,-0.118,-0.148,-0.175,-0.065],[0.037,-0.031,-0.039,-0.014,-0.074],[0.03,0.009,0.033,0.123,-0.018],[0.038,0.0,0.104,0.063,0.087],[-0.049,0.097,0.039,0.132,0.011]],[[0.061,-0.023,-0.031,-0.088,-0.041],[0.051,-0.067,-0.036,-0.088,0.037],[0.011,-0.024,-0.023,0.064,-0.007],[0.013,0.038,0.105,0.098,-0.019],[0.03,-0.013,0.048,0.059,0.082]],[[0.065,0.031,-0.03,-0.166,-0.056],[-0.067,-0.011,-0.132,-0.06,0.068],[0.045,-0.047,-0.007,0.079,0.092],[-0.027,0.015,0.065,0.137,0.125],[-0.001,0.119,0.143,0.148,0.027]],[[-0.033,-0.046,0.0,0.004,-0.127],[0.044,0.011,-0.003,-0.039,-0.141],[0.001,-0.069,0.044,-0.013,-0.164],[-0.14,-0.201,0.02,0.005,-0.099],[-0.085,-0.211,-0.106,0.011,0.033]],[[0.115,0.07,0.005,-0.014,0.025],[0.149,0.236,0.205,0.198,0.18],[0.225,0.313,0.322,0.262,0.326],[0.131,0.272,0.344,0.302,0.227],[0.274,0.317,0.292,0.3,0.268]],[[0.015,0.042,-0.109,-0.139,-0.169],[-0.022,-0.098,-0.096,-0.037,0.017],[0.038,0.055,0.065,0.027,-0.002],[0.002,0.133,0.121,0.12,0.047],[-0.053,0.019,0.183,0.112,0.027]],[[0.007,-0.009,-0.036,-0.06,-0.01],[-0.027,-0.042,-0.025,-0.104,-0.093],[0.132,0.063,0.051,0.06,-0.006],[0.115,0.08,0.102,0.08,0.143],[0.008,0.086,0.118,0.106,0.115]]],[[[0.136,0.05,0.098,0.057,0.084],[0.149,0.077,0.135,0.079,0.069],[0.036,0.12,-0.02,0.105,0.111],[0.093,0.09,0.013,0.097,0.027],[0.044,0.124,0.084,0.071,0.081]],[[0.046,0.132,0.091,0.113,0.138],[0.135,0.034,0.035,0.137,0.153],[0.04,-0.021,0.038,0.1,0.112],[0.129,0.003,0.083,0.028,0.137],[0.123,0.107,0.144,0.064,0.051]],[[0.033,0.155,0.125,0.046,0.15],[0.186,0.028,0.141,0.105,0.117],[0.168,0.152,0.096,0.137,0.126],[0.102,0.026,0.091,0.038,0.13],[0.084,0.088,0.04,0.062,0.174]],[[0.158,0.163,0.105,0.106,0.115],[0.17,0.059,0.14,0.154,0.049],[0.106,0.073,0.039,0.138,0.116],[0.142,0.027,0.11,0.048,0.098],[0.077,0.132,0.132,0.074,0.15]],[[0.003,0.079,0.009,0.027,0.163],[0.036,0.01,0.07,0.048,0.037],[0.156,0.075,0.015,0.002,0.048],[0.086,0.115,0.036,0.052,0.072],[0.045,0.095,-0.004,0.016,0.061]],[[0.196,0.108,0.11,0.215,0.114],[0.188,0.14,0.162,0.075,0.167],[0.129,0.159,0.145,0.064,0.084],[0.18,0.144,0.107,0.197,0.153],[0.098,0.147,0.229,0.181,0.203]],[[0.162,0.136,0.132,0.142,0.137],[0.109,0.065,0.045,0.066,0.217],[0.107,0.108,0.108,0.087,0.093],[0.057,0.058,0.091,0.037,0.122],[0.117,0.159,0.122,0.146,0.197]],[[0.141,0.135,0.103,0.092,0.137],[0.101,0.099,0.085,0.15,0.192],[0.085,0.01,0.02,0.07,0.164],[0.084,0.085,0.069,0.058,0.15],[0.084,0.124,0.068,0.124,0.147]]],[[[0.002,-0.065,0.027,0.049,0.048],[-0.023,-0.001,-0.061,0.101,-0.002],[0.021,0.048,0.034,-0.01,0.035],[0.0,0.053,0.008,-0.072,-0.053],[0.034,0.017,0.059,0.079,-0.015]],[[-0.027,-0.049,-0.062,0.027,-0.008],[0.064,0.069,0.005,-0.046,-0.056],[0.004,0.04,-0.006,-0.022,0.027],[0.044,0.016,-0.021,0.026,0.002],[-0.074,-0.071,0.014,0.082,0.09]],[[-0.066,-0.102,-0.009,-0.002,0.048],[-0.042,0.053,0.015,0.054,-0.075],[0.027,0.011,-0.031,0.014,-0.121],[0.065,-0.014,-0.024,0.006,-0.007],[0.021,0.006,-0.106,0.027,0.003]],[[-0.069,0.014,0.107,0.044,0.022],[0.024,-0.013,0.078,0.039,0.011],[0.086,-0.004,-0.022,0.036,-0.027],[0.039,-0.054,0.026,-0.012,0.007],[-0.014,-0.026,0.012,0.009,0.118]],[[0.102,-0.005,-0.052,-0.128,-0.114],[0.039,0.015,-0.032,-0.031,-0.062],[-0.076,-0.074,-0.002,0.005,-0.012],[-0.0,-0.087,-0.074,0.043,-0.093],[0.035,-0.055,-0.073,-0.104,-0.096]],[[0.202,0.131,0.19,0.193,0.088],[0.151,0.153,0.19,0.033,0.08],[0.197,0.184,0.191,0.088,-0.013],[0.19,0.095,0.138,0.119,0.183],[0.039,0.159,0.2,0.296,0.31]],[[-0.007,-0.035,-0.014,0.063,0.171],[0.077,0.109,0.044,-0.02,0.029],[0.123,0.114,0.075,-0.013,-0.087],[0.015,0.079,-0.005,0.06,0.016],[0.015,0.044,-0.002,0.071,0.067]],[[-0.021,0.014,0.046,0.067,0.158],[0.025,-0.004,0.014,0.04,0.069],[0.077,0.122,0.008,0.042,0.009],[0.092,0.15,0.11,0.007,-0.058],[0.04,0.003,0.102,0.108,0.162]]],[[[0.026,0.029,0.082,0.115,0.099],[0.032,-0.03,0.123,0.063,0.039],[-0.01,0.037,0.096,0.089,0.049],[0.05,-0.009,-0.027,-0.041,0.049],[0.129,-0.014,-0.034,-0.168,-0.105]],[[-0.076,0.056,0.037,0.17,0.148],[-0.073,-0.069,0.06,0.056,0.09],[-0.034,0.007,-0.082,-0.037,-0.016],[0.095,0.001,-0.144,-0.155,-0.085],[-0.009,0.031,-0.009,-0.14,-0.141]],[[-0.02,-0.086,-0.031,0.064,0.139],[-0.039,0.021,-0.0,0.025,-0.041],[0.076,0.076,0.024,0.036,0.001],[0.072,0.075,-0.061,-0.118,-0.131],[0.056,-0.069,-0.066,-0.083,-0.136]],[[0.019,0.038,0.021,0.162,0.108],[0.005,0.116,0.161,0.079,0.011],[0.004,0.079,0.128,0.057,-0.062],[-0.013,-0.013,-0.011,-0.034,-0.05],[-0.035,-0.023,-0.107,-0.108,-0.05]],[[-0.087,-0.131,-0.171,-0.114,-0.06],[-0.003,-0.229,-0.311,-0.245,-0.161],[-0.012,-0.235,-0.218,-0.181,-0.034],[-0.007,-0.067,-0.047,-0.102,-0.101],[-0.134,-0.071,0.053,0.052,-0.134]],[[0.124,0.171,0.169,0.258,0.208],[0.113,0.097,0.232,0.186,0.162],[0.172,0.165,0.058,0.036,0.103],[0.202,0.203,0.096,0.072,0.155],[0.17,0.165,0.21,0.225,0.141]],[[0.001,0.026,0.102,0.064,0.125],[-0.017,0.072,0.159,0.135,0.175],[0.007,0.087,0.116,0.052,-0.017],[0.068,0.03,0.004,-0.134,-0.037],[0.05,0.026,-0.036,-0.125,-0.163]],[[-0.039,0.091,0.176,0.198,0.081],[0.02,0.002,0.046,0.122,0.097],[-0.026,-0.056,-0.008,0.141,0.132],[0.088,0.017,-0.044,-0.085,-0.028],[0.171,0.133,0.005,-0.081,-0.129]]],[[[-0.226,-0.201,-0.2,0.101,0.22],[-0.152,-0.274,-0.105,0.026,0.199],[-0.105,-0.189,-0.169,0.054,0.145],[0.006,-0.143,-0.049,0.104,0.144],[0.029,-0.186,-0.099,0.042,0.102]],[[-0.079,-0.264,-0.094,0.102,0.177],[-0.03,-0.272,-0.12,0.131,0.182],[-0.113,-0.185,-0.137,0.139,0.212],[0.003,-0.187,-0.109,0.189,0.21],[0.022,-0.219,-0.149,0.181,0.23]],[[0.049,-0.114,-0.007,0.047,0.174],[0.108,-0.037,-0.088,0.107,0.08],[0.103,-0.111,-0.082,-0.009,0.088],[0.096,-0.074,-0.106,0.098,0.154],[0.052,-0.084,-0.079,0.011,0.156]],[[-0.143,-0.185,-0.07,0.127,0.198],[-0.03,-0.148,-0.057,0.191,0.157],[-0.071,-0.153,-0.016,0.153,0.155],[-0.011,-0.126,0.065,0.102,0.096],[-0.076,-0.172,-0.046,0.058,0.12]],[[0.115,0.006,-0.049,0.018,0.163],[0.185,0.096,0.008,0.054,0.267],[0.255,0.025,0.062,0.001,0.192],[0.259,0.064,0.116,0.089,0.184],[0.202,0.069,-0.005,-0.045,0.185]],[[-0.228,-0.116,-0.178,-0.073,-0.097],[-0.132,-0.302,-0.179,-0.066,-0.142],[-0.027,-0.183,-0.188,-0.081,-0.1],[-0.17,-0.137,-0.142,-0.123,-0.064],[-0.185,-0.163,-0.236,-0.119,-0.098]],[[-0.17,-0.228,-0.207,0.16,0.245],[-0.17,-0.278,-0.134,0.128,0.246],[-0.092,-0.221,-0.128,0.16,0.178],[-0.011,-0.172,-0.18,0.132,0.131],[-0.114,-0.169,-0.125,0.107,0.256]],[[-0.255,-0.27,-0.166,0.065,0.122],[-0.158,-0.283,-0.135,0.107,0.172],[-0.111,-0.187,-0.079,0.163,0.154],[-0.017,-0.208,-0.159,0.08,0.157],[-0.037,-0.213,-0.056,0.124,0.146]]],[[[-0.129,-0.065,0.072,0.043,0.099],[-0.151,-0.119,-0.006,0.098,0.109],[0.031,-0.06,0.004,-0.016,0.005],[0.07,0.025,0.089,-0.074,-0.033],[0.127,0.032,0.07,-0.086,-0.15]],[[-0.082,-0.131,-0.043,0.093,0.068],[-0.057,0.002,-0.048,0.03,0.113],[0.073,-0.002,0.01,-0.08,-0.033],[0.114,0.046,-0.036,-0.098,-0.132],[0.051,0.038,-0.025,-0.05,-0.216]],[[-0.049,-0.075,-0.124,-0.054,-0.031],[-0.08,-0.046,-0.092,-0.055,0.068],[-0.03,-0.023,0.021,0.06,-0.086],[-0.046,-0.003,0.037,-0.009,-0.143],[0.082,-0.026,0.059,-0.102,-0.101]],[[-0.009,-0.038,0.028,-0.049,0.067],[-0.097,0.016,0.099,0.14,0.078],[-0.068,0.112,0.071,0.121,-0.008],[0.003,0.024,0.113,-0.007,-0.088],[0.096,0.023,-0.043,-0.079,-0.105]],[[0.012,-0.119,-0.109,-0.179,-0.096],[0.102,0.069,-0.11,-0.146,-0.111],[-0.02,0.041,-0.042,-0.084,-0.095],[-0.146,-0.054,-0.006,0.02,-0.135],[-0.038,-0.036,0.048,0.108,0.047]],[[0.1,0.007,-0.038,0.199,0.236],[0.2,0.105,0.168,0.128,0.115],[0.187,0.21,0.142,-0.058,-0.001],[0.188,0.29,0.202,0.068,0.009],[0.241,0.189,0.138,0.276,0.201]],[[-0.064,-0.089,0.011,0.087,0.016],[0.019,-0.088,-0.052,-0.025,0.099],[-0.013,0.044,0.011,0.044,-0.031],[0.033,0.115,0.071,-0.076,-0.097],[0.053,0.048,0.054,-0.098,-0.131]],[[-0.213,-0.09,0.057,0.012,0.159],[-0.076,-0.068,-0.049,0.024,0.087],[0.014,0.096,-0.004,0.08,0.118],[0.143,0.12,0.075,-0.004,-0.05],[0.046,0.107,0.03,-0.055,-0.222]]],[[[0.083,0.058,0.043,0.007,0.005],[0.039,0.005,-0.006,0.096,0.019],[0.027,0.111,0.063,0.015,0.114],[0.138,0.022,0.076,0.105,0.132],[0.162,0.048,0.131,0.084,0.1]],[[0.078,0.018,0.049,0.099,0.002],[-0.015,0.078,0.099,0.055,0.132],[0.133,0.114,0.027,0.17,0.173],[0.14,0.163,0.034,0.144,0.138],[0.082,0.118,0.13,0.157,0.118]],[[0.028,0.111,0.092,0.036,0.188],[0.105,0.064,0.13,0.125,0.079],[0.154,0.08,0.124,0.164,0.171],[0.157,0.109,0.115,0.133,0.156],[0.086,0.125,0.079,0.087,0.089]],[[0.002,0.048,0.151,0.106,0.021],[0.046,0.096,0.029,0.053,0.047],[0.1,0.104,0.077,0.15,0.165],[0.172,0.094,0.056,0.128,0.103],[0.127,0.088,0.082,0.095,0.206]],[[-0.01,0.089,0.043,0.055,0.065],[-0.035,0.026,0.107,-0.0,0.108],[0.064,0.084,0.109,0.027,0.082],[0.119,0.063,0.048,-0.016,0.114],[0.053,0.06,0.006,0.004,0.033]],[[0.163,0.132,0.133,0.218,0.196],[0.107,0.116,0.072,0.184,0.091],[0.251,0.266,0.196,0.189,0.26],[0.152,0.233,0.241,0.162,0.236],[0.108,0.124,0.278,0.253,0.221]],[[0.019,0.039,0.007,-0.031,0.103],[0.093,0.024,-0.031,0.02,0.012],[0.015,0.061,0.09,0.014,0.119],[0.062,0.037,0.057,0.102,0.153],[0.142,0.136,0.146,0.173,0.197]],[[0.075,0.005,0.085,0.103,0.032],[0.036,-0.012,-0.028,0.058,0.094],[0.081,0.101,-0.002,0.042,0.171],[0.056,0.11,0.135,0.159,0.184],[0.02,0.1,0.068,0.106,0.209]]],[[[0.044,0.009,-0.027,0.049,-0.024],[0.117,0.06,-0.047,-0.007,0.022],[0.056,0.035,-0.054,-0.041,0.054],[-0.087,-0.026,0.001,0.083,0.075],[-0.158,-0.113,0.079,0.094,0.129]],[[0.015,0.102,-0.012,-0.065,-0.051],[-0.002,-0.006,-0.016,-0.031,-0.07],[-0.009,-0.099,0.037,0.091,0.043],[-0.11,-0.139,0.046,0.13,0.136],[-0.114,-0.063,0.075,0.094,0.071]],[[-0.088,0.033,0.033,0.028,-0.1],[0.024,-0.032,-0.038,-0.008,-0.108],[0.041,-0.015,-0.124,-0.002,0.003],[-0.041,-0.107,-0.14,-0.0,0.088],[-0.1,-0.119,-0.017,0.028,0.01]],[[-0.036,0.005,0.02,0.011,0.009],[0.045,0.042,0.014,-0.088,-0.053],[0.087,0.02,-0.076,-0.059,0.104],[-0.101,-0.025,0.013,0.108,0.028],[-0.142,-0.004,0.126,0.075,0.11]],[[-0.025,-0.028,0.01,-0.012,-0.085],[-0.009,-0.082,-0.012,-0.054,0.008],[-0.045,-0.066,-0.038,0.003,0.067],[0.016,0.038,-0.121,-0.101,0.008],[0.039,0.027,-0.135,-0.05,0.053]],[[0.033,0.133,0.057,0.011,-0.01],[0.08,0.09,0.024,0.063,0.106],[-0.044,-0.077,0.021,0.238,0.146],[-0.122,-0.137,0.1,0.226,0.152],[0.057,0.043,0.175,0.107,0.203]],[[0.142,0.072,0.044,0.037,-0.07],[0.097,0.034,0.113,-0.06,-0.039],[0.083,-0.022,0.069,0.094,0.14],[-0.1,-0.067,-0.008,0.132,0.085],[-0.084,-0.075,0.015,0.067,0.185]],[[0.08,0.141,0.063,0.033,-0.015],[0.063,0.066,-0.0,0.073,-0.042],[0.062,0.026,0.111,0.128,0.015],[0.037,-0.008,0.005,0.15,0.176],[-0.029,-0.138,0.105,0.208,0.247]]],[[[0.132,0.063,0.174,0.19,0.084],[0.058,0.126,0.154,0.155,0.141],[0.027,0.028,0.029,0.098,0.058],[0.001,-0.001,-0.07,-0.096,0.033],[-0.009,0.004,-0.074,-0.1,-0.086]],[[0.124,0.074,0.173,0.156,0.139],[-0.015,0.009,0.012,0.06,0.038],[0.065,0.07,0.028,-0.057,-0.044],[0.075,-0.027,-0.041,-0.127,-0.089],[0.009,-0.107,-0.024,-0.059,-0.142]],[[-0.011,-0.021,0.037,0.031,0.112],[-0.043,-0.028,-0.02,0.048,0.013],[0.001,0.068,-0.05,0.004,-0.106],[0.005,-0.093,-0.082,-0.106,-0.05],[-0.026,-0.024,-0.105,-0.077,-0.067]],[[0.12,0.043,0.132,0.124,0.14],[0.109,0.115,0.072,0.039,0.056],[0.085,0.058,0.095,-0.042,-0.012],[0.008,-0.064,-0.053,-0.099,-0.046],[-0.062,-0.099,-0.095,-0.118,-0.03]],[[-0.174,-0.244,-0.202,-0.187,-0.074],[-0.133,-0.247,-0.254,-0.15,-0.101],[-0.099,-0.173,-0.121,-0.104,-0.173],[-0.048,-0.124,-0.094,-0.04,-0.117],[0.102,-0.152,0.025,-0.033,-0.08]],[[0.146,0.111,0.206,0.241,0.148],[0.133,0.159,0.107,0.15,0.182],[0.085,0.055,0.045,-0.057,-0.028],[0.006,0.011,0.075,-0.02,-0.031],[0.048,-0.031,0.087,0.044,0.023]],[[0.127,0.042,0.138,0.085,0.142],[0.101,0.017,0.127,0.128,0.054],[0.138,0.095,0.067,0.02,-0.03],[0.017,0.04,-0.005,-0.092,-0.03],[0.047,-0.088,-0.041,-0.107,-0.091]],[[0.153,0.058,0.112,0.136,0.129],[0.002,0.021,0.092,0.104,0.114],[0.071,0.05,0.041,0.06,0.043],[0.073,0.061,-0.034,-0.083,-0.012],[-0.044,0.025,0.004,-0.058,-0.116]]]],"biases":[-0.056,-0.108,-0.072,-0.047,0.149,-0.104,-0.131,0.001,0.104,-0.068,-0.045,0.03,0.006,0.169,-0.024,-0.054]},"conv3":{"kernels":[[[[0.097,-0.061,0.017],[0.025,0.173,0.05],[-0.096,-0.104,0.093]],[[-0.093,-0.017,-0.177],[0.043,-0.042,-0.06],[-0.14,-0.148,-0.185]],[[-0.214,-0.193,-0.203],[0.092,0.099,0.037],[-0.29,-0.213,-0.007]],[[0.018,0.039,-0.056],[0.072,0.129,0.059],[-0.005,-0.007,-0.032]],[[0.065,0.077,0.12],[0.199,0.182,0.039],[0.094,0.123,0.079]],[[-0.039,-0.02,-0.123],[-0.045,0.035,0.086],[-0.195,-0.166,-0.05]],[[0.111,0.089,0.022],[0.197,0.222,0.029],[0.165,0.094,0.082]],[[0.059,0.059,0.0],[-0.14,-0.021,0.142],[-0.32,-0.123,-0.093]],[[0.007,-0.041,-0.1],[0.077,0.003,0.048],[-0.141,-0.018,-0.127]],[[-0.003,0.046,-0.063],[0.05,0.133,0.001],[-0.195,-0.059,0.026]],[[-0.107,-0.213,-0.278],[-0.032,0.013,-0.001],[-0.186,-0.059,-0.165]],[[0.133,0.04,-0.023],[0.323,0.168,0.076],[0.168,0.049,-0.008]],[[-0.106,-0.059,-0.063],[0.048,-0.001,-0.025],[-0.051,-0.202,-0.09]],[[0.009,0.113,0.055],[0.065,0.032,0.093],[-0.116,-0.043,0.001]],[[0.076,-0.011,-0.071],[-0.008,0.01,0.08],[-0.151,-0.032,-0.078]],[[-0.232,-0.121,-0.171],[0.067,0.111,-0.059],[-0.225,-0.187,-0.044]]],[[[0.28,0.284,0.17],[0.182,0.3,0.169],[0.183,0.266,0.182]],[[0.045,0.112,0.157],[0.093,0.034,0.166],[0.19,0.05,0.119]],[[-0.007,-0.007,0.071],[0.162,0.148,0.044],[0.103,0.151,0.117]],[[-0.045,-0.056,0.072],[-0.069,-0.06,0.072],[-0.049,0.059,-0.03]],[[-0.059,-0.078,0.025],[-0.014,-0.063,-0.059],[-0.116,-0.118,-0.099]],[[0.038,-0.002,0.075],[0.076,0.068,0.022],[0.096,-0.012,0.091]],[[0.028,0.008,0.025],[0.019,-0.03,-0.091],[-0.062,0.052,0.033]],[[0.061,0.154,0.114],[0.202,0.11,0.224],[0.178,0.176,0.207]],[[0.012,0.023,-0.078],[-0.009,0.011,0.06],[-0.027,0.057,0.075]],[[0.086,0.1,0.048],[0.111,0.05,0.154],[0.058,0.064,-0.001]],[[0.134,0.047,0.141],[0.056,0.044,0.115],[0.047,0.133,0.135]],[[-0.114,-0.039,-0.101],[-0.17,-0.17,-0.115],[-0.131,-0.071,-0.173]],[[0.177,0.112,0.178],[0.147,0.135,0.149],[0.202,0.232,0.196]],[[0.003,0.079,0.078],[0.005,-0.043,0.046],[0.036,-0.044,-0.05]],[[0.068,0.139,-0.018],[0.038,0.05,0.008],[0.028,0.145,0.147]],[[-0.07,0.0,-0.062],[0.093,0.01,0.032],[0.019,0.079,0.13]]],[[[0.083,0.14,0.193],[0.115,0.139,0.143],[0.123,0.192,0.199]],[[-0.027,0.124,0.098],[0.033,0.142,0.079],[0.097,-0.006,0.145]],[[0.133,0.024,0.014],[0.08,0.081,0.168],[0.142,0.121,0.202]],[[-0.032,-0.032,-0.078],[0.003,-0.075,0.003],[-0.018,-0.05,0.021]],[[-0.033,0.007,0.01],[-0.161,-0.146,-0.108],[-0.164,-0.069,-0.15]],[[-0.031,0.072,0.101],[0.056,0.014,0.111],[0.121,0.158,0.103]],[[0.048,-0.064,0.051],[-0.07,-0.055,0.025],[-0.031,0.054,-0.08]],[[0.176,0.21,0.161],[0.184,0.075,0.123],[0.124,0.169,0.091]],[[0.027,-0.028,-0.045],[0.009,-0.048,-0.055],[0.006,0.036,0.043]],[[-0.0,-0.027,-0.034],[0.109,-0.018,0.079],[0.079,0.101,-0.012]],[[0.009,-0.007,0.113],[0.0,0.023,0.045],[0.152,0.152,0.153]],[[0.017,-0.066,-0.135],[-0.117,-0.023,-0.065],[-0.048,-0.116,-0.076]],[[0.036,0.084,0.09],[0.104,0.044,0.183],[0.064,0.141,0.174]],[[0.041,0.09,0.078],[0.078,0.058,0.097],[-0.034,-0.018,0.071]],[[0.038,0.031,-0.045],[0.061,0.104,0.036],[0.043,0.08,-0.04]],[[-0.004,0.0,-0.012],[0.109,0.165,0.095],[0.112,0.017,0.094]]],[[[-0.131,-0.21,-0.046],[0.003,-0.096,-0.069],[0.044,0.011,-0.092]],[[0.002,-0.092,-0.102],[-0.071,-0.069,-0.107],[-0.115,-0.13,0.049]],[[-0.214,-0.217,-0.236],[0.067,-0.043,-0.189],[0.071,-0.153,-0.084]],[[0.121,0.046,-0.02],[0.014,0.045,0.094],[0.013,0.008,-0.006]],[[0.166,0.15,0.161],[0.1,0.033,0.074],[0.081,0.119,0.191]],[[-0.179,-0.175,-0.298],[-0.079,-0.129,-0.137],[-0.065,-0.032,-0.018]],[[0.008,-0.01,-0.097],[-0.02,0.04,-0.143],[0.044,-0.098,-0.212]],[[0.054,-0.05,0.003],[0.091,0.035,0.059],[0.015,0.01,0.013]],[[0.067,-0.027,-0.015],[0.144,-0.022,0.057],[0.09,0.079,0.054]],[[0.002,0.006,-0.094],[-0.007,0.081,0.052],[-0.019,0.086,0.041]],[[-0.063,-0.065,-0.174],[-0.064,-0.018,-0.072],[-0.074,-0.115,0.006]],[[0.053,0.066,-0.022],[0.031,0.019,-0.039],[-0.047,0.02,-0.146]],[[-0.055,-0.005,-0.055],[-0.034,-0.135,0.003],[-0.048,-0.023,-0.016]],[[0.061,-0.044,0.058],[0.104,0.06,0.048],[0.098,0.115,0.058]],[[0.014,-0.031,-0.099],[0.043,0.023,-0.088],[0.012,-0.028,-0.063]],[[0.001,-0.055,-0.179],[0.037,-0.052,-0.026],[-0.032,-0.087,-0.084]]],[[[0.068,0.005,-0.072],[0.033,-0.018,0.08],[0.128,0.089,0.08]],[[-0.142,-0.025,0.044],[-0.021,0.03,0.105],[0.061,0.108,-0.013]],[[0.064,0.055,0.132],[0.219,0.119,0.223],[0.073,0.23,0.185]],[[-0.119,-0.102,-0.061],[-0.137,-0.033,0.003],[-0.155,-0.079,-0.052]],[[0.103,0.071,0.143],[0.056,0.078,0.11],[0.06,0.105,0.127]],[[0.008,0.01,0.115],[0.052,0.161,0.154],[0.16,0.053,0.131]],[[-0.181,-0.146,-0.305],[-0.208,-0.198,-0.292],[-0.117,-0.124,-0.266]],[[0.149,0.195,0.073],[0.207,0.153,0.21],[0.199,0.2,0.255]],[[-0.069,0.035,0.056],[0.009,0.094,-0.025],[-0.007,0.1,0.101]],[[-0.093,0.053,0.036],[0.121,-0.006,0.037],[-0.008,0.023,0.043]],[[-0.132,0.08,-0.01],[0.139,0.089,0.123],[0.039,0.179,0.189]],[[0.038,-0.153,-0.245],[-0.151,-0.128,-0.322],[-0.184,-0.252,-0.383]],[[-0.012,0.018,0.004],[0.124,0.06,0.098],[0.033,0.137,0.119]],[[0.077,0.077,0.04],[0.136,0.073,0.029],[0.089,0.076,0.023]],[[-0.009,-0.029,-0.057],[-0.021,-0.002,-0.004],[0.042,0.124,-0.022]],[[-0.123,-0.097,-0.028],[0.074,0.035,0.128],[-0.011,0.163,0.102]]],[[[-0.029,-0.039,0.029],[0.039,-0.06,-0.028],[0.048,-0.011,-0.069]],[[-0.055,-0.003,-0.025],[-0.075,-0.064,0.025],[0.032,0.049,-0.006]],[[0.002,-0.075,0.034],[0.045,0.036,-0.039],[0.05,-0.086,-0.019]],[[-0.039,-0.094,-0.058],[-0.082,0.014,-0.017],[0.013,-0.032,0.062]],[[0.003,0.063,0.062],[-0.076,-0.056,0.049],[0.072,-0.077,0.001]],[[-0.053,0.068,0.059],[0.052,0.035,-0.014],[0.049,-0.043,-0.003]],[[-0.016,-0.061,-0.048],[0.026,-0.01,-0.065],[-0.017,0.013,-0.066]],[[0.029,-0.077,-0.006],[-0.089,-0.082,-0.018],[0.049,0.057,0.034]],[[0.029,-0.058,0.037],[0.015,-0.099,-0.065],[0.004,-0.018,-0.066]],[[-0.092,0.057,-0.0],[-0.028,-0.095,0.064],[-0.083,0.01,-0.019]],[[-0.021,0.036,-0.026],[-0.036,0.057,-0.072],[0.019,-0.043,-0.034]],[[0.048,-0.007,-0.083],[0.052,-0.063,0.057],[-0.046,0.061,0.009]],[[-0.004,0.022,-0.01],[-0.042,0.036,0.044],[-0.009,0.071,-0.004]],[[-0.074,-0.058,0.051],[-0.067,0.037,-0.087],[-0.025,-0.082,0.02]],[[0.056,0.024,-0.038],[-0.081,-0.042,-0.058],[0.056,-0.056,0.024]],[[0.035,0.02,-0.08],[-0.027,-0.034,0.055],[-0.018,-0.017,0.066]]],[[[-0.089,-0.04,-0.075],[-0.011,-0.04,-0.03],[-0.107,-0.167,-0.034]],[[0.037,-0.154,-0.134],[0.073,-0.029,-0.045],[-0.009,-0.114,-0.03]],[[-0.15,-0.167,-0.086],[-0.164,-0.099,-0.047],[-0.124,-0.047,-0.133]],[[0.093,0.075,0.18],[0.134,0.035,0.132],[0.078,0.138,0.112]],[[-0.01,0.094,0.027],[0.019,0.042,0.12],[0.037,-0.081,-0.006]],[[0.066,-0.064,-0.049],[-0.054,-0.046,-0.018],[0.014,0.008,0.078]],[[0.251,0.188,0.275],[0.257,0.138,0.273],[0.108,0.23,0.182]],[[-0.019,-0.072,-0.043],[-0.011,-0.138,-0.059],[-0.01,-0.162,-0.194]],[[-0.009,-0.01,0.016],[0.056,0.036,0.014],[0.072,0.006,-0.047]],[[-0.011,-0.059,-0.032],[-0.08,-0.011,-0.072],[-0.004,-0.009,-0.125]],[[-0.107,-0.175,-0.078],[0.0,-0.09,0.01],[0.003,-0.131,-0.059]],[[0.155,0.189,0.263],[0.191,0.152,0.281],[0.116,0.173,0.247]],[[-0.038,-0.053,-0.124],[-0.036,-0.165,-0.077],[-0.124,-0.091,-0.134]],[[0.059,0.069,0.092],[0.027,0.105,-0.045],[-0.013,0.024,0.015]],[[0.072,-0.026,0.091],[-0.051,-0.037,0.032],[-0.099,-0.11,-0.076]],[[0.016,-0.048,-0.07],[-0.012,-0.094,-0.069],[-0.077,-0.117,0.045]]],[[[-0.154,-0.118,-0.206],[-0.143,-0.152,-0.208],[-0.11,-0.131,-0.228]],[[-0.061,-0.164,-0.122],[-0.034,-0.112,-0.005],[-0.032,-0.13,-0.113]],[[-0.241,-0.104,-0.235],[-0.237,-0.154,-0.167],[-0.091,0.033,0.003]],[[0.138,-0.014,0.029],[0.021,0.03,0.02],[0.06,-0.014,0.089]],[[0.235,0.155,0.214],[0.104,0.129,0.103],[0.13,0.087,0.101]],[[-0.213,-0.141,-0.099],[-0.099,-0.133,0.031],[0.067,-0.054,0.011]],[[0.137,-0.0,0.059],[0.099,0.082,0.16],[-0.008,0.081,0.161]],[[-0.11,-0.1,-0.138],[-0.039,0.019,-0.124],[0.015,0.048,-0.067]],[[0.011,0.001,0.013],[0.065,-0.037,0.1],[0.052,0.043,0.073]],[[-0.011,-0.106,-0.105],[-0.074,-0.095,-0.049],[0.093,-0.068,-0.032]],[[-0.165,-0.193,-0.163],[-0.153,-0.102,-0.059],[-0.081,-0.038,-0.036]],[[0.205,0.125,0.247],[0.172,0.177,0.219],[0.032,0.064,0.185]],[[-0.096,-0.109,-0.159],[-0.124,-0.073,-0.116],[-0.055,-0.17,-0.152]],[[0.035,0.068,-0.027],[0.036,0.109,0.087],[0.137,0.034,0.029]],[[-0.104,-0.062,-0.068],[0.009,0.008,-0.049],[0.074,0.014,0.036]],[[-0.108,-0.061,-0.177],[-0.007,-0.107,-0.009],[-0.058,0.04,-0.078]]],[[[0.151,0.128,0.096],[0.115,0.124,0.155],[0.232,0.152,0.25]],[[0.023,0.029,0.073],[0.061,0.109,0.162],[0.11,0.015,0.054]],[[0.069,0.002,0.11],[0.179,0.142,0.101],[0.101,0.062,0.089]],[[0.049,-0.058,0.0],[-0.078,-0.032,-0.005],[-0.074,0.018,-0.079]],[[-0.08,0.019,0.038],[-0.056,-0.105,-0.113],[-0.074,-0.092,0.018]],[[-0.041,0.075,0.043],[0.012,0.11,0.088],[0.033,-0.016,0.011]],[[-0.031,0.008,-0.137],[-0.097,-0.154,-0.069],[0.033,-0.001,-0.157]],[[0.139,0.065,0.131],[0.13,0.026,0.115],[0.111,0.042,0.174]],[[0.061,0.076,0.002],[-0.04,-0.033,0.036],[-0.011,0.079,0.076]],[[0.049,-0.02,0.076],[0.124,0.033,0.005],[0.024,0.061,-0.019]],[[0.122,0.121,0.064],[0.061,0.057,0.169],[0.144,0.12,0.092]],[[-0.118,-0.068,-0.198],[-0.187,-0.127,-0.269],[-0.137,-0.204,-0.24]],[[0.136,0.08,0.193],[0.207,0.058,0.159],[0.081,0.115,0.173]],[[0.005,0.038,-0.019],[0.087,-0.026,0.022],[0.017,0.07,0.017]],[[0.094,0.062,0.084],[0.051,0.075,0.12],[0.025,0.017,0.103]],[[0.047,-0.052,0.06],[-0.038,0.007,0.085],[0.088,0.031,0.115]]],[[[0.198,0.161,0.034],[0.107,0.132,0.207],[0.11,0.13,0.169]],[[-0.016,-0.02,0.11],[0.041,0.105,-0.034],[0.0,0.093,0.027]],[[-0.027,-0.135,0.013],[-0.043,-0.016,-0.069],[-0.054,-0.097,-0.102]],[[0.039,0.022,0.122],[0.063,0.13,0.053],[0.075,0.14,-0.006]],[[-0.143,-0.039,-0.101],[-0.117,-0.085,-0.114],[-0.075,-0.128,-0.052]],[[-0.005,-0.017,-0.025],[0.059,0.077,-0.042],[-0.031,-0.054,0.062]],[[0.277,0.135,0.235],[0.234,0.172,0.235],[0.278,0.294,0.25]],[[-0.007,-0.034,-0.017],[0.015,0.014,0.082],[-0.072,0.009,-0.032]],[[-0.023,0.056,-0.027],[-0.021,-0.032,-0.091],[-0.093,0.022,-0.074]],[[0.06,-0.011,0.035],[0.082,0.035,0.046],[0.075,-0.022,0.056]],[[-0.086,0.058,-0.045],[0.017,0.067,0.029],[0.081,-0.028,-0.035]],[[0.258,0.129,0.228],[0.262,0.23,0.137],[0.188,0.105,0.133]],[[0.028,-0.019,0.089],[0.115,0.041,0.063],[0.151,0.055,0.141]],[[0.055,-0.05,-0.1],[0.07,-0.05,0.073],[-0.065,0.002,0.003]],[[0.022,0.105,-0.043],[0.019,0.038,0.108],[0.08,0.091,0.062]],[[0.064,-0.035,-0.046],[0.014,0.06,0.001],[0.043,0.036,0.031]]],[[[0.074,-0.005,0.063],[-0.008,-0.091,0.06],[0.045,0.055,0.036]],[[0.069,-0.032,-0.042],[0.054,0.069,0.004],[0.012,0.046,-0.026]],[[0.021,-0.112,-0.114],[-0.096,-0.104,-0.057],[-0.003,-0.145,-0.1]],[[0.124,0.046,0.082],[0.134,0.023,0.107],[0.154,0.079,0.055]],[[-0.014,-0.023,0.022],[0.085,0.094,0.051],[0.131,0.014,0.076]],[[-0.022,0.021,0.08],[0.007,-0.04,-0.066],[-0.086,-0.098,-0.104]],[[0.172,0.083,0.182],[0.044,0.099,0.275],[0.132,0.102,0.238]],[[0.04,0.004,-0.117],[-0.018,-0.13,-0.115],[0.061,-0.109,-0.08]],[[0.131,0.132,-0.002],[0.016,-0.003,0.121],[0.127,0.09,0.12]],[[0.057,0.103,0.057],[0.063,-0.003,0.071],[0.112,0.031,0.129]],[[0.003,0.014,0.084],[0.028,-0.075,-0.063],[-0.004,-0.037,-0.014]],[[0.16,0.137,0.178],[0.061,0.206,0.23],[0.084,0.055,0.31]],[[0.08,-0.049,-0.05],[0.089,0.021,-0.006],[-0.049,0.042,-0.045]],[[0.087,-0.07,-0.038],[-0.046,0.074,0.1],[-0.025,0.074,-0.015]],[[-0.023,0.078,0.12],[0.084,0.033,0.131],[-0.024,0.069,0.035]],[[0.062,0.09,-0.01],[0.038,-0.04,0.047],[0.003,0.022,0.076]]],[[[-0.062,-0.116,-0.093],[-0.097,-0.03,-0.113],[-0.129,-0.045,-0.11]],[[-0.011,0.068,0.036],[-0.006,0.031,-0.104],[-0.047,-0.006,-0.062]],[[0.199,0.225,0.145],[-0.037,-0.072,-0.002],[-0.177,-0.217,-0.301]],[[0.126,-0.004,0.112],[-0.044,0.021,0.026],[0.102,0.045,0.125]],[[0.162,0.197,0.205],[0.206,0.2,0.135],[0.125,0.148,0.219]],[[0.076,0.031,-0.004],[-0.115,-0.041,-0.121],[-0.148,-0.131,-0.15]],[[-0.013,0.062,-0.046],[0.135,0.063,-0.03],[0.147,-0.009,-0.02]],[[-0.197,-0.077,-0.13],[-0.085,-0.103,-0.097],[0.123,0.12,0.014]],[[0.071,0.0,-0.034],[-0.003,0.031,-0.069],[-0.021,0.091,0.036]],[[-0.075,0.046,-0.122],[-0.018,-0.002,-0.116],[0.132,0.025,-0.037]],[[0.131,0.07,0.032],[-0.074,-0.042,-0.037],[-0.018,-0.087,-0.21]],[[0.1,0.026,0.083],[0.126,0.134,0.164],[0.065,0.047,0.034]],[[-0.056,0.051,-0.072],[-0.08,-0.072,-0.155],[-0.134,-0.092,-0.069]],[[-0.036,0.058,0.047],[-0.052,0.054,-0.016],[-0.01,0.059,-0.057]],[[0.104,0.059,-0.013],[0.046,0.04,-0.015],[0.019,-0.059,0.012]],[[0.181,0.1,0.079],[0.029,-0.002,-0.0],[-0.093,-0.005,-0.243]]],[[[-0.182,-0.176,-0.204],[-0.096,-0.133,-0.17],[-0.127,-0.173,-0.219]],[[-0.195,-0.077,-0.154],[-0.045,0.002,-0.177],[-0.183,-0.035,-0.144]],[[-0.051,-0.016,-0.129],[-0.147,-0.011,-0.046],[-0.004,-0.069,-0.069]],[[0.014,0.107,0.085],[0.136,0.04,0.053],[0.006,0.014,0.097]],[[0.178,0.181,0.137],[0.174,0.158,0.2],[0.095,0.168,0.196]],[[-0.01,-0.063,0.024],[-0.087,0.024,0.031],[-0.035,-0.009,-0.125]],[[0.089,0.061,0.031],[0.094,0.152,0.106],[0.168,0.013,0.133]],[[-0.043,-0.029,-0.151],[-0.178,-0.115,-0.036],[-0.105,0.016,-0.135]],[[-0.008,0.1,0.071],[0.017,0.152,0.025],[-0.008,0.09,0.011]],[[-0.088,-0.06,-0.01],[0.018,0.055,-0.073],[-0.044,0.07,-0.063]],[[-0.145,-0.101,-0.205],[-0.122,0.004,-0.088],[-0.09,-0.08,-0.07]],[[0.226,0.223,0.21],[0.222,0.214,0.166],[0.15,0.103,0.101]],[[-0.083,-0.231,-0.27],[-0.21,-0.214,-0.154],[-0.137,-0.253,-0.176]],[[-0.01,0.07,0.083],[0.047,0.037,0.11],[0.008,0.051,-0.01]],[[0.04,0.003,-0.069],[0.052,0.074,0.011],[-0.071,-0.019,0.043]],[[-0.012,-0.06,-0.004],[-0.102,-0.011,0.023],[-0.058,-0.13,-0.038]]],[[[-0.041,-0.028,-0.108],[-0.092,-0.072,-0.12],[-0.101,-0.099,-0.037]],[[0.113,0.01,0.001],[0.039,-0.025,-0.094],[0.014,-0.076,-0.143]],[[0.089,0.003,-0.017],[-0.06,-0.052,-0.035],[0.108,-0.071,-0.01]],[[0.132,0.011,0.068],[0.067,-0.055,-0.016],[0.003,-0.011,-0.113]],[[0.188,0.078,0.172],[0.065,0.051,0.147],[0.161,0.104,0.009]],[[0.003,-0.056,-0.009],[-0.003,0.001,-0.016],[-0.026,0.045,0.02]],[[-0.032,-0.205,-0.224],[-0.036,-0.046,-0.003],[-0.131,-0.203,-0.189]],[[-0.04,-0.06,-0.101],[0.05,-0.14,-0.065],[-0.012,-0.253,-0.27]],[[0.087,0.093,0.115],[0.104,0.096,0.064],[0.142,-0.064,-0.073]],[[0.087,0.042,0.007],[0.151,0.088,-0.066],[0.01,-0.027,-0.065]],[[0.132,0.076,0.009],[0.067,0.03,-0.049],[0.056,-0.072,-0.011]],[[-0.013,-0.133,-0.189],[0.003,-0.05,-0.046],[-0.111,0.036,-0.102]],[[-0.03,-0.051,-0.165],[0.016,-0.148,-0.1],[0.015,-0.203,-0.189]],[[0.089,0.131,0.007],[0.072,-0.053,-0.08],[0.051,0.057,-0.092]],[[0.061,-0.041,-0.074],[-0.006,-0.064,-0.125],[-0.036,-0.044,-0.019]],[[0.138,0.063,0.004],[0.034,-0.075,0.001],[0.156,-0.032,-0.074]]],[[[-0.102,-0.057,0.033],[-0.085,0.012,0.051],[-0.073,-0.048,0.106]],[[-0.133,-0.077,-0.011],[-0.077,0.008,0.026],[0.007,-0.126,0.005]],[[-0.142,-0.206,-0.092],[-0.237,-0.149,0.025],[-0.076,-0.16,-0.107]],[[-0.165,-0.073,-0.004],[-0.176,0.061,0.106],[-0.038,-0.004,0.001]],[[0.093,0.123,0.075],[0.176,0.119,0.119],[0.133,0.117,0.036]],[[-0.184,-0.184,-0.03],[-0.205,-0.018,-0.11],[-0.072,-0.138,-0.007]],[[0.086,0.032,0.19],[0.156,0.125,0.074],[0.066,0.161,0.148]],[[-0.089,-0.03,-0.021],[-0.079,-0.031,0.06],[-0.096,-0.047,0.049]],[[-0.128,0.063,0.138],[-0.038,-0.041,0.101],[0.054,0.051,0.119]],[[-0.206,-0.142,0.005],[-0.113,0.055,0.064],[-0.081,-0.013,0.046]],[[-0.259,-0.148,0.04],[-0.08,-0.006,0.052],[-0.139,-0.003,0.045]],[[0.07,0.096,0.256],[0.079,0.134,0.183],[0.173,0.132,0.245]],[[-0.123,-0.107,0.129],[-0.116,-0.059,0.083],[-0.068,-0.115,-0.042]],[[-0.137,-0.004,0.112],[0.007,0.025,0.135],[-0.101,-0.044,0.102]],[[-0.148,0.069,0.082],[-0.073,0.086,0.105],[0.043,0.114,0.073]],[[-0.131,-0.088,0.023],[-0.129,-0.135,-0.043],[-0.004,-0.114,0.03]]],[[[0.144,0.038,0.104],[0.085,0.152,0.075],[0.173,0.03,0.136]],[[0.09,0.033,0.034],[-0.005,0.084,0.085],[0.023,0.13,0.042]],[[0.073,0.175,0.127],[0.12,0.143,0.043],[0.078,0.168,0.044]],[[0.01,0.078,0.023],[-0.019,0.043,-0.061],[0.073,0.081,-0.016]],[[-0.07,-0.068,0.028],[-0.085,-0.037,-0.145],[-0.021,-0.006,-0.027]],[[0.048,0.071,0.138],[0.094,0.048,0.001],[0.122,0.036,0.114]],[[0.013,0.043,-0.027],[-0.01,0.034,-0.048],[0.019,0.084,0.099]],[[0.118,0.052,0.084],[-0.002,0.123,0.088],[0.133,0.059,0.134]],[[0.029,0.077,0.002],[-0.073,-0.061,-0.076],[0.008,-0.063,-0.032]],[[0.053,0.102,0.004],[0.077,0.022,0.007],[0.005,-0.018,0.032]],[[0.076,0.047,0.136],[0.03,0.02,0.104],[0.067,0.031,0.008]],[[-0.051,-0.081,0.028],[-0.042,0.018,0.024],[-0.005,-0.018,-0.027]],[[0.107,0.021,0.051],[0.15,0.07,0.152],[0.136,0.069,0.024]],[[0.07,0.025,0.099],[-0.068,0.032,-0.058],[-0.004,-0.064,-0.074]],[[0.027,0.115,0.038],[0.017,0.106,0.034],[-0.02,0.079,0.078]],[[0.133,0.14,0.152],[0.025,0.079,0.038],[0.049,0.133,0.0]]],[[[0.211,0.142,0.2],[0.113,0.106,0.155],[0.112,0.245,0.147]],[[0.164,0.111,0.074],[0.151,0.084,0.083],[0.103,0.116,0.154]],[[0.172,0.182,0.262],[0.186,0.238,0.183],[0.13,0.15,0.163]],[[-0.08,-0.055,-0.023],[-0.041,-0.007,0.055],[-0.137,0.035,-0.01]],[[-0.128,0.034,-0.061],[-0.089,0.003,-0.001],[0.021,-0.064,0.047]],[[0.13,0.155,0.084],[0.074,0.101,0.164],[0.009,0.001,0.014]],[[-0.123,-0.16,-0.093],[-0.189,-0.092,-0.145],[-0.077,-0.159,-0.102]],[[0.111,0.053,0.177],[0.059,0.088,0.209],[0.068,0.154,0.118]],[[0.047,0.128,0.148],[-0.065,-0.055,-0.013],[0.016,0.07,0.097]],[[0.083,0.153,0.019],[-0.03,0.034,0.136],[-0.034,0.12,0.085]],[[0.224,0.265,0.277],[0.206,0.121,0.119],[0.167,0.219,0.167]],[[-0.205,-0.159,-0.168],[-0.149,-0.225,-0.064],[-0.174,-0.159,-0.134]],[[0.133,0.12,0.21],[0.124,0.116,0.147],[0.15,0.206,0.111]],[[0.016,0.054,0.004],[0.073,-0.005,0.118],[0.069,0.046,0.123]],[[-0.018,0.059,0.018],[-0.023,0.078,0.133],[-0.014,0.027,0.034]],[[0.104,0.062,0.078],[0.057,0.178,0.124],[0.041,0.156,0.176]]],[[[-0.215,0.013,0.21],[-0.28,0.014,0.264],[-0.362,-0.16,0.237]],[[-0.412,-0.181,0.061],[-0.251,-0.103,0.134],[-0.344,-0.172,0.072]],[[-0.521,-0.289,-0.221],[-0.39,-0.239,-0.17],[-0.362,-0.066,0.021]],[[-0.385,-0.195,0.339],[-0.263,-0.22,0.374],[-0.494,-0.283,0.327]],[[-0.147,-0.114,0.098],[-0.274,-0.062,0.03],[-0.139,-0.092,-0.027]],[[-0.331,-0.25,-0.155],[-0.157,-0.124,-0.021],[-0.292,-0.068,-0.042]],[[-0.31,0.216,0.262],[-0.239,0.246,0.333],[-0.392,0.278,0.348]],[[-0.368,-0.156,0.05],[-0.519,-0.148,-0.063],[-0.521,-0.316,-0.162]],[[-0.349,-0.059,-0.045],[-0.336,0.037,0.003],[-0.343,-0.071,0.065]],[[-0.335,0.009,-0.015],[-0.463,0.004,0.032],[-0.402,-0.255,0.035]],[[-0.496,-0.362,-0.098],[-0.383,-0.223,0.092],[-0.282,-0.084,0.119]],[[-0.264,0.241,0.346],[-0.236,0.185,0.312],[-0.256,0.327,0.232]],[[-0.329,-0.306,0.069],[-0.235,-0.155,0.162],[-0.295,-0.228,0.17]],[[-0.32,0.036,-0.008],[-0.313,0.006,0.034],[-0.442,-0.127,-0.085]],[[-0.297,-0.006,0.111],[-0.307,0.184,0.109],[-0.497,-0.072,0.176]],[[-0.445,-0.285,-0.073],[-0.369,-0.101,0.097],[-0.261,-0.115,0.03]]],[[[0.011,0.049,-0.06],[0.06,0.036,-0.154],[0.109,0.002,-0.092]],[[0.033,0.099,0.016],[-0.08,-0.018,-0.06],[-0.058,0.027,0.044]],[[0.186,0.126,0.17],[-0.041,0.003,-0.18],[-0.037,-0.001,-0.06]],[[0.13,0.103,0.016],[0.023,0.04,0.01],[0.044,0.049,0.025]],[[0.108,0.046,0.005],[0.168,0.166,0.155],[0.086,0.07,0.151]],[[0.233,0.067,0.016],[-0.061,0.008,-0.045],[0.014,-0.058,-0.128]],[[0.189,0.104,0.002],[0.091,0.148,0.111],[0.03,-0.018,0.014]],[[-0.146,-0.044,-0.187],[-0.133,-0.181,-0.26],[-0.089,-0.12,-0.258]],[[0.187,0.107,0.007],[-0.052,-0.044,-0.057],[-0.025,-0.105,-0.009]],[[0.129,0.039,-0.127],[0.007,-0.03,-0.064],[-0.064,0.01,-0.11]],[[0.165,0.199,0.057],[0.006,0.038,-0.024],[-0.032,-0.023,-0.008]],[[0.064,0.037,0.137],[0.142,0.086,0.07],[-0.008,0.042,0.037]],[[0.023,0.01,-0.005],[-0.012,-0.115,-0.055],[-0.009,0.002,0.046]],[[0.02,-0.044,-0.036],[-0.039,-0.058,-0.122],[-0.057,0.049,-0.117]],[[0.012,0.007,-0.087],[0.036,-0.006,-0.003],[-0.085,-0.019,-0.102]],[[0.219,0.172,0.226],[-0.034,0.069,-0.042],[0.042,0.049,-0.072]]],[[[-0.037,-0.003,-0.068],[-0.107,-0.054,-0.114],[-0.15,-0.185,-0.172]],[[0.091,0.05,0.177],[-0.064,0.029,0.059],[-0.037,-0.005,0.089]],[[0.269,0.29,0.209],[0.077,0.064,0.084],[-0.056,0.119,0.127]],[[-0.1,-0.027,-0.012],[-0.139,0.035,-0.09],[-0.112,-0.079,0.005]],[[-0.02,0.011,0.129],[0.072,0.086,0.106],[0.061,0.075,0.013]],[[0.187,0.122,0.178],[-0.022,0.02,-0.007],[-0.032,0.031,0.021]],[[-0.16,-0.159,-0.063],[-0.139,-0.207,-0.216],[-0.199,-0.065,-0.061]],[[-0.007,0.112,0.024],[-0.045,0.033,-0.037],[0.067,0.176,0.209]],[[0.005,0.09,0.125],[-0.018,0.055,-0.008],[0.064,0.007,0.071]],[[0.039,0.028,0.003],[-0.153,0.04,-0.019],[0.036,0.088,0.021]],[[0.137,0.25,0.137],[-0.034,0.084,-0.026],[-0.013,0.009,0.073]],[[-0.125,-0.105,-0.129],[-0.086,-0.057,0.018],[-0.077,-0.029,-0.042]],[[0.015,0.118,0.111],[-0.063,-0.073,0.008],[0.012,0.068,-0.004]],[[0.088,0.111,0.081],[-0.093,0.037,0.098],[0.1,0.135,0.167]],[[0.066,0.033,0.096],[-0.056,-0.05,-0.061],[-0.059,-0.03,0.042]],[[0.264,0.213,0.207],[0.022,0.047,0.017],[0.029,0.077,0.002]]],[[[0.27,0.208,0.245],[0.313,0.18,0.32],[0.209,0.285,0.267]],[[0.16,0.074,0.082],[0.047,-0.004,0.149],[0.182,0.094,0.053]],[[-0.014,-0.068,-0.14],[-0.124,-0.066,-0.118],[-0.08,-0.153,-0.063]],[[0.098,0.09,0.171],[0.208,0.175,0.146],[0.131,0.163,0.184]],[[-0.069,-0.086,-0.071],[-0.068,-0.031,-0.045],[-0.116,-0.111,-0.127]],[[-0.025,-0.015,-0.052],[-0.092,-0.092,0.001],[-0.029,-0.06,-0.028]],[[0.275,0.247,0.277],[0.252,0.208,0.231],[0.257,0.319,0.393]],[[-0.046,-0.007,-0.028],[-0.112,-0.11,-0.082],[-0.124,-0.076,-0.072]],[[-0.05,-0.019,-0.066],[0.084,0.03,-0.04],[0.075,-0.074,0.054]],[[0.027,0.06,0.098],[0.091,0.044,0.019],[0.044,0.077,-0.021]],[[0.036,0.044,0.009],[-0.001,0.011,0.087],[0.047,-0.055,0.07]],[[0.158,0.205,0.229],[0.251,0.166,0.189],[0.184,0.195,0.194]],[[0.256,0.098,0.189],[0.121,0.121,0.146],[0.151,0.179,0.094]],[[-0.01,-0.048,-0.072],[0.037,0.001,-0.014],[-0.022,-0.006,-0.085]],[[0.029,0.161,0.064],[0.103,0.069,0.151],[0.163,-0.001,0.063]],[[-0.031,0.074,0.107],[-0.026,0.003,-0.019],[-0.023,0.046,-0.084]]],[[[0.161,0.168,0.096],[0.208,0.226,0.106],[0.214,0.173,0.261]],[[-0.029,0.135,0.037],[0.146,0.045,0.105],[0.089,0.134,0.124]],[[0.078,0.014,-0.035],[0.091,0.166,0.163],[0.043,0.148,0.13]],[[-0.015,0.058,0.008],[0.022,-0.03,0.013],[0.087,0.071,-0.051]],[[-0.103,-0.038,-0.126],[-0.136,-0.072,-0.044],[-0.064,-0.186,-0.204]],[[0.08,0.023,0.102],[0.126,0.04,0.095],[0.09,0.038,0.141]],[[0.075,0.051,-0.032],[0.129,-0.011,0.097],[0.044,0.066,0.052]],[[0.158,0.037,0.036],[0.131,0.056,0.069],[0.091,0.029,0.117]],[[-0.076,0.035,0.047],[-0.011,-0.036,0.032],[-0.014,-0.021,0.045]],[[0.015,0.061,-0.0],[0.024,0.046,0.048],[0.05,0.09,0.071]],[[0.007,0.127,0.116],[0.112,0.099,0.049],[0.032,0.09,0.033]],[[-0.004,-0.1,-0.161],[-0.084,0.008,-0.04],[-0.099,-0.076,-0.073]],[[0.102,0.049,0.15],[0.059,0.134,0.171],[0.204,0.055,0.196]],[[-0.008,0.064,0.069],[-0.029,-0.01,-0.022],[0.036,-0.052,0.034]],[[0.072,0.121,0.09],[0.121,-0.01,0.005],[-0.017,0.089,0.054]],[[0.032,0.044,0.015],[0.084,0.017,0.115],[-0.023,-0.018,0.086]]],[[[-0.008,-0.096,0.019],[-0.128,-0.148,-0.093],[-0.037,-0.115,0.013]],[[-0.029,-0.037,-0.028],[-0.073,0.063,-0.056],[-0.025,-0.017,0.081]],[[0.132,0.12,0.073],[0.086,0.062,0.121],[0.065,0.112,0.118]],[[-0.001,-0.101,0.009],[-0.085,-0.012,-0.021],[0.061,-0.07,-0.066]],[[0.183,0.204,0.126],[0.18,0.222,0.16],[0.145,0.217,0.237]],[[0.02,0.087,0.044],[-0.014,-0.004,-0.072],[0.055,-0.032,-0.05]],[[-0.187,-0.198,-0.204],[-0.19,-0.167,-0.117],[-0.154,-0.164,-0.118]],[[-0.02,0.096,0.078],[0.085,-0.051,0.086],[0.112,0.002,0.166]],[[0.085,0.094,0.161],[0.125,0.139,-0.0],[0.181,0.111,0.105]],[[-0.021,-0.006,0.134],[0.094,0.093,0.035],[0.03,0.091,0.044]],[[-0.009,0.069,0.106],[-0.054,-0.062,0.023],[-0.01,-0.024,0.006]],[[-0.149,-0.151,-0.036],[-0.081,-0.082,-0.103],[-0.143,-0.065,-0.085]],[[-0.104,-0.008,0.025],[-0.065,-0.045,-0.046],[0.027,0.061,-0.076]],[[0.128,0.105,0.11],[0.019,0.016,0.157],[0.123,0.078,0.092]],[[0.058,-0.014,0.077],[-0.032,0.015,0.033],[-0.024,0.022,0.054]],[[-0.021,0.036,0.065],[0.087,0.034,-0.05],[0.003,0.106,0.019]]],[[[-0.093,-0.131,-0.122],[-0.192,-0.083,-0.171],[-0.202,-0.127,-0.184]],[[-0.097,-0.049,0.005],[-0.081,-0.113,-0.144],[-0.167,-0.037,-0.049]],[[-0.021,0.039,0.048],[-0.12,0.017,-0.077],[-0.124,-0.071,-0.057]],[[0.068,0.127,0.082],[0.016,0.044,0.036],[-0.018,-0.037,0.005]],[[0.063,0.005,0.117],[0.076,0.181,0.134],[0.143,0.122,0.138]],[[0.102,0.103,0.024],[-0.062,-0.008,-0.07],[-0.048,-0.007,0.001]],[[-0.035,0.088,0.036],[-0.011,0.015,0.061],[0.087,-0.036,0.058]],[[-0.014,-0.126,-0.071],[-0.13,-0.061,-0.061],[-0.1,-0.026,0.011]],[[0.071,-0.001,0.052],[0.06,0.062,0.026],[0.022,-0.002,0.087]],[[-0.072,-0.051,0.028],[-0.092,-0.054,-0.081],[-0.105,0.019,-0.07]],[[-0.019,-0.011,-0.012],[0.01,0.021,-0.07],[-0.155,-0.061,-0.073]],[[0.187,0.101,0.075],[0.155,0.108,0.19],[0.141,0.14,0.193]],[[-0.195,-0.196,-0.074],[-0.079,-0.169,-0.079],[-0.136,-0.157,-0.206]],[[0.004,0.11,-0.015],[0.003,0.12,-0.009],[0.127,0.086,0.076]],[[0.003,-0.028,0.014],[-0.014,-0.084,-0.119],[-0.106,-0.043,-0.029]],[[0.019,0.074,0.091],[0.015,-0.06,-0.015],[-0.128,0.02,-0.104]]]],"biases":[0.12,-0.089,-0.135,-0.001,0.085,-0.09,0.129,0.106,-0.094,-0.133,-0.112,0.055,0.217,-0.013,0.022,-0.063,0.037,-0.084,0.123,0.207,-0.135,-0.148,0.219,0.184]},"fc":{"weights":[[-0.339,-0.199,-0.025,-0.13,-0.239,0.119,0.159,0.087,-0.195,0.16,0.166,0.33,0.044,0.019,-0.14,0.136,-0.026,-0.675,0.373,0.031,0.114,-0.055,-0.009,0.24],[0.457,-0.13,-0.036,0.246,0.07,-0.05,0.282,0.295,-0.081,0.17,-0.033,0.073,0.256,-0.211,0.042,-0.171,-0.23,0.43,-0.54,-0.336,0.014,-0.068,0.003,0.049],[0.268,-0.429,-0.43,0.083,-0.53,-0.171,0.416,0.249,-0.291,0.165,0.08,0.167,0.379,0.217,0.328,-0.39,-0.362,0.249,0.444,-0.338,0.221,-0.362,-0.259,0.315],[-0.04,-0.18,-0.016,-0.2,0.258,-0.046,-0.256,-0.07,0.041,-0.461,-0.388,0.278,0.009,-0.157,-0.438,0.032,0.301,-0.129,0.354,0.462,-0.305,-0.151,0.273,0.198],[-0.136,0.032,0.05,-0.352,-0.104,-0.057,-0.093,-0.234,0.129,0.255,-0.026,-0.324,-0.32,-0.209,-0.341,0.195,0.178,0.06,-0.036,-0.101,0.2,0.234,-0.248,-0.223],[-0.131,-0.008,-0.073,-0.009,-0.049,-0.065,-0.288,-0.102,0.179,-0.102,0.117,-0.285,-0.222,0.151,0.201,-0.129,0.163,0.084,-0.22,-0.085,0.11,-0.046,0.21,-0.177]],"biases":[0.122,-0.058,0.143,0.165,-0.297,-0.092]},"testAccuracy":0.99,"samples":[{"input":[[0.005,0.0,0.0,0.0,0.009,0.013,0.0,0.003,0.017,0.014,0.003,0.0,0.007,0.0,0.04,0.0,0.015,0.0,0.0,0.014,0.009,0.0,0.009,0.0,0.025,0.0,0.003,0.035],[0.006,0.012,0.008,0.017,0.011,0.0,0.0,0.0,0.0,0.009,0.0,0.0,0.012,0.019,0.018,0.0,0.0,0.0,0.0,0.001,0.0,0.015,0.02,0.008,0.0,0.001,0.01,0.046],[0.027,0.007,0.012,0.0,0.04,0.0,0.006,0.0,0.0,0.008,0.005,0.0,0.0,0.0,0.0,0.0,0.0,0.023,0.0,0.015,0.008,0.0,0.004,0.015,0.0,0.0,0.0,0.0],[0.001,0.0,0.006,0.001,0.018,0.033,0.0,0.0,0.0,0.0,0.002,0.0,0.031,0.974,0.037,0.0,0.012,0.008,0.0,0.04,0.0,0.0,0.007,0.0,0.014,0.004,0.0,0.0],[0.002,0.0,0.029,0.003,0.0,0.026,0.0,0.0,0.003,0.015,0.023,0.0,0.0,0.998,0.0,0.0,0.007,0.024,0.021,0.028,0.0,0.0,0.026,0.0,0.0,0.017,0.0,0.029],[0.0,0.0,0.002,0.0,0.013,0.0,0.032,0.016,0.008,0.012,0.0,0.0,0.973,0.966,0.0,0.0,0.038,0.0,0.02,0.009,0.013,0.017,0.0,0.0,0.029,0.0,0.0,0.0],[0.026,0.007,0.012,0.0,0.022,0.0,0.0,0.0,0.0,0.0,0.0,0.016,0.995,0.012,0.0,0.007,0.0,0.021,0.009,0.01,0.025,0.0,0.01,0.0,0.009,0.004,0.019,0.0],[0.0,0.005,0.026,0.0,0.0,0.0,0.0,0.0,0.028,0.045,0.0,0.012,1.0,0.0,0.008,0.005,0.0,0.019,0.0,0.0,0.0,0.0,0.013,0.0,0.029,0.012,0.003,0.003],[0.013,0.0,0.032,0.0,0.003,0.025,0.02,0.0,0.0,0.0,0.0,0.005,0.992,0.035,0.0,0.0,0.006,0.004,0.0,0.0,0.0,0.0,0.0,0.011,0.008,0.006,0.0,0.0],[0.022,0.0,0.008,0.0,0.028,0.0,0.0,0.0,0.024,0.005,0.0,0.0,1.0,0.003,0.0,0.0,0.017,0.0,0.016,0.0,0.0,0.0,0.0,0.0,0.002,0.0,0.024,0.004],[0.03,0.015,0.989,1.0,0.98,1.0,0.99,0.021,0.016,0.001,0.006,1.0,1.0,0.0,0.0,0.022,0.014,0.015,0.017,0.036,0.0,0.003,0.001,0.0,0.023,0.0,0.0,0.0],[0.002,0.0,0.006,0.0,0.027,0.0,0.954,0.993,1.0,0.989,0.965,1.0,0.999,0.0,0.0,0.012,0.0,0.0,0.0,0.024,0.015,0.005,0.0,0.0,0.0,0.0,0.042,0.005],[0.0,0.0,0.0,0.0,0.026,0.029,0.018,0.013,0.004,0.005,0.03,0.982,0.981,0.996,1.0,1.0,1.0,1.0,0.0,0.0,0.006,0.0,0.0,0.022,0.002,0.0,0.0,0.005],[0.019,0.015,0.0,0.022,0.0,0.0,0.011,0.0,0.015,0.002,0.0,1.0,0.021,0.0,0.0,0.0,0.0,1.0,0.984,1.0,0.968,0.0,0.011,0.041,0.0,0.0,0.008,0.0],[0.0,0.0,0.028,0.017,0.0,0.011,0.004,0.0,0.015,0.0,0.0,1.0,0.0,0.014,0.018,0.0,0.012,0.0,0.0,0.0,0.005,0.002,0.0,0.011,0.003,0.01,0.0,0.0],[0.029,0.014,0.0,0.0,0.0,0.016,0.026,0.0,0.009,0.0,0.01,1.0,0.0,0.0,0.0,0.029,0.0,0.019,0.001,0.01,0.0,0.0,0.0,0.0,0.003,0.01,0.003,0.015],[0.004,0.0,0.002,0.0,0.0,0.0,0.021,0.0,0.026,0.022,1.0,0.985,0.0,0.019,0.049,0.034,0.0,0.009,0.0,0.002,0.0,0.0,0.021,0.015,0.0,0.0,0.011,0.027],[0.001,0.024,0.023,0.024,0.0,0.021,0.02,0.017,0.009,0.016,1.0,0.021,0.023,0.006,0.012,0.047,0.005,0.0,0.033,0.0,0.029,0.0,0.002,0.044,0.0,0.026,0.02,0.0],[0.029,0.022,0.01,0.032,0.025,0.0,0.0,0.0,0.0,0.029,0.994,0.0,0.0,0.023,0.0,0.0,0.0,0.021,0.0,0.023,0.004,0.0,0.005,0.02,0.0,0.0,0.0,0.0],[0.032,0.0,0.0,0.009,0.022,0.0,0.011,0.0,0.0,0.0,0.981,0.02,0.009,0.0,0.043,0.0,0.008,0.036,0.0,0.0,0.0,0.0,0.0,0.006,0.0,0.03,0.012,0.029],[0.002,0.037,0.0,0.0,0.0,0.0,0.0,0.005,0.013,0.0,1.0,0.0,0.0,0.003,0.0,0.0,0.02,0.002,0.023,0.0,0.002,0.044,0.0,0.0,0.004,0.0,0.0,0.028],[0.04,0.037,0.0,0.04,0.018,0.0,0.0,0.004,0.004,0.0,0.006,0.0,0.0,0.0,0.0,0.004,0.016,0.0,0.0,0.0,0.0,0.0,0.0,0.0,0.014,0.006,0.011,0.0],[0.0,0.057,0.021,0.0,0.046,0.0,0.0,0.012,0.0,0.0,0.013,0.0,0.003,0.0,0.001,0.0,0.0,0.0,0.01,0.0,0.009,0.0,0.0,0.0,0.0,0.0,0.0,0.019],[0.001,0.029,0.0,0.02,0.0,0.0,0.007,0.031,0.0,0.013,0.0,0.023,0.0,0.002,0.009,0.0,0.014,0.027,0.0,0.0,0.0,0.0,0.0,0.0,0.023,0.008,0.0,0.0],[0.026,0.002,0.0,0.0,0.011,0.018,0.0,0.0,0.038,0.024,0.0,0.025,0.0,0.008,0.0,0.0,0.032,0.019,0.0,0.024,0.0,0.0,0.0,0.0,0.041,0.002,0.0,0.0],[0.023,0.016,0.0,0.0,0.034,0.047,0.0,0.002,0.0,0.0,0.0,0.016,0.0,0.0,0.005,0.0,0.0,0.008,0.029,0.029,0.0,0.0,0.0,0.032,0.0,0.024,0.012,0.031],[0.03,0.0,0.0,0.0,0.0,0.0,0.005,0.0,0.0,0.0,0.017,0.0,0.0,0.02,0.0,0.0,0.007,0.0,0.033,0.0,0.0,0.014,0.006,0.0,0.003,0.024,0.0,0.0],[0.017,0.0,0.028,0.008,0.0,0.0,0.002,0.0,0.012,0.0,0.016,0.0,0.0,0.05,0.0,0.0,0.0,0.0,0.004,0.014,0.0,0.0,0.0,0.013,0.009,0.015,0.016,0.011]],"conv1Out":[[[0.0,0.0,0.0,0.0,0.0,0.0,0.0,0.0,0.0,0.0,0.0,0.0,0.0,0.0,0.0,0.0,0.0,0.0,0.0,0.0,0.0,0.0,0.0,0.0,0.0,0.0,0.0,0.0],[0.0,0.0,0.0,0.0,0.0,0.0,0.0,0.0,0.0,0.0,0.0,0.0,0.239,0.05,0.087,0.007,0.0,0.0,0.0,0.0,0.0,0.0,0.0,0.0,0.0,0.0,0.0,0.0],[0.0,0.0,0.0,0.0,0.0,0.0,0.0,0.0,0.0,0.0,0.0,0.107,0.312,0.265,0.439,0.118,0.0,0.0,0.0,0.0,0.0,0.0,0.0,0.0,0.0,0.0,0.006,0.0],[0.0,0.0,0.0,0.016,0.0,0.0,0.0,0.0,0.0,0.0,0.0,0.64,0.546,0.692,0.695,0.424,0.0,0.0,0.0,0.004,0.0,0.0,0.0,0.0,0.0,0.0,0.0,0.0],[0.0,0.0,0.0,0.002,0.007,0.005,0.0,0.0,0.0,0.0,0.11,0.658,0.829,1.294,0.755,0.534,0.005,0.0,0.021,0.023,0.0,0.001,0.0,0.0,0.0,0.0,0.0,0.0],[0.0,0.0,0.0,0.0,0.004,0.0,0.0,0.0,0.0,0.0,0.365,0.73,1.461,1.438,1.075,0.712,0.007,0.0,0.035,0.0,0.0,0.007,0.0,0.0,0.0,0.0,0.0,0.0],[0.0,0.0,0.0,0.0,0.0,0.0,0.0,0.0,0.0,0.0,0.287,0.844,1.607,1.171,0.994,0.411,0.0,0.0,0.014,0.0,0.005,0.0,0.0,0.0,0.0,0.0,0.0,0.0],[0.0,0.0,0.0,0.002,0.0,0.0,0.0,0.004,0.0,0.0,0.371,1.288,1.355,1.215,1.185,0.249,0.0,0.004,0.0,0.0,0.0,0.0,0.0,0.0,0.0,0.0,0.0,0.0],[0.0,0.219,0.281,0.367,0.399,0.447,0.169,0.11,0.018,0.0,0.641,1.258,1.134,1.138,0.846,0.0,0.0,0.0,0.0,0.0,0.0,0.0,0.0,0.0,0.0,0.0,0.0,0.0],[0.172,0.244,0.452,0.798,0.841,0.904,0.926,0.816,0.5,0.581,0.895,1.593,1.516,1.238,0.835,0.0,0.0,0.0,0.0,0.0,0.0,0.0,0.0,0.0,0.0,0.0,0.0,0.0],[0.231,0.429,0.762,1.002,1.509,1.307,1.322,1.336,1.204,1.088,1.528,2.179,2.031,1.821,1.221,0.398,0.45,0.185,0.121,0.011,0.0,0.0,0.0,0.0,0.0,0.0,0.0,0.0],[0.0,0.236,0.578,0.649,1.044,1.34,1.322,1.23,1.44,1.339,2.171,2.587,2.283,2.038,1.624,0.834,0.913,0.933,0.832,0.542,0.162,0.108,0.0,0.0,0.0,0.0,0.0,0.0],[0.054,0.422,0.537,0.895,1.087,1.321,1.312,1.291,1.074,1.273,1.992,2.396,2.476,2.285,1.723,1.504,1.297,1.332,1.345,1.017,0.651,0.43,0.069,0.0,0.0,0.0,0.0,0.0],[0.0,0.0,0.0,0.0,0.082,0.421,0.54,0.877,1.136,1.451,1.934,2.241,2.067,1.858,1.078,1.043,1.332,1.311,1.209,1.19,0.849,0.522,0.293,0.0,0.0,0.0,0.0,0.0],[0.0,0.0,0.0,0.0,0.0,0.002,0.001,0.005,0.0,0.648,1.33,1.572,1.684,1.75,1.165,1.071,1.346,1.3,1.274,1.142,0.507,0.204,0.14,0.0,0.0,0.0,0.0,0.0],[0.0,0.0,0.011,0.0,0.0,0.0,0.0,0.002,0.133,0.75,1.204,1.439,1.127,0.837,0.005,0.099,0.426,0.537,0.876,1.059,0.71,0.593,0.256,0.0,0.002,0.0,0.0,0.0],[0.0,0.0,0.0,0.0,0.002,0.0,0.0,0.001,0.394,0.751,1.503,1.445,1.114,0.746,0.013,0.022,0.026,0.0,0.0,0.0,0.0,0.0,0.0,0.0,0.003,0.0,0.0,0.0],[0.0,0.012,0.008,0.007,0.002,0.013,0.0,0.01,0.296,0.861,1.636,1.196,1.018,0.445,0.027,0.009,0.022,0.008,0.0,0.0,0.0,0.0,0.0,0.0,0.0,0.0,0.003,0.0],[0.0,0.01,0.016,0.0,0.0,0.002,0.0,0.0,0.371,1.299,1.38,1.245,1.217,0.266,0.019,0.042,0.0,0.016,0.0,0.0,0.0,0.0,0.0,0.0,0.0,0.006,0.0,0.0],[0.007,0.0,0.039,0.017,0.008,0.0,0.0,0.0,0.431,0.926,0.975,1.009,0.829,0.002,0.008,0.0,0.019,0.009,0.0,0.017,0.0,0.0,0.004,0.0,0.0,0.013,0.0,0.0],[0.009,0.028,0.027,0.029,0.0,0.0,0.0,0.0,0.224,0.853,0.754,0.651,0.703,0.0,0.0,0.0,0.001,0.0,0.0,0.0,0.0,0.0,0.0,0.0,0.0,0.0,0.0,0.0],[0.007,0.025,0.048,0.015,0.0,0.006,0.0,0.0,0.0,0.664,0.416,0.409,0.392,0.0,0.0,0.0,0.001,0.0,0.0,0.0,0.0,0.0,0.0,0.0,0.0,0.0,0.0,0.0],[0.013,0.007,0.033,0.03,0.0,0.0,0.0,0.0,0.075,0.33,0.099,0.33,0.247,0.0,0.0,0.0,0.0,0.0,0.0,0.0,0.0,0.0,0.0,0.0,0.0,0.0,0.0,0.0],[0.007,0.03,0.017,0.03,0.014,0.005,0.002,0.0,0.0,0.008,0.0,0.0,0.0,0.0,0.0,0.0,0.0,0.004,0.0,0.0,0.0,0.0,0.0,0.0,0.0,0.0,0.0,0.0],[0.003,0.0,0.018,0.024,0.0,0.008,0.022,0.0,0.0,0.0,0.0,0.0,0.0,0.0,0.0,0.0,0.0,0.006,0.0,0.0,0.0,0.0,0.0,0.0,0.001,0.0,0.0,0.0],[0.0,0.0,0.001,0.0,0.0,0.0,0.0,0.0,0.0,0.0,0.0,0.0,0.0,0.0,0.0,0.0,0.003,0.0,0.012,0.007,0.0,0.0,0.0,0.005,0.0,0.008,0.0,0.0],[0.0,0.0,0.0,0.0,0.0,0.0,0.0,0.0,0.0,0.0,0.0,0.0,0.0,0.0,0.0,0.0,0.0,0.0,0.014,0.0,0.0,0.0,0.0,0.0,0.0,0.003,0.0,0.0],[0.0,0.0,0.0,0.0,0.0,0.0,0.0,0.0,0.0,0.0,0.0,0.0,0.0,0.0,0.0,0.0,0.0,0.0,0.0,0.0,0.0,0.0,0.0,0.0,0.0,0.0,0.0,0.0]],[[0.074,0.083,0.085,0.092,0.084,0.083,0.07,0.067,0.07,0.07,0.073,0.074,0.08,0.083,0.088,0.079,0.084,0.064,0.075,0.074,0.082,0.086,0.084,0.079,0.082,0.089,0.097,0.087],[0.078,0.08,0.104,0.11,0.114,0.098,0.092,0.072,0.071,0.068,0.071,0.162,0.479,0.46,0.503,0.235,0.102,0.077,0.098,0.093,0.088,0.096,0.092,0.09,0.088,0.083,0.095,0.09],[0.079,0.093,0.111,0.126,0.131,0.104,0.1,0.074,0.071,0.079,0.087,0.542,0.992,0.884,0.776,0.556,0.105,0.106,0.123,0.114,0.098,0.112,0.09,0.099,0.09,0.085,0.105,0.088],[0.081,0.081,0.103,0.114,0.132,0.113,0.117,0.099,0.091,0.082,0.157,1.09,1.669,1.737,1.255,0.955,0.119,0.132,0.126,0.132,0.113,0.118,0.093,0.096,0.093,0.091,0.09,0.073],[0.072,0.088,0.092,0.112,0.126,0.123,0.108,0.1,0.084,0.079,0.531,1.679,2.053,2.12,1.32,1.238,0.128,0.124,0.154,0.15,0.117,0.12,0.098,0.096,0.097,0.086,0.088,0.077],[0.075,0.088,0.101,0.093,0.111,0.092,0.096,0.105,0.111,0.112,0.726,1.617,2.3,2.203,1.589,1.078,0.12,0.121,0.148,0.127,0.115,0.113,0.098,0.1,0.115,0.103,0.096,0.078],[0.082,0.105,0.103,0.095,0.112,0.092,0.115,0.109,0.111,0.103,0.883,1.797,2.44,1.841,1.687,0.677,0.103,0.1,0.121,0.103,0.101,0.095,0.1,0.106,0.115,0.085,0.103,0.068],[0.095,0.101,0.11,0.108,0.115,0.092,0.093,0.097,0.105,0.103,0.837,1.915,2.229,1.571,1.709,0.25,0.084,0.104,0.089,0.093,0.08,0.072,0.087,0.09,0.1,0.098,0.097,0.071],[0.179,0.587,0.955,1.33,1.48,1.373,1.001,0.649,0.25,0.176,1.232,2.326,2.369,1.579,1.552,0.096,0.103,0.105,0.1,0.096,0.078,0.068,0.071,0.084,0.101,0.098,0.089,0.068],[0.463,0.978,1.415,1.679,2.097,2.1,1.949,1.925,1.796,1.828,2.627,3.266,2.779,1.909,1.545,0.1,0.101,0.108,0.113,0.098,0.087,0.076,0.066,0.079,0.081,0.096,0.097,0.081],[0.253,0.598,1.109,1.465,2.23,2.553,2.66,2.438,2.383,2.245,3.098,3.897,3.795,3.12,2.782,1.47,1.391,1.007,0.657,0.241,0.093,0.08,0.071,0.07,0.093,0.095,0.094,0.067],[0.246,0.598,1.085,1.217,1.825,2.0,2.128,2.031,2.285,2.468,3.578,4.413,4.035,3.64,2.986,2.086,2.105,1.973,1.943,1.712,0.975,0.63,0.228,0.088,0.089,0.089,0.089,0.074],[0.022,0.304,0.458,0.638,0.962,1.346,1.557,1.548,1.778,2.205,3.269,3.661,3.474,3.209,2.445,2.224,2.549,2.643,2.422,2.01,1.102,0.7,0.414,0.094,0.093,0.1,0.081,0.059],[0.087,0.103,0.101,0.108,0.066,0.323,0.459,0.64,0.778,1.56,2.538,3.077,2.713,2.833,1.796,1.813,1.993,2.116,2.008,2.099,1.304,0.828,0.474,0.095,0.083,0.103,0.075,0.071],[0.086,0.088,0.097,0.1,0.102,0.115,0.106,0.112,0.192,1.236,2.268,2.578,1.926,2.103,0.816,0.977,1.367,1.545,1.513,1.603,1.08,0.643,0.527,0.098,0.088,0.102,0.084,0.077],[0.091,0.103,0.124,0.096,0.11,0.114,0.115,0.131,0.581,1.657,2.362,2.308,1.532,1.461,0.144,0.086,0.35,0.457,0.621,0.825,0.546,0.423,0.254,0.097,0.112,0.119,0.098,0.091],[0.107,0.123,0.133,0.124,0.126,0.123,0.109,0.119,0.76,1.644,2.366,2.238,1.639,1.132,0.153,0.148,0.135,0.133,0.102,0.102,0.088,0.096,0.11,0.105,0.115,0.112,0.089,0.091],[0.108,0.128,0.141,0.13,0.118,0.125,0.107,0.116,0.913,1.81,2.474,1.882,1.733,0.737,0.149,0.152,0.15,0.138,0.112,0.101,0.089,0.097,0.105,0.098,0.114,0.126,0.116,0.102],[0.113,0.128,0.149,0.132,0.114,0.119,0.092,0.097,0.836,1.919,2.251,1.591,1.746,0.283,0.135,0.142,0.134,0.136,0.112,0.109,0.107,0.098,0.115,0.111,0.103,0.133,0.108,0.102],[0.139,0.14,0.165,0.143,0.118,0.105,0.094,0.078,0.741,1.551,1.598,1.041,1.403,0.094,0.105,0.115,0.122,0.123,0.097,0.121,0.091,0.086,0.092,0.092,0.09,0.121,0.105,0.102],[0.145,0.151,0.184,0.163,0.109,0.107,0.09,0.061,0.362,1.033,1.169,0.743,1.063,0.079,0.09,0.081,0.111,0.091,0.094,0.094,0.08,0.078,0.079,0.086,0.079,0.095,0.096,0.101],[0.146,0.156,0.166,0.17,0.109,0.104,0.101,0.079,0.2,0.696,0.688,0.378,0.667,0.073,0.067,0.082,0.108,0.092,0.101,0.074,0.08,0.069,0.062,0.082,0.078,0.089,0.102,0.086],[0.136,0.147,0.156,0.164,0.11,0.118,0.11,0.099,0.048,0.384,0.236,0.268,0.235,0.068,0.067,0.096,0.101,0.101,0.1,0.076,0.08,0.059,0.072,0.091,0.086,0.084,0.089,0.066],[0.122,0.132,0.137,0.161,0.141,0.121,0.137,0.115,0.099,0.114,0.105,0.095,0.083,0.076,0.072,0.094,0.101,0.115,0.124,0.101,0.077,0.062,0.081,0.094,0.105,0.1,0.11,0.081],[0.113,0.112,0.11,0.142,0.11,0.116,0.116,0.108,0.089,0.119,0.104,0.105,0.082,0.09,0.073,0.085,0.11,0.134,0.127,0.12,0.086,0.086,0.083,0.1,0.118,0.116,0.117,0.081],[0.105,0.097,0.117,0.101,0.103,0.1,0.104,0.103,0.098,0.095,0.104,0.106,0.101,0.102,0.084,0.089,0.104,0.11,0.129,0.12,0.097,0.086,0.076,0.113,0.124,0.121,0.12,0.098],[0.099,0.094,0.101,0.087,0.098,0.083,0.079,0.088,0.075,0.076,0.088,0.093,0.1,0.091,0.071,0.083,0.076,0.093,0.114,0.095,0.091,0.086,0.073,0.105,0.1,0.128,0.102,0.097],[0.081,0.073,0.087,0.069,0.078,0.064,0.066,0.059,0.061,0.061,0.071,0.068,0.086,0.084,0.068,0.078,0.057,0.07,0.085,0.071,0.083,0.065,0.065,0.073,0.087,0.09,0.086,0.084]],[[0.294,0.295,0.301,0.295,0.313,0.304,0.307,0.292,0.293,0.295,0.298,0.293,0.294,0.294,0.308,0.295,0.297,0.295,0.294,0.302,0.295,0.294,0.302,0.303,0.303,0.295,0.293,0.301],[0.291,0.303,0.295,0.295,0.305,0.322,0.31,0.308,0.295,0.298,0.296,0.16,0.224,0.612,0.513,0.618,0.316,0.289,0.303,0.312,0.307,0.316,0.296,0.304,0.31,0.304,0.314,0.307],[0.295,0.294,0.317,0.307,0.319,0.313,0.317,0.301,0.292,0.296,0.299,0.083,0.197,0.656,0.816,0.713,0.29,0.301,0.307,0.318,0.316,0.311,0.308,0.312,0.302,0.302,0.312,0.312],[0.295,0.302,0.302,0.318,0.307,0.307,0.321,0.304,0.306,0.301,0.169,0.124,0.563,1.052,1.173,0.826,0.309,0.302,0.326,0.323,0.32,0.316,0.304,0.304,0.307,0.301,0.314,0.29],[0.299,0.303,0.306,0.309,0.315,0.315,0.306,0.312,0.301,0.296,0.077,0.143,0.932,1.264,1.303,0.758,0.309,0.317,0.323,0.322,0.321,0.319,0.311,0.298,0.303,0.309,0.306,0.303],[0.282,0.306,0.309,0.311,0.326,0.305,0.304,0.289,0.304,0.32,0.201,0.36,1.429,1.255,1.207,0.584,0.307,0.312,0.336,0.317,0.31,0.313,0.301,0.303,0.316,0.302,0.318,0.308],[0.295,0.299,0.313,0.31,0.307,0.305,0.315,0.306,0.314,0.311,0.111,0.505,1.524,1.257,1.368,0.45,0.305,0.32,0.323,0.305,0.311,0.301,0.295,0.309,0.306,0.315,0.318,0.291],[0.3,0.309,0.31,0.311,0.312,0.309,0.313,0.305,0.307,0.305,0.178,0.814,1.243,1.162,1.073,0.224,0.301,0.312,0.308,0.315,0.305,0.299,0.301,0.301,0.301,0.305,0.308,0.303],[0.164,0.104,0.408,0.6,0.901,1.048,1.101,0.813,0.632,0.18,0.117,1.07,1.221,1.505,0.986,0.299,0.308,0.309,0.311,0.321,0.3,0.308,0.285,0.304,0.308,0.31,0.307,0.302],[0.217,0.207,0.231,0.544,0.516,0.499,0.836,1.001,0.996,0.823,0.875,1.581,1.861,1.585,0.989,0.303,0.308,0.295,0.3,0.301,0.313,0.305,0.297,0.301,0.293,0.302,0.311,0.3],[0.408,0.475,0.694,0.756,0.831,0.713,0.674,0.752,0.786,0.609,0.578,1.592,1.468,1.817,1.271,0.906,1.05,1.133,0.815,0.621,0.306,0.3,0.297,0.299,0.295,0.3,0.298,0.309],[0.214,0.491,0.664,0.899,1.215,1.369,1.332,1.226,1.127,0.602,0.975,1.699,1.566,1.676,0.925,0.494,0.5,0.849,1.012,1.142,1.113,0.804,0.597,0.312,0.316,0.317,0.306,0.294],[0.358,0.588,0.576,0.655,0.501,0.681,0.627,0.882,1.031,1.067,1.467,2.133,1.943,1.762,1.053,0.832,0.699,0.661,0.759,0.859,0.745,0.699,0.379,0.307,0.301,0.315,0.298,0.306],[0.299,0.304,0.304,0.318,0.372,0.6,0.597,0.659,0.574,0.366,0.708,1.42,1.437,1.643,1.028,1.229,1.37,1.346,1.213,1.024,0.73,0.497,0.448,0.3,0.304,0.313,0.298,0.301],[0.3,0.307,0.321,0.31,0.301,0.305,0.302,0.306,0.174,0.108,1.138,1.519,1.764,1.333,0.581,0.492,0.705,0.623,0.886,1.109,0.913,0.746,0.527,0.309,0.31,0.302,0.296,0.304],[0.291,0.306,0.318,0.316,0.313,0.31,0.305,0.321,0.089,0.218,1.177,1.245,1.389,0.678,0.308,0.417,0.618,0.59,0.649,0.484,0.278,0.28,0.228,0.309,0.309,0.315,0.304,0.313],[0.303,0.311,0.321,0.318,0.319,0.314,0.319,0.311,0.197,0.355,1.444,1.262,1.224,0.603,0.319,0.318,0.32,0.313,0.296,0.32,0.302,0.305,0.298,0.301,0.317,0.305,0.31,0.309],[0.304,0.314,0.309,0.308,0.319,0.328,0.311,0.311,0.112,0.523,1.553,1.263,1.38,0.456,0.349,0.326,0.337,0.316,0.322,0.306,0.307,0.299,0.303,0.31,0.308,0.316,0.315,0.32],[0.301,0.33,0.325,0.326,0.316,0.319,0.305,0.318,0.184,0.832,1.249,1.17,1.074,0.239,0.317,0.319,0.307,0.32,0.322,0.314,0.309,0.317,0.322,0.311,0.307,0.309,0.312,0.315],[0.321,0.323,0.349,0.337,0.329,0.323,0.309,0.289,0.314,0.829,0.721,0.994,0.68,0.303,0.312,0.297,0.314,0.313,0.311,0.316,0.291,0.302,0.316,0.3,0.31,0.308,0.304,0.305],[0.294,0.337,0.33,0.328,0.329,0.315,0.309,0.298,0.395,0.845,0.686,0.657,0.589,0.307,0.3,0.298,0.322,0.305,0.317,0.302,0.302,0.301,0.298,0.292,0.298,0.298,0.31,0.319],[0.304,0.32,0.331,0.343,0.301,0.314,0.293,0.304,0.284,0.804,0.446,0.618,0.438,0.306,0.289,0.301,0.303,0.311,0.31,0.299,0.307,0.299,0.299,0.299,0.308,0.298,0.318,0.295],[0.325,0.32,0.346,0.318,0.323,0.311,0.304,0.297,0.384,0.532,0.289,0.379,0.22,0.3,0.287,0.295,0.303,0.314,0.315,0.31,0.304,0.295,0.284,0.283,0.304,0.316,0.319,0.297],[0.318,0.335,0.321,0.322,0.311,0.328,0.328,0.314,0.295,0.315,0.3,0.307,0.303,0.301,0.296,0.294,0.291,0.304,0.307,0.316,0.314,0.297,0.288,0.299,0.3,0.319,0.306,0.312],[0.326,0.31,0.327,0.304,0.292,0.313,0.323,0.306,0.313,0.305,0.311,0.308,0.302,0.309,0.295,0.304,0.305,0.303,0.32,0.321,0.309,0.296,0.293,0.297,0.314,0.307,0.318,0.304],[0.308,0.31,0.324,0.305,0.317,0.311,0.305,0.31,0.307,0.3,0.325,0.299,0.302,0.314,0.305,0.321,0.305,0.303,0.318,0.318,0.306,0.304,0.29,0.317,0.302,0.324,0.32,0.313],[0.302,0.304,0.299,0.31,0.316,0.305,0.311,0.308,0.295,0.295,0.302,0.293,0.298,0.297,0.31,0.304,0.297,0.299,0.316,0.304,0.314,0.293,0.301,0.305,0.306,0.311,0.309,0.312],[0.303,0.3,0.306,0.301,0.302,0.292,0.292,0.286,0.293,0.295,0.3,0.296,0.304,0.303,0.294,0.303,0.29,0.309,0.303,0.299,0.3,0.295,0.301,0.297,0.31,0.303,0.309,0.297]],[[0.213,0.228,0.22,0.236,0.226,0.233,0.218,0.209,0.211,0.215,0.215,0.213,0.227,0.23,0.227,0.224,0.212,0.212,0.218,0.21,0.225,0.225,0.23,0.226,0.219,0.231,0.236,0.23],[0.222,0.228,0.23,0.241,0.251,0.245,0.236,0.212,0.216,0.212,0.205,0.056,0.415,0.536,0.758,0.341,0.215,0.216,0.227,0.24,0.244,0.221,0.232,0.23,0.227,0.244,0.218,0.227],[0.215,0.237,0.249,0.256,0.258,0.25,0.236,0.228,0.217,0.223,0.227,0.116,0.922,1.043,1.066,0.59,0.222,0.234,0.272,0.264,0.252,0.248,0.241,0.234,0.23,0.243,0.246,0.244],[0.231,0.239,0.251,0.252,0.253,0.239,0.224,0.237,0.229,0.234,0.081,0.636,1.466,1.753,1.569,0.716,0.233,0.282,0.263,0.255,0.267,0.257,0.239,0.231,0.228,0.249,0.245,0.235],[0.237,0.237,0.243,0.274,0.258,0.257,0.234,0.222,0.237,0.222,0.11,1.671,2.042,2.188,1.398,0.36,0.245,0.285,0.277,0.27,0.267,0.236,0.231,0.251,0.226,0.228,0.223,0.213],[0.226,0.232,0.252,0.269,0.248,0.249,0.217,0.214,0.243,0.245,0.485,2.371,2.214,2.588,1.338,0.0,0.254,0.297,0.272,0.267,0.24,0.223,0.248,0.24,0.228,0.263,0.231,0.215],[0.225,0.255,0.256,0.25,0.241,0.245,0.242,0.247,0.252,0.25,0.859,2.301,2.402,2.443,0.656,0.0,0.272,0.267,0.256,0.244,0.231,0.231,0.233,0.24,0.257,0.251,0.227,0.221],[0.239,0.245,0.239,0.24,0.258,0.257,0.239,0.254,0.234,0.247,1.33,2.33,2.548,2.089,0.467,0.156,0.247,0.248,0.247,0.234,0.228,0.209,0.23,0.239,0.237,0.237,0.221,0.214],[0.103,0.284,0.577,1.089,1.186,1.325,1.161,0.886,0.362,0.092,1.508,2.182,2.66,1.775,0.358,0.241,0.241,0.249,0.256,0.231,0.242,0.214,0.223,0.229,0.241,0.247,0.219,0.205],[0.299,0.777,1.272,1.552,1.641,1.799,1.603,1.632,1.459,1.242,2.923,3.3,3.054,2.046,0.361,0.229,0.245,0.242,0.238,0.236,0.238,0.229,0.228,0.238,0.233,0.23,0.221,0.229],[0.588,0.851,1.057,1.52,1.686,1.808,2.042,2.105,1.911,1.984,3.301,3.29,3.669,2.472,1.205,1.181,1.365,1.173,0.868,0.345,0.229,0.218,0.224,0.222,0.232,0.24,0.234,0.215],[0.637,0.907,1.375,1.463,1.551,1.427,1.367,1.337,1.369,1.903,3.476,3.756,3.802,2.403,1.568,1.655,1.815,1.616,1.637,1.598,1.135,0.817,0.34,0.232,0.262,0.235,0.216,0.226],[0.702,1.132,1.573,1.688,1.97,1.79,1.811,1.479,1.12,1.887,3.372,3.28,3.141,1.82,1.282,1.683,1.812,2.052,2.123,1.876,1.254,0.759,0.494,0.235,0.256,0.237,0.225,0.205],[0.219,0.252,0.268,0.249,0.719,1.141,1.546,1.67,1.558,2.179,3.182,3.241,3.14,1.696,1.107,1.549,1.411,1.339,1.326,1.006,0.999,0.78,0.328,0.226,0.252,0.231,0.231,0.218],[0.24,0.244,0.234,0.253,0.254,0.251,0.253,0.246,0.085,1.538,2.66,3.546,3.1,1.79,1.601,2.015,1.796,1.815,1.442,0.678,0.482,0.051,0.0,0.25,0.225,0.2,0.227,0.224],[0.234,0.256,0.259,0.244,0.232,0.23,0.262,0.258,0.14,2.184,2.5,2.666,1.546,0.283,0.279,0.744,1.171,1.566,1.639,1.086,0.646,0.255,0.159,0.252,0.247,0.233,0.247,0.23],[0.253,0.27,0.259,0.262,0.274,0.264,0.264,0.246,0.474,2.415,2.245,2.625,1.369,0.038,0.296,0.287,0.254,0.241,0.239,0.234,0.242,0.224,0.247,0.256,0.259,0.262,0.229,0.223],[0.267,0.267,0.254,0.271,0.283,0.268,0.267,0.248,0.882,2.339,2.425,2.459,0.661,0.0,0.283,0.277,0.259,0.245,0.259,0.242,0.224,0.245,0.241,0.238,0.251,0.247,0.258,0.245],[0.254,0.278,0.281,0.251,0.25,0.249,0.249,0.25,1.343,2.36,2.57,2.112,0.497,0.203,0.281,0.272,0.256,0.243,0.262,0.229,0.236,0.259,0.249,0.252,0.246,0.242,0.258,0.237],[0.286,0.318,0.29,0.27,0.265,0.24,0.221,0.242,1.49,1.713,1.843,1.151,0.272,0.256,0.236,0.27,0.258,0.263,0.268,0.232,0.24,0.249,0.233,0.263,0.241,0.24,0.254,0.231],[0.293,0.295,0.316,0.298,0.261,0.238,0.213,0.222,1.439,1.211,1.32,0.86,0.0,0.216,0.23,0.24,0.228,0.256,0.225,0.229,0.22,0.223,0.231,0.232,0.222,0.243,0.234,0.219],[0.273,0.306,0.295,0.27,0.271,0.231,0.235,0.221,1.101,0.932,1.113,0.404,0.0,0.222,0.234,0.235,0.245,0.248,0.228,0.221,0.21,0.221,0.205,0.21,0.233,0.264,0.246,0.235],[0.286,0.295,0.278,0.251,0.232,0.237,0.233,0.232,0.726,0.678,0.661,0.335,0.124,0.216,0.218,0.226,0.263,0.247,0.235,0.243,0.229,0.221,0.202,0.218,0.237,0.255,0.228,0.212],[0.284,0.306,0.286,0.231,0.269,0.263,0.237,0.249,0.257,0.235,0.25,0.229,0.226,0.216,0.217,0.242,0.241,0.235,0.26,0.243,0.222,0.2,0.215,0.239,0.257,0.245,0.244,0.224],[0.273,0.293,0.263,0.247,0.264,0.259,0.256,0.258,0.22,0.243,0.245,0.231,0.226,0.211,0.232,0.232,0.227,0.27,0.262,0.241,0.23,0.213,0.242,0.235,0.245,0.265,0.245,0.229],[0.245,0.255,0.246,0.255,0.238,0.251,0.252,0.242,0.233,0.257,0.224,0.223,0.241,0.223,0.253,0.249,0.25,0.266,0.237,0.236,0.237,0.213,0.239,0.247,0.277,0.252,0.229,0.229],[0.239,0.241,0.233,0.245,0.249,0.234,0.212,0.219,0.236,0.243,0.225,0.236,0.24,0.223,0.24,0.238,0.243,0.257,0.244,0.245,0.207,0.207,0.239,0.264,0.251,0.248,0.239,0.221],[0.239,0.225,0.214,0.245,0.24,0.223,0.205,0.196,0.209,0.217,0.215,0.236,0.216,0.216,0.224,0.202,0.23,0.241,0.239,0.223,0.2,0.222,0.221,0.238,0.239,0.251,0.232,0.213]],[[0.135,0.139,0.138,0.127,0.145,0.151,0.154,0.137,0.137,0.145,0.15,0.145,0.13,0.131,0.149,0.145,0.153,0.139,0.138,0.142,0.139,0.141,0.138,0.143,0.153,0.132,0.133,0.146],[0.132,0.14,0.13,0.123,0.131,0.157,0.155,0.14,0.133,0.141,0.136,0.0,0.0,0.081,0.225,0.354,0.152,0.128,0.127,0.137,0.136,0.141,0.134,0.137,0.15,0.126,0.122,0.147],[0.125,0.126,0.128,0.113,0.134,0.148,0.167,0.139,0.121,0.134,0.14,0.0,0.0,0.013,0.393,0.48,0.127,0.122,0.124,0.146,0.142,0.135,0.129,0.135,0.142,0.127,0.109,0.139],[0.123,0.125,0.119,0.108,0.127,0.135,0.155,0.149,0.134,0.139,0.0,0.0,0.0,0.149,0.737,0.769,0.132,0.115,0.13,0.141,0.139,0.141,0.128,0.138,0.147,0.132,0.136,0.14],[0.12,0.129,0.133,0.108,0.121,0.145,0.15,0.15,0.135,0.134,0.0,0.0,0.0,0.295,0.785,0.592,0.106,0.114,0.116,0.144,0.147,0.145,0.14,0.129,0.143,0.139,0.144,0.154],[0.123,0.123,0.133,0.126,0.12,0.132,0.146,0.123,0.126,0.135,0.0,0.0,0.0,0.328,1.068,0.524,0.116,0.115,0.126,0.136,0.144,0.141,0.131,0.121,0.131,0.14,0.151,0.15],[0.121,0.118,0.14,0.138,0.132,0.12,0.142,0.13,0.125,0.129,0.0,0.0,0.0,0.301,1.008,0.227,0.113,0.118,0.128,0.14,0.14,0.134,0.129,0.124,0.131,0.139,0.15,0.148],[0.119,0.127,0.136,0.129,0.14,0.13,0.131,0.119,0.131,0.145,0.0,0.0,0.0,0.54,1.059,0.182,0.117,0.135,0.136,0.138,0.136,0.136,0.131,0.117,0.13,0.138,0.156,0.152],[0.0,0.0,0.0,0.0,0.0,0.063,0.39,0.419,0.346,0.0,0.0,0.0,0.0,0.919,0.893,0.132,0.117,0.128,0.134,0.145,0.146,0.146,0.124,0.118,0.127,0.138,0.149,0.155],[0.0,0.0,0.0,0.0,0.0,0.0,0.0,0.0,0.0,0.0,0.0,0.0,0.308,1.043,0.89,0.128,0.132,0.131,0.14,0.143,0.156,0.148,0.131,0.126,0.116,0.127,0.148,0.152],[0.0,0.0,0.0,0.0,0.0,0.0,0.173,0.304,0.318,0.0,0.0,0.0,0.0,0.733,0.355,0.0,0.05,0.393,0.431,0.366,0.156,0.155,0.13,0.132,0.133,0.134,0.145,0.153],[0.0,0.0,0.0,0.0,0.0,0.0,0.0,0.0,0.084,0.0,0.0,0.0,0.207,0.87,0.412,0.0,0.0,0.0,0.0,0.193,0.404,0.435,0.339,0.134,0.135,0.131,0.14,0.154],[0.0,0.0,0.0,0.0,0.0,0.0,0.0,0.0,0.0,0.0,0.0,0.0,0.0,0.67,0.14,0.0,0.0,0.172,0.299,0.501,0.385,0.438,0.248,0.133,0.139,0.144,0.141,0.149],[0.129,0.134,0.136,0.127,0.0,0.0,0.0,0.0,0.0,0.0,0.0,0.0,0.0,0.376,0.0,0.0,0.0,0.0,0.0,0.359,0.622,0.559,0.428,0.14,0.14,0.136,0.133,0.155],[0.125,0.13,0.136,0.13,0.119,0.124,0.129,0.131,0.0,0.0,0.0,0.0,0.202,0.333,0.0,0.0,0.0,0.0,0.0,0.0,0.111,0.168,0.15,0.134,0.146,0.138,0.134,0.148],[0.113,0.117,0.136,0.141,0.123,0.123,0.124,0.135,0.0,0.0,0.0,0.128,0.948,0.651,0.115,0.0,0.0,0.0,0.0,0.0,0.217,0.345,0.172,0.127,0.137,0.137,0.137,0.159],[0.112,0.111,0.127,0.14,0.132,0.129,0.137,0.121,0.0,0.0,0.0,0.333,1.066,0.514,0.121,0.148,0.15,0.149,0.127,0.149,0.14,0.129,0.126,0.132,0.146,0.138,0.137,0.155],[0.111,0.131,0.141,0.139,0.131,0.132,0.138,0.131,0.0,0.0,0.0,0.286,0.987,0.197,0.114,0.129,0.136,0.141,0.143,0.148,0.156,0.123,0.127,0.129,0.123,0.13,0.126,0.159],[0.106,0.125,0.131,0.145,0.136,0.14,0.132,0.117,0.0,0.0,0.0,0.528,1.034,0.165,0.104,0.137,0.128,0.122,0.142,0.137,0.131,0.122,0.117,0.141,0.13,0.12,0.123,0.147],[0.1,0.107,0.121,0.13,0.14,0.145,0.145,0.131,0.0,0.0,0.0,0.61,0.662,0.127,0.123,0.118,0.135,0.134,0.136,0.145,0.135,0.131,0.125,0.123,0.122,0.121,0.14,0.163],[0.082,0.125,0.124,0.133,0.152,0.155,0.149,0.135,0.0,0.0,0.0,0.435,0.545,0.125,0.136,0.123,0.116,0.13,0.147,0.131,0.143,0.144,0.139,0.144,0.13,0.121,0.121,0.148],[0.092,0.128,0.136,0.153,0.146,0.159,0.136,0.136,0.0,0.0,0.0,0.318,0.243,0.133,0.124,0.12,0.118,0.133,0.158,0.143,0.129,0.142,0.135,0.124,0.125,0.121,0.135,0.146],[0.084,0.12,0.134,0.139,0.149,0.143,0.139,0.12,0.0,0.0,0.0,0.314,0.214,0.15,0.128,0.112,0.121,0.134,0.149,0.146,0.136,0.145,0.138,0.119,0.133,0.138,0.143,0.143],[0.081,0.128,0.122,0.104,0.125,0.145,0.14,0.142,0.136,0.141,0.136,0.149,0.149,0.153,0.133,0.119,0.122,0.13,0.144,0.154,0.158,0.147,0.118,0.115,0.125,0.143,0.142,0.154],[0.105,0.13,0.147,0.114,0.12,0.144,0.139,0.131,0.132,0.127,0.137,0.147,0.142,0.151,0.133,0.122,0.114,0.116,0.142,0.155,0.157,0.149,0.124,0.111,0.134,0.14,0.153,0.151],[0.119,0.136,0.145,0.119,0.132,0.143,0.137,0.131,0.127,0.122,0.127,0.129,0.129,0.143,0.14,0.131,0.107,0.11,0.13,0.157,0.16,0.145,0.117,0.105,0.115,0.141,0.147,0.164],[0.127,0.148,0.146,0.119,0.119,0.139,0.141,0.129,0.124,0.133,0.138,0.13,0.137,0.141,0.15,0.139,0.114,0.112,0.129,0.141,0.158,0.139,0.123,0.114,0.116,0.138,0.14,0.155],[0.127,0.138,0.149,0.129,0.131,0.143,0.151,0.144,0.139,0.132,0.143,0.127,0.129,0.145,0.149,0.158,0.128,0.111,0.125,0.144,0.149,0.139,0.126,0.123,0.123,0.129,0.138,0.152]],[[0.0,0.0,0.0,0.003,0.001,0.0,0.0,0.0,0.0,0.0,0.0,0.0,0.0,0.0,0.0,0.0,0.0,0.0,0.0,0.0,0.0,0.0,0.0,0.0,0.0,0.0,0.0,0.0],[0.0,0.0,0.0,0.0,0.008,0.0,0.008,0.0,0.0,0.0,0.0,0.0,0.245,0.358,0.314,0.103,0.0,0.0,0.0,0.002,0.0,0.0,0.0,0.0,0.0,0.0,0.0,0.0],[0.0,0.0,0.0,0.0,0.0,0.0,0.0,0.0,0.0,0.0,0.0,0.0,0.094,0.649,0.317,0.196,0.0,0.0,0.0,0.008,0.0,0.0,0.0,0.0,0.0,0.0,0.0,0.0],[0.0,0.0,0.0,0.0,0.0,0.0,0.0,0.001,0.0,0.0,0.0,0.098,0.411,0.82,0.245,0.123,0.0,0.0,0.0,0.0,0.0,0.0,0.0,0.0,0.0,0.0,0.0,0.0],[0.0,0.0,0.0,0.0,0.0,0.0,0.0,0.0,0.0,0.0,0.0,0.246,0.576,0.266,0.187,0.238,0.006,0.0,0.0,0.0,0.0,0.001,0.0,0.0,0.0,0.0,0.0,0.0],[0.0,0.0,0.0,0.0,0.0,0.0,0.0,0.0,0.002,0.002,0.0,0.235,0.571,0.0,0.0,0.0,0.0,0.0,0.0,0.0,0.0,0.0,0.0,0.0,0.0,0.0,0.0,0.0],[0.0,0.0,0.0,0.0,0.0,0.0,0.0,0.0,0.0,0.0,0.0,0.259,0.358,0.0,0.144,0.0,0.0,0.0,0.0,0.0,0.0,0.0,0.0,0.0,0.0,0.0,0.0,0.0],[0.0,0.0,0.0,0.0,0.0,0.0,0.0,0.0,0.0,0.0,0.0,0.119,0.0,0.0,0.0,0.0,0.0,0.0,0.0,0.0,0.0,0.0,0.0,0.0,0.0,0.0,0.0,0.0],[0.0,0.061,0.413,0.745,0.864,1.027,0.781,0.435,0.104,0.0,0.238,0.507,0.229,0.059,0.02,0.0,0.002,0.0,0.002,0.0,0.0,0.0,0.0,0.0,0.0,0.0,0.0,0.0],[0.0,0.0,0.129,0.16,0.099,0.334,0.842,0.88,0.981,0.837,0.824,1.237,0.336,0.177,0.024,0.0,0.0,0.0,0.0,0.0,0.0,0.0,0.0,0.0,0.0,0.0,0.0,0.0],[0.0,0.0,0.0,0.0,0.0,0.0,0.0,0.0,0.174,0.131,0.491,0.611,0.277,0.533,0.794,0.862,1.043,0.787,0.412,0.088,0.0,0.0,0.0,0.0,0.0,0.0,0.0,0.0],[0.109,0.199,0.0,0.087,0.327,0.193,0.0,0.064,0.0,0.0,0.0,0.0,0.0,0.172,0.088,0.085,0.339,0.868,0.877,1.147,0.775,0.414,0.099,0.01,0.0,0.0,0.0,0.0],[0.0,0.0,0.0,0.0,0.0,0.0,0.0,0.0,0.0,0.141,0.391,0.301,0.0,0.0,0.0,0.0,0.0,0.0,0.0,0.159,0.397,0.096,0.102,0.0,0.0,0.0,0.0,0.0],[0.0,0.0,0.0,0.0,0.0,0.0,0.0,0.0,0.0,0.0,0.0,0.0,0.0,0.0,0.0,0.338,0.209,0.0,0.06,0.0,0.0,0.0,0.0,0.0,0.0,0.0,0.0,0.0],[0.0,0.0,0.0,0.0,0.0,0.0,0.0,0.0,0.0,0.227,0.493,0.194,0.0,0.0,0.0,0.0,0.0,0.0,0.0,0.0,0.092,0.327,0.21,0.0,0.0,0.0,0.0,0.001],[0.0,0.0,0.0,0.0,0.0,0.0,0.0,0.0,0.0,0.245,0.571,0.0,0.0,0.0,0.005,0.011,0.0,0.0,0.0,0.0,0.0,0.0,0.0,0.0,0.0,0.0,0.0,0.0],[0.0,0.0,0.001,0.006,0.0,0.0,0.0,0.0,0.0,0.222,0.57,0.0,0.0,0.0,0.0,0.0,0.0,0.0,0.004,0.0,0.004,0.0,0.0,0.0,0.0,0.0,0.0,0.0],[0.0,0.0,0.0,0.0,0.0,0.0,0.0,0.0,0.0,0.266,0.349,0.0,0.131,0.0,0.0,0.0,0.0,0.0,0.0,0.0,0.0,0.0,0.0,0.0,0.0,0.0,0.0,0.0],[0.002,0.0,0.0,0.0,0.0,0.0,0.0,0.0,0.0,0.118,0.0,0.0,0.0,0.0,0.0,0.0,0.0,0.004,0.0,0.0,0.0,0.006,0.0,0.0,0.0,0.0,0.0,0.0],[0.0,0.003,0.0,0.0,0.0,0.0,0.0,0.0,0.129,0.0,0.0,0.0,0.0,0.0,0.0,0.0,0.0,0.0,0.0,0.0,0.0,0.0,0.0,0.0,0.0,0.0,0.0,0.0],[0.0,0.001,0.0,0.0,0.0,0.0,0.0,0.0,0.129,0.032,0.0,0.0,0.0,0.0,0.0,0.0,0.0,0.0,0.0,0.0,0.0,0.0,0.0,0.0,0.0,0.0,0.0,0.0],[0.0,0.0,0.0,0.0,0.0,0.0,0.0,0.0,0.111,0.057,0.0,0.0,0.0,0.0,0.0,0.0,0.0,0.0,0.0,0.0,0.0,0.0,0.0,0.0,0.0,0.0,0.0,0.0],[0.0,0.0,0.0,0.0,0.0,0.0,0.0,0.0,0.0,0.0,0.0,0.0,0.0,0.0,0.0,0.0,0.0,0.0,0.0,0.0,0.0,0.0,0.0,0.0,0.002,0.0,0.0,0.0],[0.0,0.0,0.0,0.0,0.0,0.003,0.008,0.0,0.0,0.0,0.0,0.0,0.0,0.0,0.0,0.0,0.0,0.0,0.0,0.014,0.0,0.0,0.0,0.0,0.001,0.0,0.0,0.0],[0.0,0.0,0.0,0.0,0.0,0.0,0.0,0.0,0.0,0.0,0.0,0.0,0.0,0.0,0.0,0.0,0.0,0.0,0.0,0.0,0.0,0.0,0.0,0.0,0.0,0.0,0.0,0.0],[0.0,0.0,0.0,0.0,0.0,0.0,0.0,0.0,0.0,0.0,0.004,0.0,0.0,0.001,0.0,0.0,0.0,0.0,0.0,0.0,0.0,0.0,0.0,0.0,0.0,0.0,0.0,0.0],[0.0,0.0,0.0,0.0,0.0,0.0,0.0,0.0,0.0,0.0,0.0,0.0,0.0,0.0,0.0,0.0,0.0,0.0,0.0,0.0,0.0,0.0,0.0,0.0,0.0,0.0,0.0,0.0],[0.0,0.0,0.0,0.0,0.0,0.0,0.0,0.0,0.0,0.0,0.0,0.0,0.0,0.0,0.0,0.0,0.0,0.0,0.0,0.0,0.0,0.0,0.0,0.0,0.0,0.0,0.0,0.0]],[[0.0,0.001,0.001,0.008,0.008,0.002,0.0,0.0,0.0,0.0,0.0,0.0,0.001,0.0,0.009,0.0,0.005,0.0,0.0,0.0,0.0,0.003,0.009,0.0,0.0,0.0,0.009,0.013],[0.0,0.004,0.001,0.014,0.031,0.022,0.006,0.0,0.0,0.0,0.0,0.0,0.184,0.388,0.271,0.051,0.003,0.0,0.001,0.018,0.009,0.0,0.002,0.016,0.009,0.009,0.0,0.008],[0.0,0.007,0.033,0.019,0.035,0.029,0.021,0.0,0.0,0.003,0.007,0.0,0.497,0.83,0.456,0.177,0.013,0.015,0.032,0.032,0.013,0.021,0.025,0.011,0.009,0.014,0.02,0.019],[0.0,0.016,0.017,0.023,0.026,0.037,0.019,0.016,0.0,0.007,0.01,0.328,0.915,1.327,0.759,0.518,0.031,0.032,0.034,0.036,0.028,0.028,0.015,0.008,0.02,0.018,0.006,0.009],[0.01,0.004,0.023,0.022,0.036,0.029,0.031,0.009,0.005,0.0,0.0,0.621,1.452,1.463,0.973,0.473,0.017,0.034,0.046,0.047,0.048,0.022,0.002,0.017,0.016,0.012,0.0,0.0],[0.0,0.008,0.022,0.024,0.021,0.012,0.017,0.009,0.023,0.027,0.175,1.084,1.57,1.557,1.309,0.516,0.028,0.048,0.048,0.037,0.024,0.019,0.023,0.013,0.016,0.018,0.024,0.0],[0.006,0.015,0.032,0.02,0.014,0.021,0.02,0.022,0.028,0.02,0.137,1.183,1.824,1.64,0.967,0.201,0.02,0.041,0.02,0.025,0.024,0.014,0.011,0.018,0.032,0.025,0.004,0.001],[0.009,0.017,0.018,0.014,0.034,0.024,0.015,0.016,0.016,0.018,0.502,1.314,1.784,1.464,0.851,0.217,0.021,0.018,0.026,0.017,0.005,0.0,0.01,0.009,0.012,0.018,0.02,0.001],[0.022,0.202,0.59,0.83,0.858,0.842,0.665,0.304,0.064,0.02,0.686,1.338,1.92,1.261,0.703,0.026,0.017,0.021,0.033,0.013,0.006,0.0,0.0,0.007,0.019,0.02,0.009,0.0],[0.0,0.26,0.708,0.869,1.008,1.238,1.326,1.141,0.992,0.8,1.639,2.055,2.133,1.395,0.712,0.01,0.013,0.011,0.022,0.021,0.013,0.0,0.0,0.003,0.016,0.008,0.018,0.004],[0.216,0.277,0.544,0.862,1.164,1.236,1.595,1.516,1.357,1.21,1.781,2.358,2.701,2.298,1.514,0.858,0.856,0.683,0.296,0.054,0.011,0.007,0.0,0.0,0.0,0.013,0.021,0.002],[0.0,0.283,0.62,0.949,1.134,1.211,1.206,1.149,1.141,1.115,2.251,2.767,2.939,2.129,1.532,1.002,1.255,1.33,1.142,0.993,0.663,0.274,0.037,0.018,0.021,0.002,0.002,0.002],[0.365,0.487,0.739,0.899,1.076,1.016,1.216,1.324,1.157,1.425,2.133,2.649,2.305,2.031,1.372,1.14,1.233,1.617,1.512,1.407,0.756,0.317,0.151,0.014,0.006,0.018,0.007,0.0],[0.001,0.015,0.025,0.014,0.377,0.511,0.743,0.874,1.078,1.221,1.908,2.412,2.268,1.805,1.144,1.13,1.206,1.187,1.14,0.937,0.907,0.639,0.337,0.01,0.03,0.013,0.003,0.0],[0.015,0.009,0.017,0.017,0.023,0.028,0.03,0.028,0.027,0.693,1.699,2.399,1.98,1.58,1.121,1.102,1.017,1.216,1.318,1.138,0.619,0.302,0.0,0.02,0.011,0.003,0.005,0.009],[0.001,0.03,0.038,0.028,0.011,0.015,0.03,0.027,0.0,0.998,1.604,1.724,1.155,0.703,0.047,0.416,0.501,0.745,0.861,0.73,0.602,0.38,0.229,0.026,0.022,0.02,0.018,0.009],[0.027,0.04,0.032,0.029,0.031,0.026,0.031,0.024,0.173,1.114,1.59,1.597,1.332,0.547,0.05,0.054,0.044,0.026,0.02,0.012,0.014,0.0,0.014,0.026,0.021,0.026,0.009,0.006],[0.028,0.027,0.028,0.05,0.04,0.029,0.021,0.026,0.158,1.21,1.847,1.652,0.992,0.243,0.054,0.054,0.043,0.04,0.024,0.014,0.007,0.01,0.016,0.026,0.018,0.031,0.028,0.029],[0.022,0.037,0.047,0.028,0.033,0.021,0.031,0.02,0.511,1.321,1.795,1.495,0.87,0.257,0.045,0.048,0.043,0.038,0.017,0.028,0.015,0.029,0.016,0.012,0.032,0.032,0.026,0.024],[0.05,0.069,0.052,0.052,0.046,0.022,0.005,0.01,0.508,0.784,1.303,0.966,0.686,0.029,0.021,0.025,0.044,0.029,0.041,0.011,0.021,0.023,0.008,0.027,0.018,0.022,0.018,0.026],[0.046,0.071,0.063,0.064,0.037,0.023,0.0,0.004,0.543,0.466,0.846,0.799,0.526,0.002,0.003,0.019,0.012,0.021,0.019,0.01,0.001,0.009,0.0,0.006,0.003,0.013,0.018,0.01],[0.034,0.074,0.068,0.042,0.036,0.016,0.015,0.007,0.342,0.419,0.572,0.494,0.193,0.0,0.004,0.013,0.018,0.027,0.011,0.0,0.0,0.0,0.0,0.0,0.006,0.015,0.017,0.019],[0.035,0.05,0.053,0.049,0.031,0.016,0.02,0.01,0.389,0.136,0.254,0.158,0.218,0.0,0.0,0.001,0.034,0.022,0.012,0.017,0.002,0.0,0.0,0.008,0.015,0.023,0.0,0.0],[0.036,0.064,0.049,0.044,0.044,0.059,0.008,0.013,0.025,0.021,0.012,0.018,0.002,0.0,0.0,0.004,0.014,0.019,0.033,0.027,0.0,0.0,0.0,0.011,0.026,0.014,0.025,0.008],[0.036,0.033,0.043,0.022,0.036,0.028,0.036,0.018,0.013,0.013,0.029,0.018,0.007,0.005,0.0,0.0,0.01,0.033,0.048,0.022,0.004,0.0,0.005,0.005,0.019,0.037,0.024,0.005],[0.019,0.03,0.023,0.021,0.009,0.032,0.019,0.024,0.013,0.034,0.014,0.006,0.022,0.021,0.007,0.012,0.014,0.027,0.032,0.024,0.019,0.004,0.0,0.02,0.032,0.048,0.015,0.014],[0.013,0.017,0.021,0.005,0.016,0.015,0.016,0.002,0.003,0.008,0.013,0.009,0.014,0.016,0.011,0.008,0.0,0.013,0.031,0.029,0.009,0.0,0.014,0.015,0.022,0.018,0.034,0.012],[0.008,0.006,0.013,0.015,0.006,0.002,0.0,0.0,0.0,0.0,0.0,0.004,0.0,0.004,0.003,0.002,0.0,0.011,0.004,0.009,0.0,0.012,0.0,0.006,0.01,0.029,0.011,0.007]],[[0.0,0.0,0.0,0.0,0.0,0.0,0.0,0.0,0.0,0.0,0.0,0.0,0.0,0.0,0.0,0.0,0.0,0.0,0.0,0.0,0.0,0.0,0.0,0.0,0.0,0.0,0.0,0.0],[0.0,0.0,0.0,0.0,0.0,0.0,0.0,0.0,0.0,0.0,0.0,0.145,0.134,0.071,0.071,0.0,0.0,0.0,0.0,0.0,0.0,0.0,0.0,0.0,0.0,0.0,0.0,0.0],[0.0,0.0,0.0,0.0,0.0,0.0,0.0,0.0,0.0,0.0,0.0,0.179,0.416,0.362,0.094,0.022,0.0,0.0,0.0,0.0,0.0,0.0,0.0,0.0,0.0,0.0,0.0,0.0],[0.0,0.0,0.0,0.0,0.0,0.0,0.0,0.0,0.0,0.0,0.144,0.397,0.533,0.518,0.298,0.248,0.0,0.0,0.0,0.0,0.0,0.0,0.0,0.0,0.0,0.0,0.0,0.0],[0.0,0.0,0.0,0.0,0.0,0.0,0.0,0.0,0.0,0.0,0.173,0.722,0.635,0.586,0.519,0.424,0.0,0.0,0.0,0.0,0.0,0.0,0.0,0.0,0.0,0.0,0.0,0.0],[0.0,0.0,0.0,0.0,0.0,0.0,0.0,0.0,0.0,0.0,0.263,0.586,0.716,0.784,0.673,0.43,0.0,0.0,0.001,0.002,0.0,0.0,0.0,0.0,0.0,0.0,0.0,0.0],[0.0,0.0,0.0,0.0,0.0,0.0,0.0,0.0,0.0,0.0,0.459,0.457,0.873,0.98,0.634,0.195,0.0,0.0,0.0,0.0,0.0,0.0,0.0,0.0,0.0,0.0,0.0,0.0],[0.0,0.0,0.0,0.0,0.0,0.0,0.0,0.0,0.0,0.0,0.311,0.563,1.147,0.768,0.411,0.043,0.0,0.0,0.0,0.0,0.0,0.0,0.0,0.0,0.0,0.0,0.0,0.0],[0.163,0.307,0.409,0.513,0.518,0.317,0.178,0.085,0.0,0.157,0.472,0.824,0.944,0.518,0.484,0.0,0.0,0.0,0.0,0.0,0.0,0.0,0.0,0.0,0.0,0.0,0.0,0.0],[0.002,0.295,0.582,0.585,0.788,0.922,0.738,0.551,0.55,0.525,0.948,1.198,0.956,0.55,0.494,0.0,0.0,0.0,0.0,0.0,0.0,0.0,0.0,0.0,0.0,0.0,0.0,0.0],[0.053,0.086,0.176,0.37,0.634,0.831,1.085,1.019,0.849,0.877,1.09,1.389,1.54,1.22,1.002,0.503,0.331,0.176,0.078,0.0,0.0,0.0,0.0,0.0,0.0,0.0,0.0,0.0],[0.174,0.16,0.319,0.608,0.875,0.684,0.78,0.821,0.773,1.008,1.091,1.631,1.884,1.465,1.073,0.797,0.934,0.75,0.544,0.361,0.178,0.078,0.0,0.0,0.0,0.0,0.0,0.0],[0.0,0.112,0.383,0.313,0.562,0.716,0.584,0.6,0.826,0.901,1.463,1.692,1.293,1.082,0.829,0.621,0.825,1.089,1.031,0.822,0.289,0.03,0.012,0.0,0.0,0.0,0.0,0.0],[0.0,0.0,0.0,0.0,0.0,0.117,0.373,0.328,0.383,0.842,1.012,1.337,1.165,1.047,0.839,0.868,0.674,0.769,0.821,0.687,0.487,0.41,0.19,0.0,0.0,0.0,0.0,0.0],[0.0,0.0,0.0,0.0,0.0,0.0,0.0,0.0,0.152,0.474,0.668,1.071,0.92,0.834,0.387,0.587,0.712,0.576,0.584,0.623,0.585,0.422,0.146,0.0,0.0,0.0,0.0,0.0],[0.0,0.0,0.0,0.0,0.0,0.0,0.0,0.0,0.194,0.583,0.94,0.865,0.475,0.498,0.004,0.0,0.131,0.377,0.318,0.523,0.212,0.0,0.049,0.0,0.0,0.0,0.0,0.0],[0.0,0.002,0.008,0.0,0.0,0.0,0.0,0.0,0.277,0.574,0.739,0.807,0.685,0.453,0.0,0.008,0.0,0.0,0.0,0.0,0.0,0.0,0.0,0.0,0.0,0.0,0.0,0.0],[0.0,0.0,0.0,0.0,0.0,0.0,0.0,0.0,0.474,0.475,0.891,0.998,0.663,0.226,0.0,0.008,0.009,0.0,0.0,0.0,0.0,0.0,0.0,0.0,0.0,0.0,0.0,0.0],[0.0,0.0,0.0,0.0,0.0,0.0,0.0,0.0,0.316,0.565,1.161,0.774,0.423,0.066,0.009,0.0,0.006,0.0,0.0,0.0,0.0,0.0,0.0,0.0,0.0,0.0,0.0,0.0],[0.0,0.019,0.011,0.0,0.0,0.0,0.0,0.0,0.124,0.559,0.755,0.427,0.47,0.0,0.0,0.002,0.0,0.0,0.0,0.0,0.0,0.0,0.0,0.0,0.0,0.0,0.0,0.0],[0.012,0.0,0.015,0.012,0.0,0.0,0.0,0.0,0.105,0.272,0.467,0.391,0.447,0.0,0.0,0.0,0.0,0.0,0.0,0.0,0.0,0.0,0.0,0.0,0.0,0.0,0.0,0.0],[0.0,0.005,0.003,0.004,0.0,0.0,0.0,0.0,0.017,0.246,0.396,0.194,0.195,0.0,0.0,0.0,0.0,0.0,0.0,0.0,0.0,0.0,0.0,0.0,0.0,0.0,0.0,0.0],[0.0,0.009,0.003,0.003,0.0,0.0,0.0,0.0,0.0,0.28,0.235,0.0,0.026,0.0,0.0,0.0,0.0,0.0,0.0,0.0,0.0,0.0,0.0,0.0,0.0,0.0,0.0,0.0],[0.0,0.0,0.012,0.017,0.0,0.0,0.0,0.0,0.0,0.0,0.0,0.0,0.0,0.0,0.0,0.0,0.0,0.0,0.0,0.0,0.0,0.0,0.0,0.0,0.0,0.0,0.0,0.0],[0.0,0.002,0.0,0.0,0.004,0.0,0.0,0.0,0.0,0.0,0.0,0.0,0.0,0.0,0.0,0.0,0.0,0.0,0.002,0.0,0.0,0.0,0.0,0.0,0.0,0.0,0.0,0.0],[0.0,0.0,0.0,0.0,0.0,0.0,0.006,0.0,0.0,0.0,0.0,0.0,0.0,0.0,0.0,0.0,0.0,0.0,0.0,0.0,0.0,0.0,0.0,0.0,0.0,0.0,0.0,0.0],[0.0,0.0,0.0,0.0,0.0,0.0,0.0,0.0,0.0,0.0,0.0,0.0,0.0,0.0,0.0,0.0,0.0,0.0,0.0,0.0,0.0,0.0,0.0,0.0,0.0,0.0,0.0,0.0],[0.0,0.0,0.0,0.0,0.0,0.0,0.0,0.0,0.0,0.0,0.0,0.0,0.0,0.0,0.0,0.0,0.0,0.0,0.0,0.0,0.0,0.0,0.0,0.0,0.0,0.0,0.0,0.0]]],"pool1Out":[[[0.0,0.0,0.0,0.0,0.0,0.0,0.239,0.087,0.0,0.0,0.0,0.0,0.0,0.0],[0.0,0.016,0.0,0.0,0.0,0.64,0.692,0.695,0.0,0.004,0.0,0.0,0.0,0.006],[0.0,0.002,0.007,0.0,0.0,0.73,1.461,1.075,0.007,0.035,0.007,0.0,0.0,0.0],[0.0,0.002,0.0,0.004,0.0,1.288,1.607,1.185,0.004,0.014,0.005,0.0,0.0,0.0],[0.244,0.798,0.904,0.926,0.581,1.593,1.516,0.846,0.0,0.0,0.0,0.0,0.0,0.0],[0.429,1.002,1.509,1.336,1.44,2.587,2.283,1.624,0.933,0.832,0.162,0.0,0.0,0.0],[0.422,0.895,1.321,1.312,1.451,2.396,2.476,1.723,1.332,1.345,0.849,0.293,0.0,0.0],[0.0,0.011,0.002,0.005,0.75,1.572,1.75,1.165,1.346,1.274,0.71,0.256,0.002,0.0],[0.012,0.008,0.013,0.01,0.861,1.636,1.114,0.027,0.026,0.0,0.0,0.0,0.003,0.003],[0.01,0.039,0.008,0.0,1.299,1.38,1.217,0.042,0.019,0.017,0.0,0.004,0.013,0.0],[0.028,0.048,0.006,0.0,0.853,0.754,0.703,0.0,0.001,0.0,0.0,0.0,0.0,0.0],[0.03,0.033,0.014,0.002,0.33,0.33,0.247,0.0,0.004,0.0,0.0,0.0,0.0,0.0],[0.003,0.024,0.008,0.022,0.0,0.0,0.0,0.0,0.006,0.012,0.0,0.005,0.008,0.0],[0.0,0.0,0.0,0.0,0.0,0.0,0.0,0.0,0.0,0.014,0.0,0.0,0.003,0.0]],[[0.083,0.11,0.114,0.092,0.071,0.162,0.479,0.503,0.102,0.098,0.096,0.092,0.089,0.097],[0.093,0.126,0.132,0.117,0.091,1.09,1.737,1.255,0.132,0.132,0.118,0.099,0.093,0.105],[0.088,0.112,0.126,0.108,0.112,1.679,2.3,1.589,0.128,0.154,0.12,0.1,0.115,0.096],[0.105,0.11,0.115,0.115,0.111,1.915,2.44,1.709,0.104,0.121,0.101,0.106,0.115,0.103],[0.978,1.679,2.1,1.949,1.828,3.266,2.779,1.552,0.108,0.113,0.087,0.084,0.101,0.097],[0.598,1.465,2.553,2.66,2.468,4.413,4.035,2.986,2.105,1.943,0.975,0.228,0.095,0.094],[0.304,0.638,1.346,1.557,2.205,3.661,3.474,2.445,2.643,2.422,1.304,0.474,0.103,0.081],[0.103,0.124,0.115,0.131,1.657,2.578,2.103,0.977,1.545,1.603,1.08,0.527,0.119,0.098],[0.128,0.141,0.126,0.119,1.81,2.474,1.733,0.153,0.15,0.112,0.097,0.11,0.126,0.116],[0.14,0.165,0.119,0.097,1.919,2.251,1.746,0.142,0.136,0.121,0.107,0.115,0.133,0.108],[0.156,0.184,0.109,0.101,1.033,1.169,1.063,0.09,0.111,0.101,0.08,0.086,0.095,0.102],[0.147,0.164,0.141,0.137,0.384,0.268,0.235,0.096,0.115,0.124,0.08,0.094,0.105,0.11],[0.113,0.142,0.116,0.116,0.119,0.106,0.102,0.089,0.134,0.129,0.097,0.113,0.124,0.12],[0.099,0.101,0.098,0.088,0.076,0.093,0.1,0.083,0.093,0.114,0.091,0.105,0.128,0.102]],[[0.303,0.301,0.322,0.31,0.298,0.298,0.612,0.618,0.316,0.312,0.316,0.304,0.31,0.314],[0.302,0.318,0.319,0.321,0.306,0.299,1.052,1.173,0.309,0.326,0.32,0.312,0.307,0.314],[0.306,0.311,0.326,0.312,0.32,0.36,1.429,1.303,0.317,0.336,0.321,0.311,0.316,0.318],[0.309,0.313,0.312,0.315,0.314,0.814,1.524,1.368,0.32,0.323,0.311,0.309,0.315,0.318],[0.217,0.6,1.048,1.101,0.996,1.581,1.861,0.989,0.309,0.321,0.313,0.304,0.31,0.311],[0.491,0.899,1.369,1.332,1.127,1.699,1.817,1.271,1.133,1.142,1.113,0.597,0.317,0.309],[0.588,0.655,0.681,0.882,1.067,2.133,1.943,1.229,1.37,1.213,0.745,0.448,0.315,0.306],[0.307,0.321,0.313,0.321,0.218,1.519,1.764,0.581,0.705,1.109,0.913,0.527,0.315,0.313],[0.314,0.321,0.328,0.319,0.523,1.553,1.38,0.349,0.337,0.322,0.307,0.31,0.317,0.32],[0.33,0.349,0.329,0.318,0.832,1.249,1.074,0.319,0.32,0.322,0.317,0.322,0.31,0.315],[0.337,0.343,0.329,0.309,0.845,0.686,0.589,0.301,0.322,0.317,0.307,0.299,0.308,0.319],[0.335,0.346,0.328,0.328,0.532,0.379,0.303,0.296,0.314,0.316,0.314,0.299,0.319,0.319],[0.326,0.327,0.317,0.323,0.313,0.325,0.314,0.321,0.305,0.321,0.309,0.317,0.324,0.32],[0.304,0.31,0.316,0.311,0.295,0.302,0.304,0.31,0.309,0.316,0.314,0.305,0.311,0.312]],[[0.228,0.241,0.251,0.236,0.216,0.215,0.536,0.758,0.216,0.24,0.244,0.232,0.244,0.236],[0.239,0.256,0.258,0.237,0.234,0.636,1.753,1.569,0.282,0.272,0.267,0.241,0.249,0.246],[0.237,0.274,0.258,0.234,0.245,2.371,2.588,1.398,0.297,0.277,0.267,0.251,0.263,0.231],[0.255,0.256,0.258,0.254,0.252,2.33,2.548,0.656,0.272,0.256,0.231,0.24,0.257,0.227],[0.777,1.552,1.799,1.632,1.459,3.3,3.054,0.361,0.249,0.256,0.242,0.238,0.247,0.229],[0.907,1.52,1.808,2.105,1.984,3.756,3.802,1.655,1.815,1.637,1.135,0.34,0.262,0.234],[1.132,1.688,1.97,1.811,2.179,3.372,3.141,1.683,2.052,2.123,1.254,0.494,0.256,0.231],[0.256,0.259,0.254,0.262,2.184,3.546,3.1,2.015,1.815,1.639,0.646,0.252,0.247,0.247],[0.27,0.271,0.283,0.267,2.415,2.625,1.369,0.296,0.259,0.259,0.245,0.256,0.262,0.258],[0.318,0.29,0.265,0.25,2.36,2.57,0.497,0.281,0.263,0.268,0.259,0.263,0.246,0.258],[0.306,0.316,0.271,0.235,1.439,1.32,0.222,0.24,0.256,0.229,0.223,0.232,0.264,0.246],[0.306,0.286,0.269,0.249,0.726,0.661,0.226,0.242,0.263,0.26,0.229,0.239,0.257,0.244],[0.293,0.263,0.264,0.258,0.257,0.245,0.241,0.253,0.27,0.262,0.237,0.247,0.277,0.245],[0.241,0.245,0.249,0.219,0.243,0.236,0.24,0.24,0.257,0.245,0.222,0.264,0.251,0.239]],[[0.14,0.138,0.157,0.155,0.145,0.15,0.131,0.354,0.153,0.142,0.141,0.143,0.153,0.147],[0.126,0.128,0.148,0.167,0.139,0.14,0.149,0.769,0.132,0.146,0.142,0.138,0.147,0.14],[0.129,0.133,0.145,0.15,0.135,0.0,0.328,1.068,0.116,0.144,0.147,0.14,0.143,0.154],[0.127,0.14,0.14,0.142,0.145,0.0,0.54,1.059,0.135,0.14,0.14,0.131,0.139,0.156],[0.0,0.0,0.063,0.419,0.346,0.0,1.043,0.893,0.132,0.145,0.156,0.131,0.138,0.155],[0.0,0.0,0.0,0.304,0.318,0.0,0.87,0.412,0.393,0.431,0.435,0.339,0.135,0.154],[0.134,0.136,0.0,0.0,0.0,0.0,0.67,0.14,0.172,0.501,0.622,0.428,0.144,0.155],[0.13,0.141,0.124,0.135,0.0,0.128,0.948,0.115,0.0,0.0,0.345,0.172,0.146,0.159],[0.131,0.141,0.132,0.138,0.0,0.333,1.066,0.148,0.15,0.149,0.156,0.132,0.146,0.159],[0.125,0.145,0.145,0.145,0.0,0.61,1.034,0.137,0.135,0.145,0.135,0.141,0.13,0.163],[0.128,0.153,0.159,0.149,0.0,0.435,0.545,0.136,0.133,0.158,0.144,0.144,0.13,0.148],[0.128,0.139,0.149,0.142,0.141,0.314,0.214,0.133,0.134,0.154,0.158,0.138,0.143,0.154],[0.136,0.147,0.144,0.139,0.132,0.147,0.151,0.14,0.116,0.157,0.16,0.124,0.141,0.164],[0.148,0.149,0.143,0.151,0.139,0.143,0.145,0.158,0.128,0.144,0.158,0.126,0.138,0.155]],[[0.0,0.003,0.008,0.008,0.0,0.0,0.358,0.314,0.0,0.002,0.0,0.0,0.0,0.0],[0.0,0.0,0.0,0.001,0.0,0.098,0.82,0.317,0.0,0.008,0.0,0.0,0.0,0.0],[0.0,0.0,0.0,0.0,0.002,0.246,0.576,0.238,0.006,0.0,0.001,0.0,0.0,0.0],[0.0,0.0,0.0,0.0,0.0,0.259,0.358,0.144,0.0,0.0,0.0,0.0,0.0,0.0],[0.061,0.745,1.027,0.88,0.981,1.237,0.336,0.024,0.002,0.002,0.0,0.0,0.0,0.0],[0.199,0.087,0.327,0.064,0.174,0.611,0.533,0.862,1.043,1.147,0.775,0.099,0.0,0.0],[0.0,0.0,0.0,0.0,0.141,0.391,0.0,0.338,0.209,0.159,0.397,0.102,0.0,0.0],[0.0,0.0,0.0,0.0,0.245,0.571,0.0,0.011,0.0,0.0,0.327,0.21,0.0,0.001],[0.0,0.006,0.0,0.0,0.266,0.57,0.131,0.0,0.0,0.004,0.004,0.0,0.0,0.0],[0.003,0.0,0.0,0.0,0.129,0.0,0.0,0.0,0.004,0.0,0.006,0.0,0.0,0.0],[0.001,0.0,0.0,0.0,0.129,0.0,0.0,0.0,0.0,0.0,0.0,0.0,0.0,0.0],[0.0,0.0,0.003,0.008,0.0,0.0,0.0,0.0,0.0,0.014,0.0,0.0,0.002,0.0],[0.0,0.0,0.0,0.0,0.0,0.004,0.001,0.0,0.0,0.0,0.0,0.0,0.0,0.0],[0.0,0.0,0.0,0.0,0.0,0.0,0.0,0.0,0.0,0.0,0.0,0.0,0.0,0.0]],[[0.004,0.014,0.031,0.006,0.0,0.0,0.388,0.271,0.005,0.018,0.009,0.016,0.009,0.013],[0.016,0.033,0.037,0.021,0.007,0.328,1.327,0.759,0.032,0.036,0.028,0.025,0.02,0.02],[0.01,0.024,0.036,0.031,0.027,1.084,1.57,1.309,0.048,0.048,0.048,0.023,0.018,0.024],[0.017,0.032,0.034,0.022,0.028,1.314,1.824,0.967,0.041,0.026,0.024,0.018,0.032,0.02],[0.26,0.869,1.238,1.326,0.992,2.055,2.133,0.712,0.021,0.033,0.013,0.007,0.02,0.018],[0.283,0.949,1.236,1.595,1.357,2.767,2.939,1.532,1.33,1.142,0.663,0.037,0.021,0.021],[0.487,0.899,1.076,1.324,1.425,2.649,2.305,1.372,1.617,1.512,0.907,0.337,0.03,0.007],[0.03,0.038,0.028,0.03,0.998,2.399,1.98,1.121,1.216,1.318,0.619,0.229,0.022,0.018],[0.04,0.05,0.04,0.031,1.21,1.847,1.332,0.054,0.044,0.024,0.014,0.026,0.031,0.029],[0.069,0.052,0.046,0.031,1.321,1.795,0.87,0.048,0.044,0.041,0.029,0.027,0.032,0.026],[0.074,0.068,0.037,0.015,0.543,0.846,0.526,0.019,0.027,0.019,0.009,0.006,0.015,0.019],[0.064,0.053,0.059,0.02,0.389,0.254,0.218,0.004,0.034,0.033,0.002,0.011,0.026,0.025],[0.036,0.043,0.036,0.036,0.034,0.029,0.022,0.012,0.033,0.048,0.019,0.02,0.048,0.024],[0.017,0.021,0.016,0.016,0.008,0.013,0.016,0.011,0.013,0.031,0.012,0.015,0.029,0.034]],[[0.0,0.0,0.0,0.0,0.0,0.145,0.134,0.071,0.0,0.0,0.0,0.0,0.0,0.0],[0.0,0.0,0.0,0.0,0.0,0.397,0.533,0.298,0.0,0.0,0.0,0.0,0.0,0.0],[0.0,0.0,0.0,0.0,0.0,0.722,0.784,0.673,0.0,0.002,0.0,0.0,0.0,0.0],[0.0,0.0,0.0,0.0,0.0,0.563,1.147,0.634,0.0,0.0,0.0,0.0,0.0,0.0],[0.307,0.585,0.922,0.738,0.55,1.198,0.956,0.494,0.0,0.0,0.0,0.0,0.0,0.0],[0.174,0.608,0.875,1.085,1.008,1.631,1.884,1.073,0.934,0.544,0.178,0.0,0.0,0.0],[0.112,0.383,0.716,0.6,0.901,1.692,1.293,0.868,1.089,1.031,0.487,0.19,0.0,0.0],[0.0,0.0,0.0,0.0,0.583,1.071,0.92,0.587,0.712,0.623,0.585,0.146,0.0,0.0],[0.002,0.008,0.0,0.0,0.574,0.998,0.685,0.008,0.009,0.0,0.0,0.0,0.0,0.0],[0.019,0.011,0.0,0.0,0.565,1.161,0.47,0.009,0.006,0.0,0.0,0.0,0.0,0.0],[0.012,0.015,0.0,0.0,0.272,0.467,0.447,0.0,0.0,0.0,0.0,0.0,0.0,0.0],[0.009,0.017,0.0,0.0,0.28,0.235,0.026,0.0,0.0,0.0,0.0,0.0,0.0,0.0],[0.002,0.0,0.004,0.006,0.0,0.0,0.0,0.0,0.0,0.002,0.0,0.0,0.0,0.0],[0.0,0.0,0.0,0.0,0.0,0.0,0.0,0.0,0.0,0.0,0.0,0.0,0.0,0.0]]],"conv2Out":[[[0.0,0.0,0.0,0.613,2.555,2.503,0.0,0.0,0.0,0.0,0.0,0.0,0.0,0.0],[0.0,0.0,0.0,1.364,3.533,2.566,0.0,0.0,0.0,0.0,0.0,0.0,0.0,0.0],[1.22,0.947,0.0,0.311,0.791,0.0,0.0,0.0,0.0,0.0,0.0,0.0,0.0,0.0],[2.817,2.307,0.0,0.0,0.0,0.0,0.0,0.0,0.0,0.0,0.0,0.0,0.0,0.0],[3.038,2.505,0.844,0.0,0.0,0.0,0.0,0.0,0.0,0.0,0.0,0.0,0.0,0.0],[0.417,0.528,1.55,1.893,0.864,0.0,0.0,0.531,0.0,0.0,0.0,0.0,0.0,0.0],[0.0,0.0,0.503,2.006,1.075,0.0,0.0,0.42,0.901,0.171,0.0,0.0,0.0,0.0],[0.0,0.0,0.0,0.4,0.0,0.0,0.0,0.0,0.922,2.296,2.251,1.197,0.008,0.0],[0.0,0.0,0.0,0.0,0.0,0.0,0.0,0.0,0.084,1.815,2.32,1.432,0.122,0.0],[0.0,0.0,0.0,0.0,0.0,0.0,0.0,0.0,0.0,0.416,0.894,0.521,0.0,0.0],[0.0,0.0,0.0,0.0,0.0,0.73,2.766,1.616,0.0,0.0,0.0,0.0,0.0,0.0],[0.0,0.0,0.0,0.0,0.0,0.991,2.254,1.033,0.0,0.0,0.0,0.0,0.0,0.0],[0.0,0.0,0.0,0.0,0.0,0.489,0.991,0.389,0.0,0.0,0.0,0.0,0.0,0.0],[0.0,0.0,0.0,0.0,0.0,0.131,0.119,0.0,0.0,0.0,0.0,0.0,0.0,0.048]],[[0.0,0.0,0.0,0.0,0.0,0.0,0.128,1.402,1.246,0.299,0.0,0.0,0.0,0.0],[0.0,0.0,0.0,0.0,0.0,0.0,0.719,2.215,1.634,0.229,0.0,0.0,0.0,0.0],[0.0,0.0,0.0,0.0,0.0,0.0,1.689,2.448,1.232,0.0,0.0,0.0,0.0,0.0],[0.0,0.0,0.0,0.0,0.0,1.17,2.352,2.02,0.722,0.032,0.133,0.0,0.0,0.0],[0.0,0.0,0.0,0.0,0.122,1.826,1.697,0.611,0.0,0.818,1.355,0.767,0.167,0.0],[0.0,0.0,0.0,0.0,0.0,1.181,0.677,0.0,0.0,1.609,2.363,1.493,0.48,0.0],[1.949,2.113,0.328,0.0,0.065,1.548,1.319,0.073,0.0,0.794,1.277,0.711,0.152,0.0],[1.678,2.0,0.146,0.0,0.672,2.979,3.032,1.333,0.0,0.0,0.0,0.0,0.0,0.0],[0.699,0.796,0.0,0.0,1.07,2.624,2.566,1.232,0.0,0.0,0.0,0.0,0.0,0.0],[0.0,0.0,0.0,0.958,1.797,1.659,0.653,0.0,0.0,0.0,0.0,0.0,0.0,0.0],[0.0,0.0,0.328,1.635,1.555,0.003,0.0,0.0,0.0,0.0,0.0,0.0,0.0,0.0],[0.0,0.0,0.434,1.38,1.112,0.0,0.0,0.0,0.0,0.0,0.0,0.0,0.0,0.0],[0.0,0.0,0.096,0.484,0.34,0.0,0.0,0.0,0.0,0.0,0.0,0.0,0.0,0.0],[0.0,0.0,0.0,0.0,0.0,0.0,0.0,0.0,0.0,0.0,0.0,0.0,0.0,0.0]],[[0.0,0.0,0.0,0.0,0.0,0.0,0.0,0.0,0.0,0.0,0.0,0.0,0.0,0.0],[0.0,0.0,0.0,0.0,0.0,0.0,0.0,0.0,0.0,0.0,0.0,0.0,0.0,0.0],[0.0,0.0,0.0,0.0,0.0,0.0,0.0,0.0,0.0,0.289,0.0,0.0,0.0,0.0],[0.0,0.0,0.0,0.0,0.0,0.0,0.0,0.0,0.0,0.0,0.0,0.0,0.0,0.0],[0.0,0.0,0.0,0.0,0.0,0.0,0.0,0.0,0.0,0.0,0.0,0.0,0.0,0.0],[1.638,2.315,2.791,3.398,3.162,2.888,1.967,1.449,0.0,0.0,0.0,0.0,0.0,0.0],[2.897,5.013,7.535,9.558,9.413,8.701,7.82,7.808,5.695,3.162,1.493,0.757,0.339,0.0],[1.92,3.439,5.45,7.527,8.284,8.492,9.156,11.118,10.817,8.81,6.494,3.846,1.436,0.106],[0.625,1.313,2.738,4.421,5.629,6.253,7.253,8.34,7.91,6.678,5.375,3.477,1.481,0.264],[0.0,0.0,0.663,2.177,3.556,4.874,6.277,5.761,3.933,3.019,2.581,1.726,0.838,0.181],[0.0,0.0,0.693,2.042,3.673,4.872,5.617,3.715,1.06,0.0,0.0,0.0,0.0,0.0],[0.0,0.0,0.506,1.358,